#Parameter# /vanilla-lstm-builder/_0 {128,64} 131073 ZERO_GRAD
-4.89266682e-03 +2.84297973e-01 +1.65950462e-01 -2.32268393e-01 +5.17691970e-02 +7.53166199e-01 +2.77946025e-01 -1.14319190e-01 +2.81257778e-01 +3.38337630e-01 +4.85251546e-02 +1.81869224e-01 +6.78093970e-01 +2.47305319e-01 -2.80208170e-01 +4.53800201e-01 -2.69688040e-01 -2.41867870e-01 +3.95372450e-01 -7.88374990e-02 +2.92287707e-01 +5.53990752e-02 +2.72247195e-01 +1.86220914e-01 +2.89067805e-01 +1.95105433e-01 +2.53578216e-01 +4.68208082e-03 -7.24111423e-02 +6.23197369e-02 -3.50016177e-01 +5.48050888e-02 +5.13571024e-01 +4.82947333e-03 -3.10392261e-01 -2.99148738e-01 -1.07035659e-01 -1.30110368e-01 -3.63051355e-01 -5.43141544e-01 -1.97259784e-01 +2.43493512e-01 -4.31159973e-01 -3.63106489e-01 -3.74177337e-01 -5.64753711e-02 -1.38053462e-01 +3.53928268e-01 -6.87002897e-01 +9.45464969e-02 +6.92428052e-01 -5.08837581e-01 +1.26558557e-01 -3.35585713e-01 +7.12905467e-01 -5.19183755e-01 +1.40493512e-01 -3.03530812e-01 -5.58327496e-01 -8.08344632e-02 -1.38023227e-01 -2.40713388e-01 +3.30715239e-01 -3.41739267e-01 +1.33023739e-01 -3.85200948e-01 +1.07151055e+00 -1.47142678e-01 -1.64553568e-01 -9.06321108e-02 +1.78617254e-01 +7.44783163e-01 +6.95529342e-01 +8.27977300e-01 -5.21978617e-01 -4.17406797e-01 +8.63420784e-01 +1.43211693e-01 +1.09624919e-02 +1.14102592e-03 -3.01260278e-02 -2.11447552e-02 -3.88299882e-01 +1.34238079e-02 +4.50542420e-01 -3.02800953e-01 +1.27196634e+00 +5.72750531e-02 +1.32632256e+00 -8.47283661e-01 -3.58998537e-01 +4.10061747e-01 -5.70990853e-02 +2.29596332e-01 -7.50996768e-01 -1.19555146e-01 -1.00282979e+00 +2.45121881e-01 -1.61979780e-01 -2.08235487e-01 +1.56461880e-01 +1.67791545e-01 +1.68045327e-01 +8.39207843e-02 -2.44572282e-01 +2.57333070e-01 +2.18524113e-02 -1.20562963e-01 -4.52532828e-01 +4.11861300e-01 +3.35606560e-02 -4.54278588e-02 +6.57817662e-01 +4.86283094e-01 +3.19315344e-01 -2.20275983e-01 -2.90622383e-01 -1.43666789e-02 -6.23497851e-02 +3.58665168e-01 +5.07112265e-01 -2.60014776e-02 +9.41454917e-02 -6.58570290e-01 +5.88794947e-01 -6.68762565e-01 +6.85694441e-02 -1.98912412e-01 -9.15855840e-02 -5.94757736e-01 +5.72259538e-02 +7.96963647e-02 -4.31667596e-01 -4.87968326e-02 +3.04565430e-01 +1.54638842e-01 +1.22840442e-02 -1.02761202e-01 +3.40169102e-01 -1.30207717e-01 -1.12162933e-01 +2.04067484e-01 -4.45051521e-01 -2.12710127e-01 -3.75764400e-01 +4.43848103e-01 +1.50312796e-01 +8.20122361e-02 -3.62763613e-01 +1.05966339e-02 +3.37972909e-01 +5.40050678e-02 +4.11856711e-01 +2.26537764e-01 +4.07460690e-01 +1.63594514e-01 -1.82684734e-02 -5.45515180e-01 -6.05918944e-01 -6.34708330e-02 -8.84037763e-02 -4.62313145e-01 -4.65429686e-02 -9.52892780e-01 -6.25271164e-03 -1.47815317e-01 +1.28423460e-02 -3.15249944e-03 -4.14492399e-01 -3.64538074e-01 +2.06603363e-01 -5.56889594e-01 -6.27002940e-02 -2.50276536e-01 -9.06870723e-01 +3.92429680e-02 -3.91295224e-01 -1.32252127e-01 -3.84217650e-01 +7.53659904e-02 -7.14594722e-01 -7.41687894e-01 +6.26153648e-02 -4.56873439e-02 -5.02104759e-02 +4.32316750e-01 +6.30727187e-02 +1.45042697e-02 +1.52766988e-01 +1.58474624e-01 +1.16764747e-01 +3.22747207e-03 -2.48595715e-01 -7.32287288e-01 -7.82637417e-01 +2.65088052e-01 -6.01547897e-01 -8.11461285e-02 +2.24537760e-01 -5.43505885e-03 +8.43339205e-01 -2.07192108e-01 +5.55611014e-01 +3.09087653e-02 -4.50972170e-01 -5.07788897e-01 -1.00521016e+00 -6.42310381e-01 -1.43020645e-01 +3.05969357e-01 -4.61725831e-01 -3.21018882e-02 -1.78586030e+00 -5.13952017e-01 +5.14816821e-01 -9.62318599e-01 +2.08882183e-01 +3.08037847e-01 -9.17154178e-02 +1.74320325e-01 +1.85988173e-01 -2.40700264e-02 -4.83724296e-01 +3.43852311e-01 -2.25770492e-02 -9.80872691e-01 -5.66935912e-02 +6.84540793e-02 -1.48438379e-01 -1.47827089e-01 -3.10327590e-01 +3.79198045e-01 +3.01141739e-01 +2.98144102e-01 -2.51961797e-01 -3.53790492e-01 +1.56884585e-02 -3.05696636e-01 -4.14580971e-01 +8.29286128e-02 +2.93673784e-01 -4.86932695e-01 -3.25046182e-01 -5.67430019e-01 +5.79969943e-01 +2.62214661e-01 +2.56497949e-01 -5.15944183e-01 -1.61526483e-02 -1.17453091e-01 -1.53450176e-01 +6.10649526e-01 +1.44971132e-01 -5.42623959e-02 +4.72621545e-02 +6.73010424e-02 +8.76865685e-02 -4.16729808e-01 +5.81801116e-01 -1.85924694e-01 +1.61371469e-01 -1.16636239e-01 -2.74390072e-01 +5.78792058e-02 +1.33010885e-02 +3.35120142e-01 -4.86629456e-01 +2.43440226e-01 -6.36801362e-01 -2.23330468e-01 -1.43193841e-01 -5.73907316e-01 -1.32712230e-01 -4.86317962e-01 -2.72911098e-02 -2.26554364e-01 -4.01079983e-01 +1.14728771e-02 +2.00339898e-01 -2.52394378e-01 -5.59207022e-01 +7.26736933e-02 -2.10870773e-01 +5.89154623e-02 -9.04186442e-03 +2.72327095e-01 +2.10728705e-01 +1.05094753e-01 -6.30579948e-01 +1.44511601e-02 -4.39408012e-02 -1.16655454e-01 -2.84000963e-01 +1.14062570e-01 +9.09442455e-02 -1.73440665e-01 +5.06727576e-01 +5.17149456e-02 -5.18493295e-01 +3.98350060e-01 +2.05129400e-01 +6.15000688e-02 +2.80020952e-01 -5.66227555e-01 -2.17172578e-01 -8.93639103e-02 +3.47298175e-01 +3.89109641e-01 +1.13446072e-01 +2.21467763e-01 +2.09387508e-03 -5.45597486e-02 +2.34626859e-01 -2.57275283e-01 +7.30620045e-03 -8.21470097e-02 +1.40586331e-01 -2.48869076e-01 +8.27592164e-02 +2.67886162e-01 +2.19744686e-02 -6.93228126e-01 -6.65663719e-01 -8.56227756e-01 +1.65367395e-01 -3.23326588e-01 -6.15266502e-01 +2.28457302e-01 -1.25097767e-01 -8.48451257e-01 -5.13055623e-01 +9.20413494e-01 -1.10253870e+00 +1.69712454e-01 -1.27476180e+00 -3.10808957e-01 -6.93920672e-01 -5.08964539e-01 +1.82902515e-01 -1.21832542e-01 -1.04405773e+00 -6.35210514e-01 -1.13721669e+00 -1.35282874e-01 -6.33053839e-01 -1.18045950e+00 -1.40636787e-01 +4.67095166e-01 -5.62006123e-02 +7.05789745e-01 -9.17720139e-01 +1.01479724e-01 +4.05070454e-01 -2.24696025e-01 +8.96017030e-02 -6.29344404e-01 -2.88159460e-01 -3.59405740e-03 +1.68256477e-01 +4.32136953e-01 -3.44414711e-01 -1.29093572e-01 +3.44320714e-01 +6.31900787e-01 -2.68567145e-01 +3.33225466e-02 -1.75423726e-01 -1.63284972e-01 +3.17577124e-01 +4.98800099e-01 -4.53183383e-01 +5.33257186e-01 +9.67253000e-02 +2.42358342e-01 -9.08377469e-02 +4.67437774e-01 +2.61609644e-01 +5.39490953e-02 -1.73571527e-01 +5.64117849e-01 +2.54602313e-01 -3.44443411e-01 +4.04815637e-02 -9.35088992e-02 +3.28866303e-01 +1.34167328e-01 -4.94180143e-01 -5.83034396e-01 -2.59897590e-01 +5.66735724e-03 -5.33914678e-02 +5.14976680e-01 -4.89642750e-03 -2.78893352e-01 -2.95199901e-01 +6.04212761e-01 +5.67557454e-01 +9.98831868e-01 +2.79849931e-03 -1.48342401e-01 +1.10707796e+00 +9.07042623e-01 -1.17325075e-01 +3.56934071e-01 +3.15681785e-01 +8.11222345e-02 -6.01169057e-02 -1.77902296e-01 +3.82868588e-01 +4.22218800e-01 +4.69120741e-01 -6.10735714e-01 +7.09843516e-01 +2.97646746e-02 +7.65482187e-02 +1.76294800e-02 +2.74089187e-01 +1.44512832e-01 +3.93877149e-01 +1.79258659e-01 +2.98720151e-02 -2.38461941e-01 -4.44374204e-01 -2.06514880e-01 -4.44524527e-01 -8.39448124e-02 +2.09030733e-01 -2.81442612e-01 -2.21031278e-01 -7.58523941e-02 -1.28886729e-01 +3.73073906e-01 +3.17826718e-01 +2.29844496e-01 -3.12226564e-01 -1.07770890e-01 -2.91615695e-01 -4.66973156e-01 +2.08401129e-01 -4.54084814e-01 +1.83785111e-01 +2.83219069e-01 -2.60819457e-02 +2.11329833e-01 +3.13341022e-02 -3.46493334e-01 -1.24976262e-01 -3.21270972e-01 +5.54569721e-01 -1.17767230e-01 -1.29946697e+00 +6.88526630e-01 +7.09999323e-01 -7.35807419e-01 +1.24840543e-01 +1.05055833e+00 -1.35212457e+00 +5.73443532e-01 -2.73418278e-01 +4.24770892e-01 -3.82815376e-02 -3.14641856e-02 +9.65829611e-01 -2.23856792e-01 +7.21752107e-01 -8.13510001e-01 -8.49820971e-01 +7.70071030e-01 +1.00702834e+00 +2.63922185e-01 +4.76984024e-01 +4.80214328e-01 -1.23231217e-01 +1.30313230e+00 +5.81013858e-02 -5.90618849e-01 -8.81792247e-01 +5.73739037e-02 -4.56466258e-01 -2.12888286e-01 -2.35741407e-01 +2.02756003e-01 -4.85319883e-01 -2.94241279e-01 +6.13946855e-01 +6.30679205e-02 +1.02592558e-01 -6.69644624e-02 +3.04827869e-01 +2.54646987e-01 -1.13921487e+00 +2.74705179e-02 +8.94509256e-02 -2.37638637e-01 +2.99875557e-01 +3.83675843e-01 +1.62664905e-01 +3.83023731e-03 -8.26508552e-02 +4.69724059e-01 -1.40722737e-01 -1.59617424e-01 +1.69068336e-01 -1.83570180e-02 +4.86495525e-01 -9.31991994e-01 -4.78146411e-02 -8.42933655e-01 +2.73393422e-01 -2.76352853e-01 +3.64257276e-01 -3.81649315e-01 +1.15407571e-01 -5.98971367e-01 +1.25462249e-01 -1.24736413e-01 -5.86361110e-01 -2.82206506e-01 -1.57974482e-01 -2.87446827e-01 -2.65362710e-01 -1.37837544e-01 +7.92761520e-02 -4.69983459e-01 -1.61229059e-01 +1.25236526e-01 -1.56453118e-01 -4.46436584e-01 -3.29887241e-01 +8.80188793e-02 -6.68449923e-02 -4.38332230e-01 -4.25956756e-01 +2.93747485e-01 +2.66842782e-01 +1.61803156e-01 -1.24143317e-01 -9.64633748e-02 -2.59402692e-01 +2.81129062e-01 -1.14389166e-01 -9.14863348e-02 -6.37394339e-02 +1.53209493e-01 -2.29483265e-02 -7.95427058e-03 +2.62764990e-01 -5.71201503e-01 +1.22727931e-01 -3.05861626e-02 +1.98295116e-01 -1.70898419e-02 +8.73726085e-02 -1.00937419e-01 +7.35763907e-01 +4.10767645e-01 -1.26110718e-01 -1.01608634e-01 -1.06626198e-01 -7.98155516e-02 -2.18228549e-01 -2.67831117e-01 +4.99231629e-02 -1.27757117e-02 -1.03637087e+00 -4.20959830e-01 +2.51229912e-01 +1.22293442e-01 +3.03676486e-01 +7.33275265e-02 -1.78935438e-01 -8.49882886e-02 +1.84876129e-01 +5.02598464e-01 +1.71939597e-01 +2.23839656e-01 -4.13940363e-02 -2.01686144e-01 -3.24442476e-01 -2.23660097e-01 -1.20949411e+00 +1.84203491e-01 +3.81531477e-01 -3.92801732e-01 +6.87232852e-01 -8.95193577e-01 +3.00786883e-01 -2.04385206e-01 -4.04960483e-01 -2.86619276e-01 -8.64436388e-01 -9.23569918e-01 -3.97487491e-01 +2.87195444e-01 -2.68894374e-01 -4.88125354e-01 -1.49851692e+00 -4.55738336e-01 +9.10821334e-02 -1.11336958e+00 -5.67307621e-02 -2.75647581e-01 -1.84788927e-01 +2.46143237e-01 +1.21228226e-01 -7.93813542e-02 -4.28156137e-01 -1.57731220e-01 -8.30808654e-03 -2.76868761e-01 -1.78969398e-01 +1.36096984e-01 -3.55326869e-02 -1.16911285e-01 -3.23485464e-01 +5.44042766e-01 +1.43549919e-01 +5.34411147e-03 -2.96056509e-01 +1.11870676e-01 -4.26738150e-02 -1.09201625e-01 -1.04991123e-01 +4.22364622e-01 -1.22845463e-01 -5.93490079e-02 -2.17284963e-01 -3.63898277e-01 +6.49134874e-01 +4.92780030e-01 +2.05721527e-01 +3.26530747e-02 +2.54358292e-01 +1.89592212e-01 +5.38320303e-01 +5.49886823e-01 -1.55974314e-01 -8.51785168e-02 +1.21087376e-02 -2.36847579e-01 -1.56964526e-01 +9.51568782e-02 -1.15308590e-01 -4.71344650e-01 +1.92807391e-02 -1.29651308e-01 +6.65358245e-01 -6.76417410e-01 +2.69398361e-01 -1.38539925e-01 -4.78179827e-02 +1.83840707e-01 -3.02236974e-01 +7.72904083e-02 -2.28754580e-01 -1.86556146e-01 +2.60027826e-01 +7.27225959e-01 +3.16770196e-01 -8.18624437e-01 -1.15537755e-01 +3.79296511e-01 -1.99148849e-01 -1.16407134e-01 +2.06603348e-01 -6.56119227e-01 -4.25517470e-01 +9.96493325e-02 -1.30248442e-01 -4.26042557e-01 +1.22909389e-01 -2.18873024e-01 +2.25440636e-01 +1.13898136e-01 +1.52182415e-01 +1.95015565e-01 -3.82413492e-02 +1.12100400e-01 +4.13648903e-01 -4.05311435e-01 -3.05878371e-01 -3.41050982e-01 -3.22444260e-01 -1.00264087e-01 +4.87024747e-02 -9.21296105e-02 -6.49427697e-02 -2.93634623e-01 +2.34290823e-01 +1.72136158e-01 +2.81549692e-01 +5.82572520e-01 +2.60242820e-01 +3.95217925e-01 +2.98908472e-01 -7.50887170e-02 +7.88589939e-02 +1.05495667e-02 -1.23999447e-01 +1.14166327e-01 -4.36897501e-02 +1.47229433e-01 +1.64097175e-01 -7.24130124e-03 -5.48634410e-01 -1.93350181e-01 +5.01866996e-01 +2.70256191e-01 +4.18527564e-03 +1.46853298e-01 +1.85954303e-01 +2.49166429e-01 +2.71369964e-01 +4.69791926e-02 -4.09711182e-01 -1.14406377e-01 +1.57933891e-01 +1.34013057e-01 +4.59740877e-01 +3.61848056e-01 +2.16739133e-01 -3.50605547e-01 +1.01996548e-01 -1.11863601e+00 +1.22092620e-01 -2.09149659e-01 -7.56236255e-01 +1.16803989e-01 -4.32269931e-01 -5.87137759e-01 -1.08473711e-01 -2.44474038e-01 -2.78695464e-01 -8.51316825e-02 -2.62493044e-01 +5.81301861e-02 -1.65340081e-01 +3.24006110e-01 -9.63097438e-02 +2.93734252e-01 -5.12612239e-02 +1.86599433e-01 +2.05982730e-01 +3.97923261e-01 -3.49893510e-01 -1.65912226e-01 +7.44490743e-01 +3.13422680e-02 +1.71644256e-01 +3.33793938e-01 +2.30475873e-01 -2.51144737e-01 +3.48676741e-02 -1.85964152e-01 +1.53791606e-01 +1.29294451e-02 +3.73234183e-01 -3.97658825e-01 +1.03420570e-01 +4.98287678e-02 -2.09563538e-01 +8.58115777e-02 +7.24708378e-01 +4.60238546e-01 +1.85726076e-01 -6.23622835e-01 -1.88994631e-01 +7.03252777e-02 -2.16118917e-01 -5.80587268e-01 +6.33072853e-01 +6.31408393e-01 -5.44413447e-01 +4.17039394e-01 +3.31874847e-01 +2.59663224e-01 +8.43939424e-01 -1.16388969e-01 -2.08005428e-01 -2.32707500e-01 -5.60701668e-01 +5.30815721e-01 -4.66572680e-02 +2.82542855e-01 -1.70390368e-01 +3.29246581e-01 -9.48849544e-02 -3.30012202e-01 -5.44103608e-02 +5.55010378e-01 +3.71974945e-01 -5.42702079e-01 -3.70121092e-01 +1.03675053e-02 -1.55737862e-01 +1.31187439e-01 +4.32328552e-01 +4.83763181e-02 -2.24743009e-01 +4.90322471e-01 -2.70598561e-01 -7.83186406e-02 -1.59546688e-01 -6.27122819e-01 +6.70963645e-01 +1.25214279e-01 +2.33362708e-02 -2.63947636e-01 -1.43109458e-02 -3.31484854e-01 +2.33063400e-01 +4.55169007e-02 +4.10178423e-01 +4.88867685e-02 +3.01893353e-01 +2.02562362e-01 +7.15024889e-01 -1.07592595e+00 -1.03707202e-01 +1.83563352e-01 -5.04005790e-01 -2.69331068e-01 -1.94587141e-01 +2.52568394e-01 -2.31531322e-01 +2.79021889e-01 -2.33397692e-01 -1.15064383e-01 -8.02032501e-02 -7.32180253e-02 -2.35031527e-02 +3.20254207e-01 -3.89793307e-01 -6.24561310e-02 -7.56904781e-01 -1.17306423e+00 -4.05384362e-01 +5.81366897e-01 -6.22551918e-01 +6.51424170e-01 +4.92778361e-01 -1.40045881e+00 +3.08131814e-01 -2.15809166e-01 -1.04832411e+00 +6.33995771e-01 -6.36878908e-01 -1.73804864e-01 -1.09964013e+00 +3.64095926e-01 -5.90548813e-01 -3.55620086e-01 -5.13540983e-01 -6.04679845e-02 -4.22316909e-01 -6.62574112e-01 -1.07841250e-02 -1.01076674e+00 +4.81523037e-01 +2.02748239e-01 +1.63802155e-03 -3.31971318e-01 -1.47042662e-01 +5.60217947e-02 +4.15575147e-01 +4.63795274e-01 +5.79829872e-01 +3.93256724e-01 +1.46228865e-01 +5.27330674e-02 +1.41638339e-01 +4.54885840e-01 -3.39356154e-01 +1.83179796e-01 -3.64502162e-01 +4.92047608e-01 -3.65648270e-01 -4.80632812e-01 -1.84941322e-01 +1.13589138e-01 -2.24222746e-02 -3.06147069e-01 -7.04563320e-01 -1.61297113e-01 +2.67356541e-02 -1.61983445e-01 +9.66505185e-02 +2.60552078e-01 -1.83512896e-01 +1.72106981e-01 -4.71351832e-01 +4.93466526e-01 -7.11052492e-02 -1.83821887e-01 -1.83352128e-01 +4.00105752e-02 -4.48079973e-01 -3.44942957e-01 -6.00520447e-02 -6.12014234e-01 -4.83265996e-01 -9.10070419e-01 -2.44393080e-01 -2.89240330e-01 -8.10305476e-01 -4.22288269e-01 -2.62515306e-01 -7.92417467e-01 -6.22648895e-01 -2.89216697e-01 -2.46624425e-01 -8.19046438e-01 +2.19655886e-01 -4.88769382e-01 -7.83408582e-01 -5.94587207e-01 -5.28177857e-01 -1.00656068e+00 -2.50118673e-01 -1.27335355e-01 -8.79383206e-01 -1.31340504e-01 -6.02951739e-03 -2.45314807e-01 -3.54053259e-01 -2.05947742e-01 -5.29745460e-01 -2.16626629e-01 +4.07059155e-02 +1.74289629e-01 -7.70563126e-01 -3.27449352e-01 +3.07704180e-01 -2.34463975e-01 +6.91991821e-02 -2.58493960e-01 +4.41142946e-01 -3.52039188e-01 +1.37509808e-01 -2.93410629e-01 +2.21062884e-01 +2.90353578e-02 -4.98202085e-01 -2.13138297e-01 -1.98618192e-02 +9.96270999e-02 -4.98823345e-01 -9.97030884e-02 -6.69810414e-01 -7.83205450e-01 +3.55022669e-01 -9.65836570e-02 -2.77722538e-01 +7.95264006e-01 -1.49677679e-01 +1.49493694e-01 +2.42671683e-01 +4.91746902e-01 +1.99267879e-01 -6.70989677e-02 -9.06183958e-01 -9.27530825e-01 -6.70979917e-01 -2.33347863e-01 -2.94901043e-01 -5.90688169e-01 -4.87739205e-01 -8.63088667e-01 +5.73540568e-01 -9.41174254e-02 -1.77874759e-01 -7.83013582e-01 -1.96691200e-01 -6.07656240e-02 -1.35057092e+00 -8.62775624e-01 +1.47597566e-01 -1.69835351e-02 +4.14879955e-02 -1.12144089e+00 -4.09106672e-01 -4.80879337e-01 -8.27334672e-02 -4.23102289e-01 -4.70723510e-01 +5.58567941e-01 -3.84111889e-02 +3.79937738e-01 -3.46162468e-01 +2.52912283e-01 -2.90199015e-02 +7.57964373e-01 +2.48359159e-01 -4.57058579e-01 +8.34345818e-02 -1.59433454e-01 +2.42079213e-01 -3.94347012e-01 -5.78406632e-01 +7.79832661e-01 +5.91748297e-01 +1.52696311e-01 +2.46533781e-01 -3.48468572e-01 -2.46795088e-01 -8.90228674e-02 -6.92993343e-01 +3.14244688e-01 +3.16640198e-01 -1.21162631e-01 -6.22461498e-01 -6.03160203e-01 +3.17725837e-01 +2.56149590e-01 -3.08804423e-01 -4.89775717e-01 -4.39298123e-01 -1.47573128e-01 +3.84362817e-01 +4.45995837e-01 -9.50425342e-02 +6.48283243e-01 -3.89090963e-02 -1.42509416e-01 +2.12815210e-01 +4.04566765e-01 +2.34770417e-01 +1.04367882e-01 +1.10092437e+00 +4.21926141e-01 +6.11773670e-01 +1.01806400e-02 +8.14349651e-01 -1.95822120e-01 +1.31784827e-01 +4.62555617e-01 +6.40668154e-01 -3.04303437e-01 +8.46939921e-01 +1.72830090e-01 +3.97363007e-01 +2.04197124e-01 +3.99148643e-01 -1.83863238e-01 +8.16285968e-01 +1.41349256e-01 +3.45596939e-01 -1.07433237e-01 -2.68445820e-01 -3.52282077e-02 +2.08394676e-01 -7.64973387e-02 +2.63752311e-01 +5.52935004e-01 +4.53776300e-01 +2.76187837e-01 +2.30527595e-01 +3.37534577e-01 -3.59033421e-02 +4.30039346e-01 +1.75326660e-01 +7.00997412e-02 -5.97397611e-03 +2.00469494e-01 +2.90454239e-01 +1.72590464e-01 +9.63238329e-02 +6.12617493e-01 -6.70455247e-02 -2.82749683e-01 +1.21046081e-02 -3.86573911e-01 +1.90781243e-02 +4.53445762e-01 +1.72484443e-01 -1.15834907e-01 -1.84921011e-01 +4.68215078e-01 +4.20528501e-02 -3.39010805e-01 -9.78481397e-02 -9.81374979e-02 -3.81768122e-02 +2.26907253e-01 +1.36434212e-01 -3.90993744e-01 -1.55432954e-01 -5.95465750e-02 +6.16310596e-01 +1.75590981e-02 +3.01869869e-01 +7.84769207e-02 +7.09974647e-01 +4.66540843e-01 +1.14192748e-02 +1.62335709e-01 +2.46092677e-01 +1.44211859e-01 -1.45232573e-01 -2.72956621e-02 +3.66096422e-02 +3.05431664e-01 +9.28925499e-02 +6.91334486e-01 +3.53785634e-01 +2.09610060e-01 +3.92918348e-01 -6.68532789e-01 +5.89519024e-01 +7.81704903e-01 +3.39234263e-01 -4.66722101e-02 +4.14915979e-01 -1.31386384e-01 +9.92606282e-02 +1.37168810e-01 +3.11795294e-01 +6.48083463e-02 +6.21690005e-02 +6.86759427e-02 -2.79884666e-01 +3.27771813e-01 +7.14772940e-02 +1.20231872e-02 -2.52260198e-03 +6.01600349e-01 +4.63132650e-01 -9.67719078e-01 -8.21159899e-01 +1.02158181e-01 -6.72379285e-02 +3.19281757e-01 +2.71119028e-01 -2.76370376e-01 +1.00746125e-01 -2.42978886e-01 -1.15752742e-01 +3.69448513e-01 +2.22160369e-01 +2.17075691e-01 -1.46656021e-01 -3.58792067e-01 +6.67711258e-01 +6.96467757e-02 +3.26591015e-01 -4.15407605e-02 +7.24024326e-02 +3.31888609e-02 +1.71297088e-01 +4.23965715e-02 +1.66151926e-01 -6.56942651e-02 -1.99390814e-01 +3.40045244e-01 -1.06800035e-01 +1.25999838e-01 -1.98826060e-01 +7.11181045e-01 +1.25287622e-01 +4.49786872e-01 -7.58993328e-02 +1.47663847e-01 +1.18168175e+00 -1.61816165e-01 +7.10133255e-01 +4.04157192e-01 +3.23216766e-01 +6.64438903e-01 -1.41350344e-01 +3.58835399e-01 +2.96996146e-01 +2.08265513e-01 +4.98510242e-01 -1.41451821e-01 -4.07893956e-01 -8.78688097e-02 +2.72032291e-01 +5.38583517e-01 +4.11120892e-01 +1.15974106e-01 -4.60856967e-02 +2.38274205e-02 +4.25237492e-02 +3.62716764e-01 -4.83809501e-01 -4.70768400e-02 +3.83046642e-02 -2.47234464e-01 +1.16301186e-01 +3.86260033e-01 -4.55569811e-02 +3.77565801e-01 +4.30211797e-02 -3.25644687e-02 -3.15679997e-01 +3.44889909e-01 -2.57202634e-03 +2.10138708e-01 -1.30312636e-01 -1.26905382e-01 -1.56832322e-01 +4.12743241e-01 +4.69041228e-01 +5.24735451e-02 +3.99453580e-01 -1.17878541e-01 +9.65325013e-02 -2.70339757e-01 +3.41184556e-01 -3.76740217e-01 -3.18569005e-01 -1.99782327e-01 -7.45181367e-02 -5.49459100e-01 +2.31399074e-01 +3.36479366e-01 -2.66910285e-01 +1.14577219e-01 +9.80527163e-01 +1.66384414e-01 -1.01446785e-01 +5.82695067e-01 +4.45849299e-01 +5.55879772e-01 +1.87588871e-01 -3.11313510e-01 +6.07946038e-01 -3.42442691e-01 +2.01574504e-01 +4.59407598e-01 +4.32754382e-02 +7.39210606e-01 -7.36208737e-01 +9.66716766e-01 -1.14713788e-01 +1.44950360e-01 +1.71844050e-01 +5.16344309e-01 -6.16126657e-01 +9.28360671e-02 +2.62597293e-01 -8.67955446e-01 +6.18719399e-01 +1.22230458e+00 +1.14989050e-01 -9.15584788e-02 +8.32729816e-01 +6.16429113e-02 +4.03348833e-01 -4.55449313e-01 +2.92095363e-01 -2.58641154e-01 +2.91572630e-01 +4.14108157e-01 +6.15103506e-02 -8.59557986e-01 +3.51634383e-01 -2.89272577e-01 -2.44742274e-01 +1.85253307e-01 +2.57211953e-01 -1.17883956e+00 -1.41648548e-02 +8.45725760e-02 +2.15257958e-01 +1.65599048e-01 +9.37501863e-02 -5.62844455e-01 -5.16572833e-01 -1.82860628e-01 -3.20567191e-01 -1.84620544e-01 +4.27727848e-01 +2.97739565e-01 -3.55752051e-01 +9.43737864e-01 -2.09094822e-01 +1.97239414e-01 +5.23994006e-02 +1.41928568e-01 -9.60625615e-03 +1.67068079e-01 -9.66802537e-02 -1.47395983e-01 -8.09132695e-01 -5.33414423e-01 -6.35588646e-01 -2.17358992e-01 -1.32757914e+00 -5.46991229e-02 +5.28596230e-02 -8.18856537e-01 -5.83742380e-01 -5.53904213e-02 -3.21604311e-01 +8.70846659e-02 -3.16190302e-01 -1.58582956e-01 -2.40853667e-01 -2.27937058e-01 -5.45126319e-01 -1.02904700e-01 -5.65728664e-01 +4.63299662e-01 -1.80585638e-01 -7.26874322e-02 +2.78535597e-02 +8.00267041e-01 -6.70202672e-01 -2.60819465e-01 +6.95437938e-03 -3.05426061e-01 +2.52176374e-01 -3.86983871e-01 +3.57613787e-02 -5.51789925e-02 -4.22093630e-01 -4.51442823e-02 +7.36755133e-02 +2.78283626e-01 -2.00106412e-01 -2.56956547e-01 +1.00642197e-01 -1.43745556e-01 +2.00893208e-01 +5.53550720e-01 +3.13887268e-01 +9.93014425e-02 +9.83657911e-02 -2.66333669e-01 -4.20128405e-01 +2.50523716e-01 +7.16817081e-02 -1.26415163e-01 -1.15428731e-01 +5.68984866e-01 +1.05952434e-01 +1.48865074e-01 +9.82948616e-02 -3.17346483e-01 -3.29820961e-01 +7.61869490e-01 -2.27736697e-01 +2.76723474e-01 -7.08066463e-01 +1.00279987e+00 +4.09643829e-01 +3.80649231e-02 -6.00414693e-01 +1.49798736e-01 +5.60701132e-01 -8.86537790e-01 -2.83035368e-01 -7.90000078e-04 +4.42134589e-01 +5.85106909e-01 +2.54604537e-02 -6.00503981e-01 +4.02489811e-01 +1.31943926e-01 -5.18177986e-01 +8.35270509e-02 +6.38451338e-01 +7.38977432e-01 +5.91480255e-01 -3.06543380e-01 -2.90530115e-01 +2.84477949e-01 -1.90931976e-01 -6.67164326e-01 -5.87687977e-02 -5.05054034e-02 -4.51683134e-01 +6.02671504e-01 +3.78795922e-01 +1.04649559e-01 -2.72437651e-02 -2.26062864e-01 -1.39296025e-01 -4.20342293e-03 -8.83268863e-02 +4.84313443e-02 -4.19174194e-01 -2.03196883e-01 +2.08347723e-01 +9.91035998e-02 +5.36446333e-01 -2.42824599e-01 +1.29630789e-01 +3.20628926e-04 +6.42468035e-01 +4.85179424e-01 +1.00881919e-01 -1.09484792e-01 -3.84129733e-01 -6.27569616e-01 +1.51521981e-01 +3.01056534e-01 -7.77418196e-01 +1.34525448e-01 -5.96510172e-01 -1.09387904e-01 -3.76142770e-01 +3.64161938e-01 -1.94056436e-01 +4.10229236e-01 -9.88149047e-02 -5.42397983e-02 +4.09021139e-01 +1.46065289e-02 +2.65708007e-02 -1.71829164e-01 +4.55983818e-01 -3.50968599e-01 +5.08093350e-02 +4.56048906e-01 -2.92159975e-01 +3.29493508e-02 -5.43378234e-01 +1.08278938e-01 +3.28319013e-01 +4.27225739e-01 -7.00171351e-01 -5.00681221e-01 -9.73375738e-02 +3.72476965e-01 -4.19049442e-01 +4.96589750e-01 -1.42824128e-02 +1.78376883e-01 -5.00617266e-01 +1.41191125e-01 -2.05629140e-01 +5.55057228e-01 +3.96467924e-01 -4.55386154e-02 -1.24913633e-01 -3.90818626e-01 -5.55462949e-02 +7.78913796e-02 +6.26318157e-01 +7.41693974e-02 +3.52528185e-01 +3.05517524e-01 +1.47258267e-01 -7.17840970e-01 -5.42254865e-01 -1.68312415e-01 -1.83278754e-01 +2.31042132e-01 +2.66908705e-01 +2.52919346e-01 +3.81144941e-01 +7.92596340e-02 +1.26159504e-01 +8.78370762e-01 +5.58471270e-02 -1.70829222e-01 -5.74582279e-01 +4.28320169e-01 +6.48520509e-05 -3.62577476e-02 -8.88498649e-02 -3.01816724e-02 +7.73023739e-02 +5.54524839e-01 -2.53941685e-01 -1.04687393e-01 -4.72791642e-01 +1.50878541e-02 -4.61591966e-02 -2.42210299e-01 +7.69077003e-01 -1.46307337e+00 -6.71734884e-02 +8.04980755e-01 +2.55390614e-01 -1.31716537e+00 +9.92732644e-02 +2.59663016e-02 -1.00668371e+00 +3.05798024e-01 -7.88372517e-01 -6.54969156e-01 +8.65533501e-02 +9.95566726e-01 -1.10224354e+00 +3.16080064e-01 +1.22978985e+00 -6.63543403e-01 -1.00776696e+00 +8.72287512e-01 -1.14519882e+00 -4.60557014e-01 -6.34998858e-01 +3.34336668e-01 +5.52970869e-03 +1.61317503e+00 +2.17462867e-01 -5.04064441e-01 -8.66340458e-01 -4.38907832e-01 -7.03614831e-01 -4.50402886e-01 -5.76583624e-01 +4.41868842e-01 -2.62174636e-01 -7.89576769e-02 -1.22568816e-01 +2.53163457e-01 -2.78191417e-01 +5.40321041e-03 +1.29079700e-01 +9.46382657e-02 -1.80419341e-01 +7.60801852e-01 -9.33770910e-02 +2.11271927e-01 -2.17661317e-02 +1.60458297e-01 -1.47038415e-01 +2.59749442e-01 -3.84113252e-01 +2.90542543e-01 -5.68906590e-02 -9.85978544e-02 +1.62150651e-01 -3.15490633e-01 -7.94972852e-02 -7.08995640e-01 +2.20439360e-01 -2.74116635e-01 -1.51562646e-01 +1.16568379e-01 -4.32664454e-02 -2.69437820e-01 +2.71829218e-02 +2.02042431e-01 +1.73532814e-01 +7.20323026e-01 -1.63184166e-01 +9.66342050e-04 +1.17064059e-01 -1.67047322e-01 -2.17241608e-02 -4.73836571e-01 -3.23923528e-02 +2.08965346e-01 +4.71429169e-01 +1.89803600e-01 +2.63735324e-01 +6.55206740e-01 +5.02133787e-01 +4.02091295e-01 -4.95861322e-01 +1.73718348e-01 +3.92703205e-01 -4.79720198e-02 -1.13664284e-01 -3.28948200e-01 -2.41808519e-01 +1.89666614e-01 +1.51110098e-01 -6.38673306e-01 +9.30604935e-02 -2.27115631e-01 -1.61105707e-01 +3.78056914e-01 +3.91510218e-01 +3.53650510e-01 -3.88229400e-01 -8.91599730e-02 +1.46380737e-01 +4.96027023e-02 +6.10252619e-02 +9.13486481e-02 +1.32096335e-02 +1.02306753e-01 +1.72137156e-01 +1.38734743e-01 -4.63244319e-01 +2.93614864e-01 +3.94948646e-02 +4.02859479e-01 +2.52676070e-01 -6.86587036e-01 -8.79545510e-01 -4.20723319e-01 -5.16043007e-01 -4.71621841e-01 +9.12738033e-03 +1.82856798e-01 -1.52308181e-01 +8.38514984e-01 -3.58983606e-01 +2.77128994e-01 -4.00472105e-01 -1.65944695e-01 -3.35335076e-01 +2.69652694e-01 +6.09482288e-01 -3.91665488e-01 -2.21832693e-01 -2.77366638e-01 -6.87229782e-02 -4.83784318e-01 -5.23877256e-02 -7.28035197e-02 +2.08754539e-02 -3.81194502e-01 -3.12668860e-01 -8.36508721e-02 -7.19939530e-01 +7.96074212e-01 +7.47812167e-02 -8.81650746e-02 +2.78746367e-01 -4.92727578e-01 -2.62990236e-01 -1.81492314e-01 +9.41242203e-02 -3.23027596e-02 +1.55131996e-01 +7.43062258e-01 -3.84342253e-01 +4.54989076e-01 +2.71665782e-01 -3.17651093e-01 -5.92552483e-01 +5.21161929e-02 -3.81158665e-02 +2.99518466e-01 -3.17229718e-01 +3.87541920e-01 +1.33909926e-01 -3.43877167e-01 +3.18507165e-01 -4.11104381e-01 -4.32019025e-01 -4.49437916e-01 +3.71269554e-01 -9.62230563e-02 -1.31053329e-01 -2.95186758e-01 +7.72471540e-03 -1.83833480e-01 +1.45950228e-01 -4.46705930e-02 +1.88043043e-01 -1.43588156e-01 -3.06192428e-01 +1.13013469e-01 -1.12782456e-01 +3.53366844e-02 +3.72616470e-01 +9.87582505e-02 -3.76837671e-01 -3.01197559e-01 -2.25914881e-01 -2.01417863e-01 -1.85976163e-01 -2.09495962e-01 -3.55173439e-01 +7.62236044e-02 -5.98137081e-02 +4.60676283e-01 +2.35437304e-01 +1.73051655e-01 -4.28656995e-01 +1.24747403e-01 +3.53864819e-01 +7.71319047e-02 +2.71338224e-01 -1.31369933e-01 +2.04189986e-01 +4.21166241e-01 +5.58393002e-01 -2.05309153e-01 +1.50141036e-02 +3.02285761e-01 -6.49592578e-02 +1.41756043e-01 +3.98788780e-01 +2.76055306e-01 +2.71530300e-01 -8.33422691e-02 -2.13296071e-01 +2.60585636e-01 -2.98027366e-01 +1.85494021e-01 +1.55070171e-01 +2.55737126e-01 +2.43970171e-01 -1.15926407e-01 +1.00837223e-01 +1.37724549e-01 -1.49219418e-02 -8.61176625e-02 +3.87516222e-03 -4.08033162e-01 -1.25370711e-01 +1.23191364e-01 +3.73049527e-02 -1.57090530e-01 +2.28644293e-02 -5.54689884e-01 -1.04143415e-02 +7.59063661e-01 -1.78861812e-01 -4.13239211e-01 -3.95576566e-01 -4.96450871e-01 -1.91146825e-02 -2.48203307e-01 -2.21810669e-01 -2.27041394e-01 -3.43751550e-01 -3.37736934e-01 +1.94083929e-01 -8.98796171e-02 +1.73441142e-01 -1.12658933e-01 +1.46663427e-01 +8.34329799e-02 -1.95031971e-01 -3.97804976e-01 -7.44573623e-02 +2.02445775e-01 +1.16862610e-01 -2.28717357e-01 +6.93143129e-01 +6.63323879e-01 -2.41939157e-01 -1.32923141e-01 -1.62323788e-01 -1.03310607e-01 -1.01815617e+00 +3.87301326e-01 +1.30470529e-01 -3.21503758e-01 -1.05816713e-02 +2.39940003e-01 +2.23481596e-01 -1.60606340e-01 +6.37249947e-02 +4.49456833e-03 -1.45102933e-01 +8.66576850e-01 -3.91147524e-01 +1.30599618e-01 +4.33269963e-02 +1.94759488e-01 +5.49398541e-01 +5.81708923e-02 -1.88573286e-01 +7.73676693e-01 +1.21898182e-01 +1.69942640e-02 +3.39355737e-01 +1.50413275e-01 -2.23824173e-01 -3.02437954e-02 -4.99098420e-01 +1.01881005e-01 +1.55118033e-01 -3.64179984e-02 +1.38417259e-01 +4.75476772e-01 -9.34525877e-02 -1.34725422e-01 -2.77607769e-01 +2.22330675e-01 +1.03746600e-01 -2.28267714e-01 +3.41204911e-01 +5.58981240e-01 -2.41449252e-01 -2.71285360e-04 +2.14887947e-01 +4.76910979e-01 -6.62441999e-02 -3.01766861e-02 +2.15407714e-01 -7.78134167e-02 +4.70077395e-01 -3.04727435e-01 -3.83874655e-01 -3.03937018e-01 +1.89035147e-01 +8.67494792e-02 +1.63778067e-01 -1.66281775e-01 +1.84873894e-01 -2.82926019e-04 -1.23270666e-02 +2.76754051e-01 -2.94741422e-01 +1.29604369e-01 +2.48264864e-01 +2.28502795e-01 -1.07117869e-01 -1.01913415e-01 -3.90102826e-02 +3.74883741e-01 -7.51832209e-04 -1.93134755e-01 +1.38496116e-01 +5.21835685e-01 +5.09468794e-01 +6.77210927e-01 -2.38571130e-02 -9.46636945e-02 -1.10690892e-01 +1.50106683e-01 +5.44052541e-01 +1.44072995e-01 +4.43430126e-01 -1.18064873e-01 +1.89785540e-01 -3.40971425e-02 -1.45692527e-01 +2.26519942e-01 -3.23829859e-01 -8.16706344e-02 +3.14613283e-01 +1.87425658e-01 +1.04572196e-02 -3.50566506e-01 +2.69734841e-02 +3.22269231e-01 +2.25915641e-01 -4.07387137e-01 -1.01319626e-01 +3.44622042e-03 -6.24884248e-01 -3.94478917e-01 -5.48427440e-02 -1.61418840e-01 +2.42657438e-01 +3.13176036e-01 -3.32167387e-01 +3.01289409e-01 +1.02030843e-01 +1.17862381e-01 -2.17772171e-01 -2.42814809e-01 +3.70160878e-01 -5.13271838e-02 +7.77249262e-02 +1.93058103e-01 -6.18215501e-01 +1.57961592e-01 -3.66307616e-01 -4.95144874e-02 +9.53436792e-02 -5.15916459e-02 +7.30140030e-01 -4.01185364e-01 -2.75189697e-04 +5.98792173e-02 +2.08435684e-01 -5.23577750e-01 -2.24802673e-01 +2.14760661e-01 +1.01719983e-01 +2.34579161e-01 -6.67399108e-01 -4.77085471e-01 +1.80580616e-01 +5.29059112e-01 -1.72835901e-01 -1.28542289e-01 +9.23855841e-01 -1.21630713e-01 -8.37880492e-01 -3.46612245e-01 +1.51980948e-02 +2.31896982e-01 +9.09650743e-01 +9.53696430e-01 +6.22949004e-01 +5.35557032e-01 -3.15545529e-01 +6.63498417e-02 -7.73240626e-01 +7.30331182e-01 -8.95062923e-01 +2.89522558e-01 -3.08672637e-01 -3.61887097e-01 -6.23392105e-01 +2.46207833e-01 +2.57952988e-01 -2.20284507e-01 +1.55254185e-01 -5.19932713e-03 +2.83048779e-01 +2.21861988e-01 -1.43622831e-01 -2.61500806e-01 +1.02109171e-01 -6.11707196e-02 +6.02514595e-02 +4.54282343e-01 +5.71300566e-01 +1.39373019e-01 +1.93838462e-01 +3.03642482e-01 -2.55001813e-01 -2.66753048e-01 +8.40000361e-02 -9.62791815e-02 +6.76529929e-02 -5.29447019e-01 -1.79035624e-03 -4.30893511e-01 -1.56695366e-01 -6.08748674e-01 +1.59851804e-01 -2.45692387e-01 +1.67101517e-01 -5.26999891e-01 -4.93367642e-01 -1.98089331e-01 -1.00640133e-01 -1.74529597e-01 -5.37439823e-01 -5.86317927e-02 -3.34089190e-01 -8.36808532e-02 -2.01088801e-01 -5.55753469e-01 -5.56773484e-01 -5.27224205e-02 +1.39560029e-01 -1.22528389e-01 -1.72515005e-01 +2.78197289e-01 +1.32245988e-01 -3.66282582e-01 +4.96912263e-02 +2.40933467e-02 +1.63800433e-01 -7.43141696e-02 -2.20300391e-01 -2.73153186e-01 -3.64269577e-02 -1.99859828e-01 -2.12725699e-01 -6.52187318e-02 -1.45052761e-01 -1.97366253e-01 +1.64202768e-02 -1.18544608e-01 +1.39299668e-02 -5.09558380e-01 -3.11351955e-01 -8.27064216e-02 +6.11235946e-03 +1.29427075e-01 +2.63190299e-01 +3.36796492e-01 +3.00663501e-01 +1.45647123e-01 +2.31494710e-01 +1.21324591e-01 -2.88231909e-01 -3.40987861e-01 -7.77883530e-02 -4.07974988e-01 +1.92843497e-01 +3.63797508e-02 -4.90357310e-01 -1.64496109e-01 +4.02664274e-01 +1.68091178e-01 +1.14571691e-01 +8.17768499e-02 -2.52504408e-01 +3.00405473e-02 +2.37537384e-01 +3.23740035e-01 +8.28562677e-02 +6.90550730e-02 -4.22240615e-01 -5.75383425e-01 +7.60825127e-02 -6.00629807e-01 -1.22888947e+00 -2.32293472e-01 -5.55766225e-02 -1.70872331e-01 -6.63425773e-02 -4.51233774e-01 +3.56166333e-01 +6.57628417e-01 -2.89155811e-01 -3.21959227e-01 -9.65507925e-01 -5.57727456e-01 -3.68588567e-01 +4.80421543e-01 +1.24078497e-01 -5.49323224e-02 -5.34517944e-01 -3.69830579e-01 +4.84438837e-01 -7.04124808e-01 +1.73450023e-01 -6.05428517e-01 +1.41786016e-03 +3.52542028e-02 +1.39140382e-01 -2.58298337e-01 +2.55985763e-02 +4.98746276e-01 -3.54909778e-01 -4.38481510e-01 +2.32139558e-01 -2.09364042e-01 -3.49634647e-01 -3.18274319e-01 +3.79195064e-02 +2.32842565e-01 +4.07613479e-02 -3.86746489e-02 +4.44642484e-01 -1.86190121e-02 -2.97813937e-02 +4.87158954e-01 -6.87252164e-01 -1.65370762e-01 +3.34415853e-01 -4.01356429e-01 -4.04754847e-01 -4.89024013e-01 +2.56766737e-01 +1.37552291e-01 -2.09439978e-01 -3.21050249e-02 +1.20425016e-01 +7.93347210e-02 +5.52163482e-01 +1.90042198e-01 -1.93129457e-03 -3.18476647e-01 -2.66121209e-01 +3.70969474e-02 +3.48307043e-01 -9.65106636e-02 -5.95257059e-02 +1.20250493e-01 -5.48768491e-02 +2.44967759e-01 +6.76221177e-02 +2.40952075e-01 -7.97153786e-02 +2.21800819e-01 +3.66601497e-02 +1.25303380e-02 +1.93914622e-02 -3.90410960e-01 -1.18364217e-02 +7.37517923e-02 -1.91526100e-01 +2.07016900e-01 +1.99676722e-01 +3.61837819e-02 +3.22445370e-02 -1.88193060e-02 +8.34808111e-01 +1.49270996e-01 +2.90945411e-01 +7.52986133e-01 +4.77364510e-02 +3.73255461e-01 +5.70529997e-02 +2.68951297e-01 -3.38067785e-02 -1.13279112e-01 -4.02240098e-01 +1.34926215e-01 -6.42071903e-01 -4.96112555e-02 -4.51400965e-01 +1.64544895e-01 -4.35493767e-01 -4.00031477e-01 -1.67929411e-01 -1.65781662e-01 -4.23922181e-01 -8.48610476e-02 -7.02817133e-03 +1.77477986e-01 +1.49524152e-01 -9.09420773e-02 +2.81934977e-01 -9.71604407e-01 +3.33580434e-01 -5.66295505e-01 +2.06783652e-01 -5.35858810e-01 -2.69913495e-01 +3.64297807e-01 -2.21106723e-01 +3.35735604e-02 -6.29470468e-01 -3.29952598e-01 +1.65689066e-01 -3.23142499e-01 -9.76838022e-02 -6.65537864e-02 +4.32811499e-01 -3.03587280e-02 +4.42911647e-02 -5.29027700e-01 +4.04271573e-01 +2.96914518e-01 -1.57099068e-01 -4.07146156e-01 +1.14105737e+00 +2.13541642e-01 +1.41323254e-01 -3.07112873e-01 +3.22383255e-01 -1.10981174e-01 -3.89880151e-01 -2.91189969e-01 +2.68491685e-01 +4.52819645e-01 +5.62487960e-01 -5.63012242e-01 +3.55342329e-02 +1.36045545e-01 +1.02626216e+00 -2.86666662e-01 +1.09530282e+00 +2.60728389e-01 -4.09183919e-01 +1.18725568e-01 +7.24173725e-01 +6.21156812e-01 -5.33295989e-01 -2.16047063e-01 +5.86436391e-02 -3.20830457e-02 -1.65607855e-01 +1.59539372e-01 +3.68691772e-01 +3.28757852e-01 -2.49137998e-01 -6.15621746e-01 -1.57928512e-01 -1.66545346e-01 +3.82464021e-01 +1.13652879e-02 +1.23326294e-01 +3.68769355e-02 -1.03706578e-02 +5.16087823e-02 -7.86966920e-01 -4.05988306e-01 -1.17450871e-01 +2.96444416e-01 -1.40623599e-01 -1.45091146e-01 +7.95653984e-02 +4.37892020e-01 +2.56872065e-02 -7.37344474e-02 -4.07148868e-01 -1.45445183e-01 +4.31812733e-01 +4.24009502e-01 -2.69457459e-01 +1.44214168e-01 -3.02266628e-01 +1.07600391e-01 -5.28931797e-01 -5.91515899e-01 -3.94707143e-01 +2.68060356e-01 +2.19685256e-01 -3.46648246e-01 -2.34348819e-01 +5.64443827e-01 +3.48072499e-01 +3.57199647e-02 +2.83108950e-01 +2.19715729e-01 -5.57425320e-01 +6.52102113e-01 -1.68142259e-01 +6.81606948e-01 -6.91480190e-02 -1.11118898e-01 +1.79002434e-01 -2.53218681e-01 -4.33187783e-01 -4.98471349e-01 +2.40505502e-01 -6.74614161e-02 +7.49238059e-02 -3.41755509e-01 +5.75674951e-01 +1.09868094e-01 -2.27247588e-02 -6.33883327e-02 +1.60737604e-01 +3.38623114e-02 -2.21031725e-01 -1.17143020e-01 +7.60966599e-01 +3.70013416e-02 +1.27787609e-02 -9.00743529e-02 -3.53319496e-01 -3.30619097e-01 +2.21637845e-01 -2.41298512e-01 -4.76011932e-01 -5.60647011e-01 -5.61690569e-01 -4.66290832e-01 -1.63140699e-01 -1.81689262e-01 +3.06251734e-01 -3.55691575e-02 -2.88546890e-01 +3.85580845e-02 +1.02665520e+00 -3.17044705e-01 +1.41430711e-02 -2.34784167e-02 -7.44708061e-01 +1.23867378e-01 +5.81892908e-01 -4.63354588e-01 +1.17582746e-01 -8.52248445e-02 -2.83456296e-01 -8.66834641e-01 +7.96988904e-01 +1.82366991e+00 -3.84508729e-01 -4.60550129e-01 -4.72113341e-01 -4.29177076e-01 -2.35691369e-01 +7.54208148e-01 -1.56710595e-01 -1.21184647e+00 +9.18975770e-01 +3.11634749e-01 +6.62690282e-01 +9.19859335e-02 -8.76974594e-03 +9.77616251e-01 -8.93564522e-01 -1.77085534e-01 -2.82996804e-01 +2.28989080e-01 +1.78569958e-01 +2.74834424e-01 +9.17740107e-01 +8.91162753e-02 +1.44917630e-02 +4.88677800e-01 +2.82338291e-01 -9.42102000e-02 -4.11429405e-01 -1.10394716e+00 +1.73359245e-01 -6.38491631e-01 +2.19833016e-01 -1.40316948e-01 -1.61483139e-01 -2.81233974e-02 +8.37876089e-03 -1.02365978e-01 +1.98727950e-01 -2.72920728e-01 -5.22903740e-01 -1.23471051e-01 -5.17195940e-01 -7.06959724e-01 -2.61964679e-01 +4.44346070e-01 +3.17989141e-01 +4.50048186e-02 +4.12214696e-02 +1.90430284e-02 -1.13175794e-01 +1.25987500e-01 +9.82763842e-02 -1.12007141e+00 -1.04839511e-01 -4.04151499e-01 -1.69192791e-01 +1.01540595e-01 -3.26407075e-01 -9.25471961e-01 -3.05861413e-01 +5.09391986e-02 -2.59724587e-01 -2.21299797e-01 +1.58365781e-03 -6.02396190e-01 +8.26073885e-02 +9.15142372e-02 -3.54109630e-02 +2.11031288e-01 +5.77344559e-02 +5.12731612e-01 -1.36923507e-01 -2.66707271e-01 -4.22127843e-02 -6.27945662e-02 -4.75763917e-01 -5.06756306e-01 -5.94412386e-01 -3.18009883e-01 +4.88880426e-01 -2.91899502e-01 -2.78057039e-01 +3.77279431e-01 -7.14302659e-02 +2.55910575e-01 -3.76508564e-01 -5.87560236e-02 -5.41253507e-01 +5.73168337e-01 -1.44245863e-01 -5.08795500e-01 +9.31250080e-02 -2.28656307e-01 +3.19583982e-01 -5.25643863e-02 -9.88650471e-02 -1.13569431e-01 +1.43675562e-02 +1.38275549e-01 +2.71132350e-01 +2.64613092e-01 -4.29111868e-01 -2.72372905e-02 -3.05446655e-01 -1.02733813e-01 +2.40548849e-01 +4.45130140e-01 +8.89437739e-03 -1.36246592e-01 -3.88761252e-01 +3.43766883e-02 +3.61475587e-01 +3.48395407e-01 +5.54421544e-01 +4.17345643e-01 +1.88503772e-01 -1.13734454e-01 -3.96786630e-02 -8.23952407e-02 -9.84804034e-02 -3.07792783e-01 +4.36661206e-03 +1.73514888e-01 +2.17494115e-01 -6.07859008e-02 -3.67058843e-01 +6.39171451e-02 -2.37829551e-01 -1.28761530e-01 -6.47365391e-01 +4.70072404e-03 +3.03470165e-01 -1.84416119e-02 -1.39294276e-02 +6.66434765e-02 +2.78431118e-01 -1.10453509e-01 +4.45512652e-01 -3.22800219e-01 -6.42767310e-01 -1.71809614e-01 -1.63856149e-01 -6.64001048e-01 +9.93777215e-01 -7.82108083e-02 -4.69871730e-01 -2.39009812e-01 -8.03023636e-01 -3.02947104e-01 -1.43725380e-01 -1.35069326e-01 -2.75382400e-01 +2.76075929e-01 +4.57576841e-01 -5.00053130e-02 +4.60090756e-01 +3.01105320e-01 -4.17784244e-01 -2.23273430e-02 +3.56928438e-01 -1.07088163e-01 -8.42437223e-02 +3.17869455e-01 +1.65888056e-01 +7.24293172e-01 +3.52634378e-02 -1.69736058e-01 +2.65877545e-01 +3.03677231e-01 -1.29725695e-01 -2.47199595e-01 -2.21546471e-01 +7.54561871e-02 -1.48533359e-01 -2.61317044e-02 +2.71834970e-01 -1.93813920e-01 -2.90960252e-01 -1.26039281e-01 +1.11924797e-01 +1.96325153e-01 +4.57462609e-01 +1.23368286e-01 +5.89698739e-02 +5.84816337e-01 +2.50083715e-01 +4.97244626e-01 -6.15813918e-02 +4.62595969e-01 -2.38539293e-01 -1.00510411e-01 -7.35906720e-01 +3.82751673e-02 -6.80542648e-01 -1.99494973e-01 -3.50566119e-01 -4.54079121e-01 -4.46492463e-01 -2.04995990e-01 -6.92938685e-01 -1.12399399e-01 -1.59565032e-01 -9.49191302e-02 -5.28686702e-01 -2.44958147e-01 -2.79598925e-02 +1.54076949e-01 -7.03782856e-01 +7.96921104e-02 +2.28488103e-01 +1.67610779e-01 +1.45104706e-01 +9.71246660e-02 -7.64960721e-02 -1.78018898e-01 +2.37705320e-01 +1.57871157e-01 -1.00141734e-01 -2.74746984e-01 +2.40349099e-01 -2.16759041e-01 -1.15758069e-01 +2.56484151e-01 +5.61551094e-01 +1.74791917e-01 +4.41439152e-02 -2.23334104e-01 -2.48982921e-01 -1.73027799e-01 +2.21549980e-02 -6.30469248e-02 -3.02997023e-01 +5.67944288e-01 -4.79516163e-02 +1.62288442e-01 +4.16941978e-02 +9.36676860e-02 -1.06993821e-02 +3.79300863e-02 -7.32313544e-02 +3.82468738e-02 -1.38326976e-02 +3.28391075e-01 -2.48482481e-01 +1.32632434e-01 -1.71666428e-01 -3.78251150e-02 -4.30614382e-01 -7.54260123e-02 -2.68471483e-02 +2.90354729e-01 -1.74529016e-01 -1.46395177e-01 +1.80094898e-01 -1.62430163e-02 -1.13543975e+00 +2.46236145e-01 +8.10453147e-02 -2.38104656e-01 -2.20065549e-01 -1.70820892e-01 +1.17473461e-01 +2.16358900e-01 -2.32231423e-01 -1.08912878e-01 +3.94216865e-01 -6.01562858e-01 +4.36286420e-01 -5.71409345e-01 +3.16272646e-01 -1.80640250e-01 +3.01635265e-01 -6.40892744e-01 -8.44702031e-03 -7.95022190e-01 +1.71291873e-01 -1.30944297e-01 -3.55385363e-01 +4.16586101e-01 -1.23301789e-01 -1.10814369e+00 -1.29085779e-01 +1.38831154e-01 +1.21951848e-01 -4.00090963e-01 +2.05688342e-01 -2.82031782e-02 +2.41219401e-02 +7.89022744e-02 -1.95703447e-01 -4.06973273e-01 +5.25072776e-02 +5.66704571e-02 -1.67387351e-01 -2.95283441e-02 +3.63955915e-01 -3.15844685e-01 -2.02639267e-01 +2.09932044e-01 +1.30829830e-02 -9.39529002e-01 -3.45243394e-01 -3.46748501e-01 -1.82087556e-01 +1.92575842e-01 +3.49815041e-01 -3.06238770e-01 -5.14030635e-01 +7.99646825e-02 -4.30402577e-01 +1.02309994e-02 +5.22671342e-01 -4.14892316e-01 +1.78384170e-01 -3.36484939e-01 -3.33617002e-01 +2.11243212e-01 -4.61393416e-01 +6.42147213e-02 +3.78788680e-01 -2.54179090e-01 +3.12846214e-01 +8.72761831e-02 +4.74592179e-01 -3.52536142e-02 +1.72614902e-01 -3.60382020e-01 +3.31101269e-01 +6.32053986e-02 +4.36134607e-01 -5.57585657e-01 +7.22304642e-01 -2.12111920e-01 -1.94686279e-01 -8.70987654e-01 +1.02851979e-01 -2.86298811e-01 +8.22892413e-02 +5.99871933e-01 -4.99161571e-01 -7.37856552e-02 -7.51050860e-02 -3.47341567e-01 -2.78312802e-01 +8.45202655e-02 +1.76348343e-01 -4.47364956e-01 -1.96902111e-01 +1.80344552e-01 -2.60329068e-01 -5.91189899e-02 +3.19749773e-01 -4.37978096e-02 +1.02901950e-01 -4.53897417e-02 +3.87390524e-01 -1.72564164e-01 +1.29936654e-02 +1.08598411e-01 +3.36355478e-01 -8.19021761e-02 -5.65622032e-01 +2.82548279e-01 +1.88951433e-01 -4.02685434e-01 -6.99769080e-01 +7.76673079e-01 -5.02119005e-01 +6.32200599e-01 -8.99721980e-02 +4.76856858e-01 -1.49704695e-01 -3.36810559e-01 +4.12292421e-01 -4.09080386e-01 -1.28399972e-02 -3.42248031e-03 +3.77016902e-01 +2.57659703e-01 +2.09524751e-01 +4.21460159e-02 -3.81935000e-01 +9.45413768e-01 -1.60561562e-01 -1.46912992e-01 -1.35761037e-01 +1.34860054e-01 +2.80150950e-01 +6.62161231e-01 +7.06448972e-01 -4.39817071e-01 +3.00471187e-01 +5.82002997e-01 -1.03140891e-01 +1.86733410e-01 +1.56554863e-01 +1.39459342e-01 -1.76170558e-01 -1.77138776e-01 +3.95937234e-01 -4.96207684e-01 -4.92807925e-01 +5.07067591e-02 -3.16887230e-01 -1.17016956e-01 -5.05342603e-01 -1.93470910e-01 -6.25921339e-02 -2.19599739e-01 +4.37540710e-01 -8.73814225e-02 +4.37184542e-01 +6.73015475e-01 +7.01110244e-01 +2.23740637e-02 -5.90147376e-01 -4.45169121e-01 -9.89910066e-01 +1.93144500e-01 +1.24802083e-01 -1.22285429e-02 -2.24371813e-02 +3.24239492e-01 -2.55472749e-01 +3.51946652e-02 -2.87006229e-01 +3.10245544e-01 +4.31132108e-01 -5.99083781e-01 +4.44514364e-01 +8.50894988e-01 +3.23919088e-01 +5.31708181e-01 -4.75277275e-01 -3.57520044e-01 +2.77259856e-01 -4.01176304e-01 +5.38692996e-02 +5.02557397e-01 +3.16225171e-01 +5.92222154e-01 -3.39577049e-02 -2.08026275e-01 -1.22682936e-02 -1.12645172e-01 +3.06668848e-01 +2.05534697e-01 +3.01503778e-01 +1.58533409e-01 +5.08666515e-01 +2.59472042e-01 +1.57539934e-01 +2.56590825e-02 +5.55312991e-01 +9.40283760e-02 -4.42513078e-01 +8.00332189e-01 +4.22587425e-01 -6.02746941e-02 +3.26366872e-01 +2.42165610e-01 +3.22087646e-01 -2.23784998e-01 +6.62894607e-01 +8.90147015e-02 +1.26354888e-01 -2.21558228e-01 +3.33371982e-02 -6.14002533e-02 +4.48138058e-01 -1.08019993e-01 +4.45736162e-02 -2.35617638e-01 -5.89126311e-02 +4.04457480e-01 +1.47658288e-01 +4.19215292e-01 -5.59561923e-02 +4.52862531e-01 -6.76651374e-02 +9.24026072e-01 -8.57934803e-02 +1.06540829e-01 -2.74961650e-01 +7.19105825e-02 +8.99644792e-02 +2.47364029e-01 -3.61506879e-01 -1.16577968e-01 -2.17406750e-01 +2.70179868e-01 +5.08558936e-02 -6.64753094e-02 +1.20634831e-01 +4.48473811e-01 +2.00166389e-01 -1.28510416e-01 +5.60264945e-01 +4.06796545e-01 -3.95589828e-01 +1.79949943e-02 -3.80690135e-02 -3.97034362e-02 -2.13712960e-01 +2.22508118e-01 +5.86831532e-02 -1.41995773e-01 +2.29637362e-02 -1.45760134e-01 +2.00841933e-01 -9.39640924e-02 +7.53771663e-01 +2.68128693e-01 +9.20705855e-01 +2.59528846e-01 -2.11116180e-01 +2.59767801e-01 +4.68674809e-01 +1.89582765e-01 -8.87547195e-01 -3.53260547e-01 +7.31343687e-01 -1.08204648e-01 -1.76361993e-01 +6.79020941e-01 +3.99804682e-01 -2.97472067e-02 +5.04787803e-01 -7.74709582e-01 +7.10237026e-01 +3.65441024e-01 +2.10785773e-02 +1.04254976e-01 +3.09731066e-02 +2.91249335e-01 +4.98736560e-01 -1.81445986e-01 +2.44385019e-01 +1.18020266e-01 +3.71162504e-01 -9.77009758e-02 +3.89295816e-02 +2.81613439e-01 -5.86348064e-02 +8.52937028e-02 +1.72148734e-01 +7.54042029e-01 +9.42706689e-02 -4.72445518e-01 -7.61232972e-01 -7.60517940e-02 +3.41711938e-01 +4.93539959e-01 +1.13579351e-02 +3.37503612e-01 -8.99623428e-03 -7.39291608e-01 -2.77872741e-01 +7.49840617e-01 +7.42709115e-02 +1.81639209e-01 -3.03992420e-01 +1.38777629e-01 +6.40500560e-02 +5.61222062e-03 -3.13602120e-01 -2.20323548e-01 -6.71531260e-02 -8.34189877e-02 +1.68389276e-01 -9.16410461e-02 +1.50235727e-01 -1.58256054e-01 -1.11024573e-01 -7.11206377e-01 +2.29013085e-01 -1.51815474e-01 +3.19828749e-01 +2.21008416e-02 -5.69758005e-02 -2.93500334e-01 +3.18688095e-01 +1.25194401e-01 -3.52632582e-01 +2.09265962e-01 -4.87237543e-01 -2.23036245e-01 +1.75053537e-01 -7.47564673e-01 +3.10904741e-01 -1.57405492e-02 -1.16605848e-01 -5.30653775e-01 -2.89174438e-01 +1.59310415e-01 +3.44616681e-01 -2.06505790e-01 -8.23567450e-01 -9.08734426e-02 -4.43013787e-01 +2.71147311e-01 +3.12899165e-02 -5.16866326e-01 -8.35909098e-02 -1.54235467e-01 +8.80470872e-02 +1.25430912e-01 +1.05220579e-01 -2.99263149e-01 -7.39158913e-02 +1.42540693e-01 +1.65209278e-01 -8.53192687e-01 +4.95562643e-01 -4.35523182e-01 -5.19843884e-02 +2.23776534e-01 -9.31236207e-01 +3.60088080e-01 +4.74656403e-01 -3.93550582e-02 +6.25296310e-02 -9.03329194e-01 +1.81267094e-02 +8.61808896e-01 -2.86201775e-01 +3.79774809e-01 +1.78027973e-01 +4.92576540e-01 +1.98737323e-01 +3.68171111e-02 -8.34564790e-02 -7.94252753e-02 +9.33632851e-01 -4.13914442e-01 +2.81118423e-01 +1.33968875e-01 +1.27298206e-01 -8.48998606e-01 -8.38814914e-01 -9.04755592e-01 -3.40552896e-01 -1.91211030e-01 -5.64406335e-01 -3.22426140e-01 +7.37800300e-01 -4.27133083e-01 -6.48707151e-01 -8.93500373e-02 -6.83287740e-01 +4.29503024e-01 -1.35805714e+00 -5.77888489e-01 +3.27410065e-02 -1.43347815e-01 -6.62805915e-01 -1.20623612e+00 -4.99240637e-01 -4.38233137e-01 -2.70872384e-01 -2.41232753e-01 -7.37034798e-01 -7.60722309e-02 +2.42837116e-01 -7.72098452e-02 +4.59021151e-01 +5.55133522e-01 -1.93308318e+00 +6.36584759e-02 -2.10515782e-02 +1.22486874e-01 +3.71263534e-01 -5.99799216e-01 -3.04970145e-01 -4.57769027e-03 -1.03203304e-01 +5.16287684e-01 -1.93968788e-01 +1.77870929e-01 +3.73242319e-01 -3.90001595e-01 +2.76154697e-01 -4.17992920e-01 +2.81624317e-01 -1.46056339e-01 -2.70572603e-01 +2.29013488e-01 -6.96208477e-01 +4.31801714e-02 -3.08892708e-02 -2.18450278e-01 +1.01427265e-01 +4.00503069e-01 +3.64252448e-01 +1.93697900e-01 +1.98882699e-01 +6.77087903e-01 -6.44799471e-01 +1.00182474e-01 +1.46466836e-01 +4.98264320e-02 +3.43312442e-01 +2.96299368e-01 +3.75961810e-01 +6.34690940e-01 -9.37317982e-02 +8.08734596e-02 +3.88047278e-01 -2.89014041e-01 +6.82759807e-02 -1.05493061e-01 +2.52380997e-01 +4.60046709e-01 +2.25658551e-01 +2.43797526e-02 -4.08268094e-01 +7.37217963e-01 -2.16506392e-01 +2.12994725e-01 +6.67965174e-01 +4.98244554e-01 -3.82085055e-01 +1.87162325e-01 +9.51976776e-02 -5.83217382e-01 +6.21483505e-01 +2.10385278e-01 +9.78452414e-02 +2.27424785e-01 +3.01030964e-01 +1.26893833e-01 -1.88091859e-01 +2.18372002e-01 +4.83264178e-01 -1.63484097e-01 -2.97823578e-01 -1.78389661e-02 -1.29583627e-01 -1.12725869e-01 -2.99111009e-01 -3.14865977e-01 -3.77083085e-02 +1.34369686e-01 -1.86952889e-01 -1.16194651e-01 +7.14438129e-03 +2.29816530e-02 -8.22406560e-02 +6.53122008e-01 +1.16868220e-01 +6.76405504e-02 -2.66209066e-01 -1.34061620e-01 +8.82005170e-02 +1.51977986e-01 -2.68419534e-01 +2.24437222e-01 -4.39094782e-01 -1.12657040e-01 -2.41284385e-01 -3.96121591e-01 -2.87033349e-01 -4.13527638e-01 +9.94718596e-02 -7.09358156e-02 +5.47482789e-01 -7.84213006e-01 +1.18017206e-02 +3.10226798e-01 +1.64592676e-02 -4.11171198e-01 -7.64826536e-01 +1.54829606e-01 +1.65010646e-01 -1.82627290e-01 -6.23710096e-01 -6.57143518e-02 +1.20478556e-01 +4.68599737e-01 -2.61835396e-01 +1.31059363e-01 +5.56784034e-01 -2.71304578e-01 -6.49933934e-01 -2.27007240e-01 -2.02369809e-01 -1.66849479e-01 +2.84019619e-01 +1.48701817e-01 +3.21627349e-01 +9.08748865e-01 +1.49396092e-01 -2.35887647e-01 -4.27789062e-01 -1.38426110e-01 -5.82688153e-01 -5.16546309e-01 -6.01226278e-02 -1.70681685e-01 +3.52796644e-01 +1.61894247e-01 +2.25290671e-01 -1.02055818e-01 -1.54712036e-01 -1.67974774e-02 -9.64056775e-02 +4.58544254e-01 +1.96538225e-01 +5.30942440e-01 -1.16830561e-02 -1.71395808e-01 +1.76713720e-01 +1.73908323e-01 -6.18276954e-01 +8.09024096e-01 -2.39054278e-01 +7.53516182e-02 +6.14666566e-02 -4.53508705e-01 +6.34511948e-01 +4.16831136e-01 -1.48292869e-01 +3.44243646e-01 -5.34186244e-01 +4.07894433e-01 -1.37755960e-01 -4.92692918e-01 +1.32967710e-01 -3.34203660e-01 +2.20064119e-01 +3.02891254e-01 -6.00903817e-02 -6.02591217e-01 -2.44312823e-01 -2.40134954e-01 +1.31367475e-01 -1.49860367e-01 +1.21935539e-01 +1.65838942e-01 -2.27368772e-01 +2.88910627e-01 +5.15980542e-01 -2.74619516e-02 +2.08935514e-01 +1.85032904e-01 -1.33962885e-01 -1.03928261e-01 +1.05744056e-01 +3.37040573e-01 +1.84698895e-01 -6.04868531e-02 -1.20663390e-01 +1.26006365e-01 +1.21019855e-01 +1.47483647e-01 +7.19770193e-02 -8.00273344e-02 +1.80899203e-01 -1.85987756e-01 +3.56469870e-01 +1.23038113e-01 +2.97464281e-01 -3.26790102e-02 -6.64975643e-02 +3.32769454e-01 +6.22246824e-02 +4.56035975e-03 -1.45605251e-01 -2.98378710e-02 +2.82115281e-01 +1.99999884e-01 -9.43098366e-02 +4.74877447e-01 -7.27138389e-03 +1.47115871e-01 -1.68869063e-01 +3.45651135e-02 -4.74251956e-02 +6.97259247e-01 +1.62641659e-01 -3.85686427e-01 +5.29758632e-01 -1.22210182e-01 -2.86158621e-01 -4.70064253e-01 +2.31280625e-01 -4.31959152e-01 +2.51996458e-01 +9.94885489e-02 +2.23647803e-01 -2.11749882e-01 +1.14847377e-01 -1.00316480e-01 +2.42196038e-01 -3.82974237e-01 -2.40850046e-01 +1.79664701e-01 +6.21007860e-01 -7.66430497e-02 -1.87172055e-01 +1.71269342e-01 -7.04337180e-01 +4.57463384e-01 -2.36575991e-01 -3.01762253e-01 +3.73064011e-01 +5.46083808e-01 +4.76304501e-01 +4.86750662e-01 -3.20234001e-01 -5.24443507e-01 +1.43248349e-01 +3.15072984e-01 +5.66987634e-01 -5.17612975e-03 +1.18182003e-01 +9.95966733e-01 -3.68270203e-02 -3.98161709e-01 +3.04613382e-01 -3.45356137e-01 +1.38579249e-01 +3.02996766e-02 +4.91793245e-01 +4.02036220e-01 -3.11882943e-02 +2.73903072e-01 +1.88210160e-01 +1.87077418e-01 -1.47352427e-01 -1.97570294e-01 +7.69818649e-02 +7.44450092e-02 +7.67403468e-02 +1.28156945e-01 -5.25699079e-01 +2.14098662e-01 -4.13575657e-02 +7.85373598e-02 -6.74593970e-02 +8.84017944e-02 -4.47528996e-02 +7.26754427e-01 +2.33693086e-02 +6.05026595e-02 -3.42879981e-01 +1.39332518e-01 +2.05837995e-01 +5.89186214e-02 +2.53693044e-01 +2.56592423e-01 -1.42685950e-01 -5.18428087e-02 -1.11942604e-01 +2.09716618e-01 +2.30522737e-01 +5.56649640e-02 +3.72772902e-01 +2.67439127e-01 -2.31372967e-01 -3.62570919e-02 +3.45398843e-01 +3.35703135e-01 +1.01845920e-01 -1.46737337e-01 +4.18997437e-01 -2.14074746e-01 +4.75296140e-01 +4.01834488e-01 +1.96712390e-01 +2.37010419e-01 +2.05106676e-01 +2.60514289e-01 +9.04180631e-02 +3.04874212e-01 +6.71965063e-01 +8.83871019e-02 +5.81753612e-01 -2.27514118e-01 -5.10233901e-02 -1.47312567e-01 -1.43334851e-01 +6.44267946e-02 +2.24564403e-01 -9.04214084e-02 +2.66189367e-01 +6.19050860e-01 -6.58760294e-02 +2.97566801e-01 +6.50115032e-03 +2.37051383e-01 -7.42094889e-02 +1.32424653e-01 -5.41934907e-01 +2.65469998e-01 +4.41596806e-02 +1.75037295e-01 +1.42398879e-01 +1.61814258e-01 +2.62075871e-01 +2.06111610e-01 -2.28507191e-01 -9.15999413e-02 -3.60842705e-01 -3.81143868e-01 +2.90461928e-01 -2.92066932e-01 +2.71309227e-01 -5.97603135e-02 -7.99137205e-02 -1.55173495e-01 +2.27817804e-01 -2.74473876e-01 -1.55092865e-01 -2.00141162e-01 -7.71116614e-02 -9.09409225e-02 +4.02057201e-01 -1.24866955e-01 -1.40995970e-02 +5.49730539e-01 +2.13501737e-01 -1.17273919e-01 +5.51534653e-01 +4.31439996e-01 -5.82705796e-01 +7.61004984e-02 +1.13262415e-01 -4.09736633e-02 -2.24907622e-01 +5.75130463e-01 +1.15274802e-01 -1.01877488e-01 +3.67890686e-01 +5.14873147e-01 +9.29659605e-02 +2.41687917e-03 +1.20552324e-01 +4.80502844e-01 +2.06667125e-01 +3.49861115e-01 +2.45451331e-01 +3.63689184e-01 +1.00474544e-01 -2.64537573e-01 +2.99216598e-01 +1.32678077e-01 +2.38927349e-01 -7.45867984e-03 -1.01663091e-03 +6.76288530e-02 +2.70504624e-01 +5.61777502e-02 -4.78576161e-02 +1.96037710e-01 +2.43730657e-02 +2.69712001e-01 -2.04661846e-01 +2.11605728e-01 -4.39314306e-01 -4.93115604e-01 -2.23130614e-01 +3.12052757e-01 -2.02195778e-01 -2.59343535e-01 +2.32425541e-01 -2.12058201e-01 +1.01360358e-01 +1.39196329e-02 -3.39546144e-01 +7.66616408e-03 +7.62427822e-02 +2.40853190e-01 -5.05776256e-02 -1.64696261e-01 +2.79827006e-02 -3.38505685e-01 -1.91964030e-01 +3.69775333e-02 -2.23925903e-01 -4.68317151e-01 +4.05682959e-02 -3.05608541e-01 +2.34904848e-02 +2.97873527e-01 +7.05571771e-02 -9.10067186e-02 +7.56492466e-02 +1.95816368e-01 +5.52000385e-03 -1.81770146e-01 -4.05871868e-01 +3.47757220e-01 +7.91890919e-03 +9.37125832e-02 -3.07003528e-01 +5.65820225e-02 -2.13257119e-01 +6.80926219e-02 -6.05999708e-01 -3.85802269e-01 +1.62606820e-01 -1.47251040e-01 -1.80475444e-01 -2.03058779e-01 -1.16057388e-01 +3.71669769e-01 +1.65502101e-01 +1.10348798e-01 -2.54956007e-01 +5.02583623e-01 -1.33323058e-01 +3.59737188e-01 -3.00010592e-01 -5.66529296e-02 -1.47520110e-01 -2.05912068e-01 -1.54672459e-01 -2.10463926e-01 +8.81580710e-02 -1.46482080e-01 +3.06459982e-02 -8.49014819e-02 -1.54961944e-01 -5.27784526e-01 -6.06937446e-02 +1.09058976e-01 -4.35715199e-01 -5.86428463e-01 +9.83538479e-02 +1.22031093e-01 +2.87064165e-01 -2.15369269e-01 -2.81344265e-01 +5.47560275e-01 +1.59714073e-01 +4.30563569e-01 -5.85470535e-02 +1.94154516e-01 -3.91267210e-01 -2.67422255e-02 +2.41941422e-01 -1.10645019e-01 -7.42760673e-02 -3.76347899e-02 -9.52761248e-02 +1.50382251e-01 -4.31482159e-02 -4.40598041e-01 +7.42361974e-03 +5.59272654e-02 -1.09196627e+00 -6.03969097e-01 +7.66546428e-02 -1.94592088e-01 -1.61453247e-01 +1.68435901e-01 +2.66750276e-01 +1.26320114e-02 -9.22831297e-01 +2.52928853e-01 -1.81529269e-01 -4.15670663e-01 -1.93293542e-01 -7.60753930e-01 +8.81203339e-02 -5.23594141e-01 -3.44301090e-02 -3.25791389e-01 -8.69653225e-02 -8.47494006e-01 -9.90353286e-01 +3.43925089e-01 -1.14651465e+00 +4.03893292e-01 -4.07769114e-01 -9.93178710e-02 -4.28225473e-02 +2.42196813e-01 -2.25994155e-01 -1.81571260e-01 +4.11983639e-01 +2.41696239e-02 -3.90038937e-02 +2.66519427e-01 +1.82938427e-01 -3.57773080e-02 +3.90924960e-02 +4.74081069e-01 +1.75959080e-01 +3.73053074e-01 +2.67719090e-01 -1.21021017e-01 -3.51890996e-02 +3.90030533e-01 -1.16710097e-01 -4.46340978e-01 -1.75628379e-01 +1.50969205e-02 -9.56896693e-02 +1.52015314e-01 +2.81026900e-01 -2.63361782e-01 -5.12073264e-02 +2.58826017e-01 +8.20551440e-02 -4.74450350e-01 +3.52610826e-01 -2.88886130e-01 +1.21629938e-01 -2.34564036e-01 -4.07754034e-02 -6.64724290e-01 +2.63886005e-01 +3.33686352e-01 +4.30455178e-01 -2.81033844e-01 -3.14582318e-01 +3.29799354e-01 +7.08799660e-02 -1.56442508e-01 +2.40597844e-01 +2.70585380e-02 +3.15684259e-01 +4.87087101e-01 +7.97317147e-01 +8.94761443e-01 -2.60690898e-01 -5.02602100e-01 -4.93425652e-02 +3.84162158e-01 +3.46878320e-01 -9.89421532e-02 +3.35276395e-01 +3.37010771e-01 -2.34022930e-01 +3.54720563e-01 -3.96187529e-02 +2.44769722e-01 +5.33610843e-02 -2.99462993e-02 +3.60647529e-01 -1.63294941e-01 -1.76764414e-01 +2.62950867e-01 +6.31624341e-01 +1.58512563e-01 -1.30516887e-01 -2.46907249e-01 +5.25684953e-01 -2.94397399e-02 -2.54759341e-01 -2.05136538e-01 -7.86407292e-01 -1.15015358e-01 -3.54224712e-01 -5.42671978e-01 -1.03845999e-01 -5.02631843e-01 +1.35699823e-01 +2.44958848e-01 -2.46804684e-01 -2.97321916e-01 -5.25399029e-01 -8.54716077e-02 -2.74458498e-01 -3.44070464e-01 -4.79806781e-01 -7.80145645e-01 +5.40980935e-01 +4.16032940e-01 +1.45712256e-01 +2.04889476e-01 -5.18463135e-01 -4.88117635e-02 -1.56271636e-01 +7.68629760e-02 +2.21444499e-02 -9.15598273e-01 +7.74840176e-01 +1.18003273e+00 -9.47172403e-01 -3.68561670e-02 +3.87614071e-01 +6.64857626e-01 -9.59156454e-02 +1.18429804e+00 -1.21712804e+00 -1.13432229e+00 +1.17126143e+00 +1.72086194e-01 +6.65296853e-01 -3.99985850e-01 +1.68720067e+00 +1.50076076e-01 -1.28557467e+00 +4.47413236e-01 +4.78349268e-01 -3.84204656e-01 -4.09863740e-01 +6.96715176e-01 +1.01457620e+00 +1.18037188e+00 +4.99336392e-01 -1.67092815e-01 -7.44975924e-01 -8.58463347e-02 +5.47554567e-02 -7.67780066e-01 -4.28077966e-01 -2.46163979e-01 -1.49899408e-01 +6.47254765e-01 +2.34810665e-01 -7.29327137e-03 +5.77619016e-01 -1.19581863e-01 +9.90702286e-02 -1.10062480e-01 +5.08018918e-02 +6.04043826e-02 +5.08425534e-01 -2.44643897e-01 -2.93989293e-02 +3.91711205e-01 -7.82125115e-01 +1.07932433e-01 +1.22124664e-01 -3.65214944e-01 +2.42664572e-02 +3.56214643e-01 -7.02339411e-02 -5.62327623e-01 -1.39655754e-01 -2.21059993e-01 +1.59078151e-01 -1.21421658e-01 +6.20858610e-01 -3.75588000e-01 +5.39987326e-01 -2.95958072e-01 -1.58536851e-01 -1.34315103e-01 -2.27592736e-01 +1.67321682e-01 -4.21958923e-01 -4.07824725e-01 -7.37641156e-02 -1.23353548e-01 -1.17173091e-01 -2.39296064e-01 +4.58326787e-01 -4.99579936e-01 -5.44687092e-01 +1.91639718e-02 +1.17695719e-01 +2.22887591e-01 -2.15424180e-01 +3.67327422e-01 +2.31057763e-01 -3.33743602e-01 -9.76074040e-02 +1.25041911e-02 -6.46913171e-01 -5.22915237e-02 +2.05769837e-01 -2.79877093e-02 -1.43060446e-01 -1.10759726e-02 -5.19189164e-02 -2.71464467e-01 -2.92061746e-01 -2.62528598e-01 -3.49180698e-01 -1.37567207e-01 -7.25028068e-02 -2.89555401e-01 -4.26797988e-03 +3.04057896e-01 -1.60985306e-01 -2.82176524e-01 +1.36907503e-01 -4.01130021e-01 -8.26729089e-02 -1.60848051e-01 +2.16433585e-01 +9.72068533e-02 +2.57079393e-01 -3.69328482e-04 +3.68865766e-02 -3.62615101e-03 +3.63972560e-02 +3.01717132e-01 -2.07733303e-01 -5.66731989e-01 -1.61439046e-01 +2.44538486e-01 +1.82464272e-01 -3.87275845e-01 -2.30751023e-01 +8.70808810e-02 +3.96717012e-01 +2.93823212e-01 +2.05644503e-01 +3.47685516e-01 -1.18075359e+00 +2.11697280e-01 -3.29179354e-02 -1.16235398e-01 -3.01331311e-01 +6.22216105e-01 +1.87850177e-01 -2.75415123e-01 +3.60169470e-01 -1.26761541e-01 -3.17636654e-02 +4.99450564e-02 -4.64414537e-01 -6.10428870e-01 -5.59375286e-01 -8.43997225e-02 -4.81231689e-01 -4.33788970e-02 +1.76299870e-01 -4.53259766e-01 -7.65719712e-01 -2.77492970e-01 -7.02032804e-01 +1.27317384e-01 -2.63780713e-01 -6.48657084e-01 -1.36962757e-01 +7.10939169e-01 +5.29676437e-01 +1.05248764e-01 +1.17344819e-01 +1.84644237e-01 +2.91962951e-01 +4.39091809e-02 -5.74796833e-02 -2.93921739e-01 -1.23689577e-01 +6.79168403e-02 -9.35583711e-02 +5.79308033e-01 +4.28382941e-02 +7.25438893e-02 +3.49013895e-01 +1.20215707e-01 -6.52248338e-02 -5.06986529e-02 +1.98542893e-01 +3.30240995e-01 +2.26623431e-01 -4.85378176e-01 +1.57596886e-01 -1.02379136e-01 +6.51353002e-02 +5.10828853e-01 -3.13056052e-01 +3.66573304e-01 -1.97861642e-01 -6.36365637e-02 -2.18041554e-01 +4.93495196e-01 +2.10408524e-01 +1.39732018e-01 -1.93092655e-02 +4.51141261e-02 -3.70288104e-01 -1.58642232e-01 -8.26779231e-02 -2.82807350e-01 -9.29228306e-01 -1.60296142e-01 -3.28643978e-01 -3.30483615e-01 -4.49516267e-01 -6.38155788e-02 -3.84716362e-01 -4.08619225e-01 -1.46678403e-01 +1.68707699e-01 -2.81812519e-01 -2.08173990e-01 -9.85931326e-03 +1.35337099e-01 -5.01968086e-01 -2.16310956e-02 -3.22630078e-01 +1.84744418e-01 +2.37982929e-01 -6.53212890e-02 -1.78972736e-01 -3.05549890e-01 -2.02706620e-01 +8.07801262e-02 -1.25337347e-01 -2.26644799e-01 -4.14211750e-02 -4.94949222e-01 -1.24611884e-01 -1.54858038e-01 +1.83647469e-01 -1.47239715e-01 -3.00480217e-01 -4.66848612e-02 +5.83298653e-02 -4.78658348e-01 +5.84534071e-02 -4.77636069e-01 -1.92635611e-01 -2.11602509e-01 +3.51858854e-01 +3.85452658e-02 +3.11620772e-01 -4.55109984e-01 -7.79815614e-02 +5.38915336e-01 +1.92052677e-01 -9.81416181e-02 +2.08863690e-01 -4.98001277e-01 -3.70436251e-01 +6.85541779e-02 +2.54380435e-01 -1.71733201e-01 -5.41057169e-01 +4.31463182e-01 +1.84291184e-01 +4.44183350e-01 +8.52483884e-02 +2.03080416e-01 -6.46564901e-01 +6.80261329e-02 -4.05307591e-01 +2.70972401e-01 -4.26665485e-01 +1.96966808e-02 -1.91445984e-02 -5.30393608e-02 +2.56751567e-01 +6.75643235e-02 -2.62645662e-01 +2.27299973e-01 +3.43567729e-01 -1.21984035e-01 +1.30564690e-01 -6.00747049e-01 +7.32610794e-03 +5.64823508e-01 -8.11947882e-02 -5.17196774e-01 -6.21334240e-02 -5.37171304e-01 +5.97843342e-02 -1.29910380e-01 -3.74084860e-01 -1.87142804e-01 -7.39904225e-01 -5.73744327e-02 +2.78750241e-01 -4.44257915e-01 -7.22660124e-02 -8.00288245e-02 +7.51455650e-02 +5.55468872e-02 +5.83863929e-02 +1.92820698e-01 -1.59218639e-01 -3.64441782e-01 -4.44765866e-01 +6.82269573e-01 -1.55300340e-02 +8.69520158e-02 +2.87939280e-01 +3.44331414e-02 -2.73587578e-03 +1.80145763e-02 +2.40538448e-01 -4.47538704e-01 +8.51941630e-02 -2.08792314e-01 -1.34090245e-01 +8.56999829e-02 +2.31402647e-02 +3.01866084e-01 -5.74951887e-01 +2.19648689e-01 -2.60812044e-01 -8.63923342e-04 +6.03469431e-01 -1.00322634e-01 +4.05897982e-02 -2.06587240e-01 +1.08796814e-02 -5.28378971e-02 -9.08664465e-02 -2.07330748e-01 -2.96886742e-01 +2.47223303e-01 -4.37221862e-02 +8.13277125e-01 +2.52913982e-01 +1.10036850e-01 +4.90605235e-01 -1.61648810e-01 +2.93427110e-01 -1.75394326e-01 +1.81154832e-01 -2.11057123e-02 -8.01796392e-02 +9.37702134e-02 -9.41674784e-02 +2.46466234e-01 +3.63475680e-01 +3.99240911e-01 -5.87506816e-02 -4.44349200e-02 +3.61496024e-02 +1.06504016e-01 +8.46010149e-01 +2.93629438e-01 -2.24234730e-01 -1.99068367e-01 +1.02368891e-01 -8.92330483e-02 -3.83421421e-01 +3.62198576e-02 +3.12990904e-01 +1.20100848e-01 -5.67072704e-02 +3.55597973e-01 -2.29519248e-01 -6.58824146e-01 -7.67003357e-01 +3.35597992e-01 -6.11417830e-01 -5.44158146e-02 +2.41157353e-01 -2.02062488e-01 -3.05241108e-01 -1.10045098e-01 -7.37818420e-01 +1.83472596e-02 +3.22252899e-01 -2.26439074e-01 -4.32394266e-01 -3.60847294e-01 +8.99845138e-02 +1.41367525e-01 -1.21645880e+00 +1.30287349e-01 -4.62357223e-01 -1.43155918e-01 +1.65024206e-01 +1.99344605e-01 +2.09778007e-02 +3.47190678e-01 -5.43946445e-01 +8.23347420e-02 -5.70356131e-01 +5.26958704e-01 -1.31951734e-01 +1.64328665e-01 -3.84489745e-02 +6.41066372e-01 +2.45860785e-01 -7.33985975e-02 +4.43052128e-02 -4.57248800e-02 +6.85069978e-01 -4.55193251e-01 +5.97341359e-01 -3.53315830e-01 +1.18598968e-01 +3.25798869e-01 -6.46980405e-02 +2.74171352e-01 +1.85235754e-01 +1.71226591e-01 +1.72509089e-01 +2.16732454e-02 +1.72536194e-01 +4.27941799e-01 -8.47567171e-02 -5.51588714e-01 +2.42431551e-01 -2.01127045e-02 +4.70179677e-01 -4.99707580e-01 +1.04908752e+00 +3.56152892e-01 -1.81415424e-01 -2.34784260e-02 +3.11948389e-01 +1.13287888e-01 +7.03742355e-02 +1.20373026e-01 +1.59478169e-02 +3.26069444e-01 -2.29800463e-01 -2.37253964e-01 -1.73434973e-01 +1.34070054e-01 -4.74413574e-01 +3.16216141e-01 -2.19646737e-01 +1.06380120e-01 +4.98307776e-03 +1.91467687e-01 +1.01477280e-01 -6.91277459e-02 +9.61371213e-02 -3.02916825e-01 +2.59328514e-01 -1.57041833e-01 -6.95018098e-02 -3.09803069e-01 +2.89406419e-01 +8.89431313e-02 -1.30668059e-01 +4.76190656e-01 -3.42880547e-01 +2.38793939e-02 -3.60973507e-01 -1.87576190e-01 +1.03717241e-02 -7.29696095e-01 -3.53101552e-01 +4.81998026e-02 -7.69469887e-02 -3.85409206e-01 +1.64225563e-01 -1.24218181e-01 +2.09223464e-01 -4.14183378e-01 -5.35841426e-03 -5.67670763e-01 +3.64200413e-01 -1.12137586e-01 +3.61215845e-02 -4.59627390e-01 +2.61174083e-01 -5.06991565e-01 +1.21846646e-01 +8.60833302e-02 +4.31273460e-01 +2.59715140e-01 -2.91794330e-01 -3.61597776e-01 -4.09656584e-01 +1.46901429e-01 +3.01625639e-01 -1.49350315e-01 +3.79986197e-01 -2.94050485e-01 -3.70964855e-02 -3.96307223e-02 +2.26554632e-01 -1.27749965e-01 -4.99829054e-02 +1.79491937e-01 +2.46988922e-01 +7.92263001e-02 -1.30284131e-01 -5.43487489e-01 -1.42275572e-01 +7.09737912e-02 -1.17432952e-01 -8.47649723e-02 -1.55676976e-01 -4.20963287e-01 -1.95045900e-02 +6.87544227e-01 -1.50334947e-02 +3.00978065e-01 +4.70248371e-01 +1.49447545e-01 -1.31217763e-01 -1.55637309e-01 +8.10676441e-03 -7.72986561e-02 +1.43857047e-01 -4.01466191e-01 +1.96344793e-01 +1.40884459e-01 +2.28460934e-02 -4.48114648e-02 -8.57213676e-01 +9.35055971e-01 +5.40613294e-01 +1.19161038e-02 -3.87520075e-01 +1.05901778e-01 -1.35538325e-01 +2.08647624e-01 +1.13915527e+00 -1.31808639e-01 +7.43806183e-01 +4.94857162e-01 +4.60343480e-01 -5.32720625e-01 +3.80609483e-01 +1.31149501e-01 +1.83003824e-02 +4.55399960e-01 +1.04502261e+00 -6.63173258e-01 +3.56004864e-01 -2.25897938e-01 -1.82041660e-01 -2.45609567e-01 -4.68200058e-01 +1.41577601e-01 +1.57669604e-01 +4.00472462e-01 +2.08296761e-01 +7.90165544e-01 +6.39662325e-01 +7.09730506e-01 +2.09178209e-01 -3.98494937e-02 -3.25117797e-01 +2.71387309e-01 +7.29180053e-02 -1.00839108e-01 +2.99645185e-01 +4.72537398e-01 -8.80619511e-04 -1.55761436e-01 -1.22424088e-01 -8.32610354e-02 +2.91076869e-01 +1.73218712e-01 +3.39812040e-01 +2.38193780e-01 +2.35811854e-03 +6.35995805e-01 +4.85364079e-01 +1.31436020e-01 -1.65856451e-01 -2.75101662e-02 +1.17122076e-01 -5.50575793e-01 -5.21125719e-02 +2.37896696e-01 +1.89789683e-02 +6.81885540e-01 +4.08254713e-01 +4.24172968e-01 +3.55984420e-01 -5.67581393e-02 +3.57032716e-02 +2.94418335e-01 -2.87887573e-01 +9.69196931e-02 -7.60744512e-02 -8.01344663e-02 -5.23354039e-02 -3.54796290e-01 -1.43802971e-01 +1.79786980e-01 +4.95792590e-02 +1.37867376e-01 +2.85290837e-01 -3.12185854e-01 -1.24290236e-03 +7.39045978e-01 -6.38920486e-01 +5.63305378e-01 -2.24010617e-01 +1.27732962e-01 +4.11414236e-01 -2.06892133e-01 +3.75146896e-01 +6.08908474e-01 +1.84337720e-02 +3.91318835e-02 +1.18977264e-01 -1.00177161e-01 +2.97669828e-01 +1.67262241e-01 -8.11978281e-02 -1.43933587e-03 +1.65477738e-01 +3.42231601e-01 -5.28201818e-01 +8.30870643e-02 -5.27127683e-01 -1.31655913e-02 -1.78048927e-02 -2.41644055e-01 +2.16530859e-01 -7.05185756e-02 +6.20317347e-02 -3.21047127e-01 -1.12451993e-01 +1.70019865e-01 +2.98381358e-01 +1.15064539e-01 +3.10065031e-01 -1.60344332e-01 +2.90923357e-01 -6.41264796e-01 +3.57324719e-01 -7.27644265e-02 -9.42864735e-03 -4.69235070e-02 -9.15663391e-02 -6.85864165e-02 +4.70684856e-01 +1.00045852e-01 +9.22378451e-02 -5.24824202e-01 -9.62718204e-02 -1.27192423e-01 +3.66104960e-01 +2.84179598e-01 +2.97528505e-01 +1.20958611e-01 +1.58384696e-01 +3.54246438e-01 +1.63504615e-01 -1.54305801e-01 +4.41616207e-01 +5.05127728e-01 +2.83324383e-02 +1.35761395e-01 +5.35116136e-01 +6.52254879e-01 +5.27967632e-01 -1.17426597e-01 +3.60869378e-01 +2.41303772e-01 -4.12737548e-01 -2.75856674e-01 +5.61188400e-01 +4.33448166e-01 +3.95897418e-01 +2.80107230e-01 +8.32705557e-01 +2.23455906e-01 +1.88719451e-01 -1.27512574e-01 +4.69054013e-01 +4.63320434e-01 +1.64036766e-01 +3.54045987e-01 +5.74911594e-01 +5.63570708e-02 -1.61247671e-01 +2.07942918e-01 +4.01839167e-01 -3.58541042e-01 +3.80865447e-02 -3.03214550e-01 -2.68413544e-01 +4.35749203e-01 -1.98371068e-01 -4.99367833e-01 -1.19192436e-01 -1.45602271e-01 -2.35193148e-01 -5.46847641e-01 -2.00198352e-01 -1.97206378e-01 +4.58420843e-01 -5.74908219e-02 -1.83631241e-01 +3.49421948e-01 -2.81262308e-01 -3.22235793e-01 +1.78510681e-01 +2.40679160e-01 -5.47739923e-01 -5.59657872e-01 +1.06510416e-01 +3.80395025e-01 -1.47956878e-01 +1.50917694e-01 +3.24127167e-01 +2.15286046e-01 +2.28405312e-01 +7.52040505e-01 +4.48906660e-01 +2.99509883e-01 +3.35334927e-01 -2.33574450e-01 +3.87995899e-01 -3.79519388e-02 +1.44177233e-03 +4.73503709e-01 -2.89066672e-01 -2.12911084e-01 -5.67010380e-02 +4.14317012e-01 +2.64079183e-01 +6.26995862e-01 -5.58401346e-02 +4.53742921e-01 -3.60810533e-02 -9.98762101e-02 +4.77965653e-01 +1.14368489e-02 +3.87447178e-01 +2.60620713e-01 -1.94661483e-01 +1.72861099e-01 +1.39285177e-01 -2.40039036e-01 -1.56106457e-01 +3.76241297e-01 -1.86623037e-01 +3.40950549e-01 -3.50234836e-01 -8.74978080e-02 +2.68767476e-01 -6.08289897e-01 -6.38716280e-01 -4.38771009e-01 -2.17697471e-01 -5.18807113e-01 -4.91471738e-01 -2.52239257e-02 -6.11249506e-01 -1.07101522e-01 -3.37526321e-01 -2.86453336e-01 +4.07347590e-01 -8.28148425e-01 +1.42581522e-01 +2.19495356e-01 -4.28121030e-01 -5.70438385e-01 +6.36467934e-01 -5.09645529e-02 -7.07847774e-01 +2.28697702e-01 -3.85442711e-02 +2.98457481e-02 -1.99530050e-01 -6.10531092e-01 +3.96924317e-02 -6.92980587e-01 +7.19675303e-01 -8.29467177e-01 -3.41332883e-01 +7.37580538e-01 +7.03172743e-01 -8.46299231e-01 -7.58564889e-01 +7.80073106e-01 -1.92925677e-01 +6.13914967e-01 -9.72377360e-01 -6.14034295e-01 +4.13973272e-01 +4.11868542e-01 -7.86614776e-01 -2.28184402e-01 +7.38812745e-01 -2.33165413e-01 -5.51935196e-01 -1.72729865e-01 -1.87458962e-01 -2.05940440e-01 +7.95006990e-01 +1.69759646e-01 +7.38759041e-01 +1.18780601e+00 +1.10159978e-01 -7.33677968e-02 +4.06493843e-02 +6.00895762e-01 -2.86415040e-01 -7.18825698e-01 -1.54034078e-01 +6.90006837e-02 -4.25064057e-01 +9.74400416e-02 +4.76418883e-01 +2.71639645e-01 +3.32829654e-02 -8.78602825e-03 -1.21442102e-01 +3.15019995e-01 +7.87028372e-01 +1.26684755e-01 -5.09419084e-01 +3.38015288e-01 +4.11931276e-01 -4.10663486e-01 -4.05930579e-01 -4.07666147e-01 +2.94775099e-01 +6.27738595e-01 +1.18513264e-01 +4.43269908e-01 +1.73222542e-01 +5.87290227e-01 -5.19774258e-01 -9.28356171e-01 -1.78571567e-01 +1.52802676e-01 +1.65475323e-03 -6.82528794e-01 -1.73669219e-01 +6.65647447e-01 +6.49630070e-01 +7.25302026e-02 -5.69722235e-01 -1.09985873e-01 -1.96577430e-01 +2.83591568e-01 +9.60731283e-02 +4.38048542e-01 +5.31503201e-01 -2.64518499e-01 +1.30215436e-01 +1.06475540e-01 +7.15957761e-01 -1.12980880e-01 +4.84388798e-01 -1.18116748e+00 +1.06844366e+00 -4.70336191e-02 -2.07299128e-01 -1.61546096e-02 +2.38275275e-01 -1.61295429e-01 +3.32543433e-01 +1.07490718e-01 +1.57580882e-01 +4.44123834e-01 +2.60070503e-01 +5.53211033e-01 +3.02996129e-01 +3.86116743e-01 -2.21210450e-01 +1.28395751e-01 -3.65671478e-02 +3.48266542e-01 -7.70182014e-02 -1.36617990e-02 +3.27801526e-01 +8.08078144e-03 -4.41732304e-03 -3.29370767e-01 -5.75175434e-02 -6.54474944e-02 +5.82272470e-01 +1.60138980e-01 -3.16005707e-01 +2.66728818e-01 -1.41809121e-01 +2.23592713e-01 +5.30570745e-01 -4.53033000e-01 -8.48617554e-02 +1.33515760e-01 +1.60941511e-01 -1.32039368e-01 -4.30540770e-01 +2.27453202e-01 +1.98419571e-01 +1.71664894e-01 +5.94215430e-02 -1.81543618e-01 +1.02851593e+00 -1.91606969e-01 +4.43420559e-03 +2.29379565e-01 +3.97843778e-01 -8.21009725e-02 -2.64804959e-01 -1.20904818e-01 +9.34694856e-02 -1.79033831e-01 -3.82347852e-01 +3.47801268e-01 -4.35761094e-01 -5.12740687e-02 +1.57212853e-01 +7.55659342e-02 -4.89162058e-01 +5.90465188e-01 -3.57112706e-01 +2.36818910e-01 -4.03517425e-01 +4.90521461e-01 +9.11740661e-02 -9.12690014e-02 -8.86782885e-01 +4.41896111e-01 +1.08202577e+00 -5.50474763e-01 +8.62405598e-01 -1.43685073e-01 +3.01741123e-01 +6.02636218e-01 +7.18758345e-01 -1.58488125e-01 -3.76794636e-01 -2.63001710e-01 -1.74778014e-01 +3.72905508e-02 -1.06530517e-01 -1.06550440e-01 +4.64504868e-01 -2.30783954e-01 +2.31877506e-01 -5.18883407e-01 -1.87301308e-01 +9.19831358e-03 -2.46347561e-01 -3.74982283e-02 +3.80120069e-01 -3.14852521e-02 -3.98444146e-01 +4.24446583e-01 -1.71217471e-01 +4.76499498e-01 -1.49916902e-01 -1.41757756e-01 -2.06860840e-01 +7.80236498e-02 -9.77120399e-02 -7.23729953e-02 +7.82397866e-01 +2.56292939e-01 -4.79303420e-01 +2.88010746e-01 +1.48380056e-01 -5.75594641e-02 +6.89193606e-02 -4.70980294e-02 -5.20751894e-01 -2.17667371e-01 +6.07440293e-01 +3.64867747e-01 +1.47223040e-01 -4.87977080e-02 -2.33495250e-01 -1.92049757e-01 -3.85063030e-02 +1.67838156e-01 +2.59656072e-01 -1.24316707e-01 -2.62255102e-01 +4.23645452e-02 -3.77020597e-01 -2.73863375e-01 +1.88273191e-01 -1.14073336e-01 -1.86119914e-01 +1.15779117e-01 +8.70819986e-02 -7.44111389e-02 -4.34679575e-02 +5.11493444e-01 -4.79241796e-02 -3.23514998e-01 -3.28602493e-01 -1.88192651e-01 +3.13759178e-01 -3.08976144e-01 -1.29375204e-01 -3.22777927e-02 -6.57634914e-01 -1.84572667e-01 +5.01155019e-01 +1.76507726e-01 +5.36355138e-01 -7.05006672e-03 +2.09721744e-01 +2.68933892e-01 +2.50050336e-01 -3.75286907e-01 +2.75021374e-01 -5.98657370e-01 -1.58921316e-01 -8.74130055e-02 +1.61003575e-01 -2.28821799e-01 -3.33955318e-01 +4.24198091e-01 -2.49055177e-01 +2.79592484e-01 -3.83007452e-02 -1.22717030e-01 -1.95992470e-01 +3.05040658e-01 +3.33334088e-01 -4.67480808e-01 -3.75814825e-01 +8.69572908e-02 -1.71440825e-01 -9.02836993e-02 +2.33206153e-02 +1.48355335e-01 -8.91151607e-01 +5.25132298e-01 -2.05604404e-01 -1.67381763e-01 -4.34855632e-02 +7.07363114e-02 -8.44901577e-02 +4.52889264e-01 +3.94886374e-01 -1.98583513e-01 +7.14869618e-01 -4.27313656e-01 -5.68300366e-01 +7.89941847e-02 -2.18014821e-01 -2.28426903e-01 -3.52352917e-01 +2.99179971e-01 +2.78403491e-01 -3.54994923e-01 +4.48220611e-01 +1.00504428e-01 -9.88918722e-01 +5.20520329e-01 -1.78801584e+00 +3.80941689e-01 +5.26034653e-01 -8.44738446e-04 +3.09708744e-01 +6.27722979e-01 +4.76065069e-01 +1.04371881e+00 +9.46913242e-01 -5.02924263e-01 -2.66500711e-01 +3.18067104e-01 -3.93465310e-01 +2.32647821e-01 +7.00868189e-01 -1.47689819e-01 +5.05774796e-01 -3.75794113e-01 +4.34237570e-02 -3.83522481e-01 +2.12989137e-01 +2.99955934e-01 -1.23915620e-01 -6.98248386e-01 +8.10675263e-01 +2.58944839e-01 +2.05962911e-01 -2.21243471e-01 +6.03073873e-02 -2.62694925e-01 -1.20488055e-01 -4.69874918e-01 -3.46920013e-01 +3.68723482e-01 -3.42174560e-01 +5.14433086e-01 +5.45473039e-01 +5.79668343e-01 +1.74195483e-01 +1.31065488e-01 -2.67638713e-01 +4.59846795e-01 -4.02450919e-01 +3.14087838e-01 -2.83814460e-01 -3.36397201e-01 -1.80669010e-01 -2.67996222e-01 -2.15014637e-01 +1.64162666e-01 -8.83122757e-02 -1.03027833e+00 +1.78824902e-01 -3.36735398e-01 -1.65188715e-01 +1.07210502e-01 -1.56180456e-01 +1.34624064e-01 +1.35931715e-01 -7.78431118e-01 +2.75720119e-01 -4.69364077e-01 +4.86793429e-01 +4.69340175e-01 +3.55575681e-01 +1.49855569e-01 -2.35321313e-01 +7.31444895e-01 -3.73092741e-01 -7.21383914e-02 -9.89039540e-02 +1.04557939e-01 +2.15438128e-01 -2.92798549e-01 +3.22631985e-01 +1.49751723e-01 +1.19029298e-01 -4.74547356e-01 -8.38255942e-01 +2.24515274e-01 +8.83626267e-02 -2.34489981e-02 +2.80221552e-01 -1.95288099e-02 -2.69135032e-02 +3.17774862e-01 -4.77113277e-01 +3.13557684e-01 +1.37825981e-01 -1.09712310e-01 -6.79990828e-01 -5.93018651e-01 +8.48544240e-02 +1.89139709e-01 -5.76340437e-01 -2.98444688e-01 -6.21880889e-02 +3.97171825e-01 +2.91513890e-01 +1.69303849e-01 -4.27764058e-01 +8.76093805e-02 -4.95022796e-02 -2.10879445e-01 -5.61049759e-01 +5.96198924e-02 -3.49764168e-01 +1.29480466e-01 -5.26206315e-01 +4.25809443e-01 +1.70059398e-01 -4.16803122e-01 +1.55316785e-01 +1.80789262e-01 +2.30699122e-01 -8.31682503e-01 +5.68452716e-01 -2.63666898e-01 +2.36268699e-01 -1.62921116e-01 +4.32127476e-01 +4.63321470e-02 -1.12590119e-01 -6.35511279e-01 -3.21653217e-01 -5.27982175e-01 -1.78698167e-01 -1.39469698e-01 -5.65402389e-01 +2.09378064e-01 +4.98078614e-01 +3.01933557e-01 -3.38711917e-01 -3.23280454e-01 +2.92902380e-01 -1.86045438e-01 -2.99659789e-01 -2.82546103e-01 -3.27032238e-01 -4.37852591e-02 -1.28450394e-01 -2.81686336e-01 -1.29065603e-01 +3.07092458e-01 +1.71701908e-01 -9.30703357e-02 -1.80546701e-01 -4.92445886e-01 -2.49755964e-01 +2.96849668e-01 -1.39193624e-01 -4.46032584e-01 -7.81863835e-03 +1.65827915e-01 -3.02941978e-01 -6.47609085e-02 +1.93146318e-01 -1.18719805e-02 +2.21617773e-01 -2.76382476e-01 +4.77190524e-01 -2.23792210e-01 +6.31780148e-01 +8.81007731e-01 -1.52693570e-01 +2.63893828e-02 -1.60902679e-01 +6.19088531e-01 +3.44575465e-01 +3.23100001e-01 -1.71854988e-01 +1.99200120e-02 +3.20674658e-01 +2.47986302e-01 +3.91175270e-01 +4.17465538e-01 +2.11393815e-02 -1.33233994e-01 +3.32972735e-01 -8.22789147e-02 +9.78159755e-02 -5.10749780e-02 +2.68568665e-01 +8.21583942e-02 -2.75737226e-01 -9.02457312e-02 +3.64116937e-01 +1.74507294e-02 +2.76737660e-01 -3.39075699e-02 +2.33069941e-01 -5.14307022e-02 +2.80026466e-01 +3.71979326e-01 +5.34141302e-01 -3.00297886e-01 +5.34655675e-02 +7.62916431e-02 +6.11646473e-02 +1.45579934e-01 -3.15596499e-02 +9.59539562e-02 -2.24437669e-01 -4.85569995e-04 +8.27058330e-02 +2.87107795e-01 -7.33984751e-04 +2.37204522e-01 +3.26607600e-02 +2.00158849e-01 +1.03332087e-01 -2.90496260e-01 +2.72748657e-02 +3.10054570e-01 -7.59112239e-02 +2.86621481e-01 -1.00547314e-01 +1.29045695e-01 +5.14023528e-02 -3.97226721e-01 +2.67345071e-01 +1.66857824e-01 -2.35073656e-01 -1.15269423e-01 -2.30391383e-01 -9.31193680e-02 +2.47701198e-01 -1.37430519e-01 -2.30330214e-01 -3.38736326e-01 -9.19240341e-02 +1.45912409e-01 +2.04805285e-01 +1.36912823e-01 +5.79828024e-01 -7.61940479e-02 +3.18454891e-01 +2.07094282e-01 +1.72651201e-01 +1.18127458e-01 -7.54162483e-03 +3.38914543e-01 +3.24555367e-01 +3.97924194e-03 +1.38796225e-01 -1.95123568e-01 +1.82937473e-01 -3.37241851e-02 -8.66260566e-03 +1.45310890e-02 -7.12112859e-02 +2.35921443e-01 -4.55543958e-02 +6.61229134e-01 +1.61369473e-01 +3.72992069e-01 +4.09054041e-01 -2.01800853e-01 +1.06466442e-01 +5.04623614e-02 -3.04988980e-01 -2.94509693e-03 +2.62607992e-01 +6.49022087e-02 +1.73131734e-01 -1.64016843e-01 +6.83682263e-02 +1.75423726e-01 +1.27151817e-01 +4.37931955e-01 +2.84263670e-01 -9.00532901e-01 +2.31478393e-01 +2.11121306e-01 -3.64219368e-01 +2.82481104e-01 +3.04190665e-01 -2.82378793e-01 -2.69135773e-01 +4.52558339e-01 -1.62130713e-01 +1.44104436e-01 -7.56326839e-02 +3.90796214e-02 -4.81188297e-01 -1.90718412e-01 -1.59928072e-02 -7.66003579e-02 -1.62983581e-01 -3.16851996e-02 -8.87875080e-01 -2.33215228e-01 -8.56960639e-02 +1.67466968e-01 +4.19373587e-02 -1.77351251e-01 -4.36251909e-01 +1.35664949e-02 +5.37760377e-01 +1.79954961e-01 +1.98974609e-01 -1.57249108e-01 +3.85897607e-01 -3.53610277e-01 +3.22624445e-02 +2.78416346e-03 -1.40401423e-01 -4.98109423e-02 -3.41990665e-02 -4.18698676e-02 -4.68937486e-01 -1.19214818e-01 -1.29222274e+00 -4.45263013e-02 +2.89602667e-01 -2.01105535e-01 -2.92151809e-01 +3.74579072e-01 -3.58963534e-02 -2.94476569e-01 +9.23695043e-02 -3.63319874e-01 -2.92071015e-01 +3.64713520e-01 -1.89063728e-01 -5.92670202e-01 +5.72023630e-01 +5.57845719e-02 -1.04300730e-01 +1.07469801e-02 +6.85541213e-01 -2.03499705e-01 +3.02631527e-01 -2.15376213e-01 +4.90002036e-02 -3.39029849e-01 -7.25383684e-02 -6.15417242e-01 +2.70467728e-01 +3.46762002e-01 +1.25638127e-01 -4.15832512e-02 +1.61586285e-01 -2.46473998e-02 -1.17260516e-01 +1.11096621e-01 +3.60081881e-01 +4.12848860e-01 +2.42471695e-01 +4.92224455e-01 -1.35925174e-01 +3.54407728e-01 +4.23002273e-01 -4.45964485e-01 +1.28644126e-04 -2.66057462e-01 -3.82295221e-01 +2.64637351e-01 -2.18239322e-01 -4.53683823e-01 -4.98215184e-02 +5.76803744e-01 -2.81302273e-01 -2.86401123e-01 +5.72062433e-02 -5.75710721e-02 -1.09702479e-02 +1.30784154e-01 -4.33631465e-02 -6.98500350e-02 -4.26909983e-01 +1.43469915e-01 -1.35159984e-01 -6.18154645e-01 +2.73987740e-01 -1.74121693e-01 -9.77596864e-02 -3.79763961e-01 -4.02139366e-01 +1.84283003e-01 -1.55781522e-01 -6.81142926e-01 -4.27664042e-01 +2.57265478e-01 -3.11719328e-01 -1.86987827e-03 -4.73613769e-01 +5.87553903e-02 -1.27272576e-01 -1.63377315e-01 +9.84694287e-02 -1.27202481e-01 -2.69527316e-01 +3.09668779e-01 -1.98185250e-01 +3.27166378e-01 -1.28337368e-01 -2.71390289e-01 +5.26192665e-01 +9.49613810e-01 -4.99604121e-02 -2.65104286e-02 +3.03537734e-02 -1.78777993e-01 +3.13357741e-01 +5.39806962e-01 +2.91515768e-01 -1.53718233e-01 -4.55811143e-01 -1.95668414e-01 +1.64629221e-01 +2.53699988e-01 +4.84786332e-01 -6.08911335e-01 +2.37107262e-01 +2.37504870e-01 +1.47891238e-01 -1.08998254e-01 +5.41499138e-01 +3.22433800e-01 -4.09926206e-01 +9.54254568e-02 -1.59125663e-02 -8.93837437e-02 -6.07057754e-03 +1.30346671e-01 -8.77815858e-02 +1.71831369e-01 +4.40601915e-01 -3.36520314e-01 +3.78120281e-02 +1.93608135e-01 -2.70081282e-01 +5.38943589e-01 -1.33119658e-01 +2.95066088e-01 +2.66751707e-01 +4.74694325e-03 +1.03859298e-01 +3.03027749e-01 -4.87318546e-01 +4.01033074e-01 -1.13799632e-01 +2.60245353e-01 +3.10892105e-01 -3.22812647e-01 +1.07098788e-01 +1.32701039e+00 +6.09426081e-01 +3.34378093e-01 +2.22338632e-01 -3.86101454e-01 -3.69284928e-01 +7.39560276e-02 +3.76491249e-01 -2.96757162e-01 -1.01711325e-01 +4.24351513e-01 -2.86878765e-01 +3.80457073e-01 -5.29751837e-01 -5.73031366e-01 +1.37614891e-01 +2.72765696e-01 -6.08846024e-02 -2.50482082e-01 +3.30138534e-01 +2.02213794e-01 -9.40407097e-01 -6.69833481e-01 -1.73134953e-01 -4.15125221e-01 -6.44984901e-01 -1.36108115e-01 -4.37544882e-01 +1.40204430e-01 +2.90499032e-01 -2.66939193e-01 +2.25533858e-01 -5.49038351e-01 +2.20099106e-01 +1.38468727e-01 -1.14530109e-01 +5.87957382e-01 -1.56020492e-01 +5.28739691e-02 -1.61122501e-01 -2.79267550e-01 +7.27407575e-01 -4.85628039e-01 +5.60786203e-02 +6.29192889e-01 +3.52349937e-01 -1.44554889e+00 +1.01168692e+00 -3.82665277e-01 -1.18874824e+00 -1.39468417e-01 -6.02039278e-01 -2.89484650e-01 -8.03516507e-02 +4.93203461e-01 +7.01467872e-01 +4.05186445e-01 +4.78695601e-01 -8.80875766e-01 -1.00477293e-01 +8.91257286e-01 -4.31029797e-02 +4.54023480e-01 +2.10980907e-01 +8.79744351e-01 -3.86062823e-02 +9.42327023e-01 -1.98052764e-01 -6.82630956e-01 +2.87879109e-01 -9.76863727e-02 +9.09709409e-02 +7.99159408e-02 -2.31936406e-02 +2.98840225e-01 +1.38870895e-01 +3.56355667e-01 -6.09740131e-02 -3.51918668e-01 -3.80213797e-01 +5.80087185e-01 -2.63733059e-01 +3.52183171e-02 -3.73647600e-01 +3.78905743e-01 +1.54958040e-01 +7.81032220e-02 -3.11412606e-02 +6.49806187e-02 +2.34466866e-01 -5.48932791e-01 +2.85653740e-01 +5.03192425e-01 -1.26218155e-01 -2.68385470e-01 +6.26189411e-01 -7.99871802e-01 -1.13230385e-01 -9.93100345e-01 +8.41845721e-02 +8.35075974e-02 +1.25697497e-02 -7.25251138e-02 +3.50203812e-01 +2.44990394e-01 -3.49535525e-01 +1.26714721e-01 -5.28570473e-01 +1.02686845e-02 -4.19088125e-01 -7.88514972e-01 -9.70132053e-01 -6.13182664e-01 -7.98184931e-01 +1.73353538e-01 -1.72477409e-01 -4.61471498e-01 -7.03054145e-02 -1.54955000e-01 -4.18219268e-01 -1.05743699e-01 +3.57023001e-01 -7.15879425e-02 -7.46695995e-01 -1.24021992e-02 -5.74643277e-02 -3.47332180e-01 -5.51261604e-01 -2.80352049e-02 -2.90165007e-01 -1.33454472e-01 -3.79972965e-01 +2.43162662e-01 +3.63280565e-01 -3.60097528e-01 +1.11563399e-01 -2.21137747e-01 +1.60865501e-01 -9.42525268e-02 +1.57258168e-01 +1.71703771e-01 +5.10043323e-01 +1.07454553e-01 -5.83858751e-02 -2.08561629e-01 +2.69574642e-01 -7.19479611e-03 -6.62925169e-02 -1.71868373e-02 +1.23292334e-01 +4.87800241e-02 +3.12258720e-01 -5.79550087e-01 +2.78124303e-01 -1.37193874e-01 -7.22942734e-03 +1.29438624e-01 -3.93264115e-01 +1.17807351e-02 +6.75385818e-02 +2.63624668e-01 +2.56172806e-01 +5.42816659e-03 -2.51025587e-01 +1.82251170e-01 +3.23757291e-01 -1.12949638e-02 +8.67866427e-02 -2.37943575e-01 -1.08780369e-01 +4.97914374e-01 -9.84307408e-01 +1.14963971e-01 -1.01627991e-01 -2.63081670e-01 -4.74617451e-01 -3.19058806e-01 -5.95518708e-01 +2.15156153e-01 -6.44583941e-01 -1.75210193e-01 +1.00991949e-01 -1.68926835e-01 +2.21476275e-02 -4.02586013e-01 +4.72406626e-01 -1.06200433e+00 +4.42741722e-01 +2.17635036e-01 +2.30976999e-01 -3.93220007e-01 +1.57745004e-01 +1.83685143e-02 -1.00655067e+00 +2.29955494e-01 -1.08026400e-01 -3.62802863e-01 +5.41155100e-01 +8.02834108e-02 +1.25680625e-01 -2.35499009e-01 -8.72566327e-02 +1.42367959e-01 +4.52040732e-01 -2.01277956e-01 +2.06310421e-01 -9.40426588e-01 -5.16077995e-01 +1.07685792e+00 +9.33213413e-01 +1.70134604e-01 +3.68902944e-02 -6.31488681e-01 +2.28654057e-01 +9.30498362e-01 -1.91116735e-01 -6.76298261e-01 -8.18621144e-02 -1.44503042e-01 -2.99402466e-03 +3.61906558e-01 +6.52429044e-01 -1.40988171e-01 -2.80850440e-01 +1.48435622e-01 -3.06198508e-01 +3.64231095e-02 +4.33501989e-01 -2.40029290e-01 +1.12197243e-01 -6.07032105e-02 +3.28533083e-01 -3.75603288e-01 -4.30677682e-01 -2.34962076e-01 +8.08656365e-02 +1.20238595e-01 -5.44463880e-02 -5.64399660e-01 +1.09420707e-02 -8.94487426e-02 -3.36615324e-01 -3.71939301e-01 -5.15984893e-02 -1.25915110e-01 -3.72822434e-01 -3.07196379e-01 +1.13202976e-02 -1.82807706e-02 +5.53042769e-01 -9.72667560e-02 -1.32297590e-01 -5.34782648e-01 -1.99488357e-01 +9.62015763e-02 -4.60179478e-01 +4.98074532e-01 -7.04259217e-01 -1.29468083e-01 -2.73556083e-01 -6.70685530e-01 +1.88515224e-02 +3.79573137e-01 +1.40885323e-01 +3.92768756e-02 -2.44178921e-01 -8.03711265e-02 +4.69898850e-01 +1.88167989e-01 -3.09999455e-02 -1.29876658e-01 +4.79234725e-01 +8.22516739e-01 +4.38732803e-01 +1.97749078e-01 +1.62103906e-01 +3.26471597e-01 +2.90604204e-01 +1.26767829e-01 +4.58963037e-01 +7.26012215e-02 +2.15598390e-01 +2.83975899e-01 +1.02078542e-01 +2.23162666e-01 +5.62214218e-02 +4.56266224e-01 +7.30889499e-01 -1.82197750e-01 +5.49275696e-01 +8.28175992e-02 +3.62351894e-01 -2.57398814e-01 +4.56487834e-01 +5.15176058e-01 +6.23677857e-02 +3.84207159e-01 -7.80300200e-01 -5.68019688e-01 +3.23374510e-01 +4.28354517e-02 +4.33128439e-02 +3.38767350e-01 -1.42037898e-01 +3.69289517e-01 -7.58287668e-01 -8.02740395e-01 -7.70372033e-01 +4.50904101e-01 -5.56617260e-01 -2.61311442e-01 -2.36312851e-01 -7.94668794e-02 -4.99543965e-01 -2.69785523e-01 +1.03663005e-01 -1.41649693e-01 -4.40306425e-01 -8.26568976e-02 -1.00208330e+00 +4.17489439e-01 -5.53128719e-01 -9.70975339e-01 +1.85652480e-01 -1.84447058e-02 -4.77675080e-01 -2.88543642e-01 +9.10290420e-01 +5.22444725e-01 -1.86654717e-01 +2.80077755e-03 -3.39705169e-01 +4.17589843e-02 +5.04028141e-01 -1.75935254e-01 +1.23085797e-01 +7.63563573e-01 +1.49860784e-01 +6.56807870e-02 +1.29016526e-02 +2.22198993e-01 +5.02232194e-01 +1.91891000e-01 +2.71791499e-02 +2.02264488e-01 +6.15059361e-02 +7.07560539e-01 -1.46435220e-02 -4.24849004e-01 +3.32473427e-01 -5.22828586e-02 -1.51055589e-01 -2.93407589e-01 +4.47119862e-01 +2.29177222e-01 +3.95308793e-01 +8.20633993e-02 -1.79777473e-01 -6.81888580e-01 +3.87967944e-01 +2.48240288e-02 -3.70806038e-01 -7.44611099e-02 -1.08871773e-01 -1.44078568e-01 +6.15675971e-02 +1.69887260e-01 +1.06030516e-01 -3.27950150e-01 -2.38465536e-02 +7.04249024e-01 -1.34145722e-01 -1.26873344e-01 -1.92028582e-01 +1.29302517e-01 -1.08328447e-01 -3.68030131e-01 +2.32471582e-02 -2.82202959e-01 -3.57545704e-01 -2.23489091e-01 -1.15428679e-01 +4.24980938e-01 +4.39428955e-01 -4.51973140e-01 -7.07896799e-02 +5.71537092e-02 -5.06762922e-01 +2.52893329e-01 -4.21934389e-02 -6.97708905e-01 -8.47979784e-02 -1.95157707e-01 +2.87608095e-02 -1.81902602e-01 +8.97583216e-02 -2.55241215e-01 +1.80235922e-01 +4.11299355e-02 -7.24406838e-02 -3.76724184e-01 +8.98334086e-02 -7.32227117e-02 +2.41260886e-01 +6.62914366e-02 +1.60571232e-01 -1.07212096e-01 +4.80016053e-01 -2.79675156e-01 -4.21420932e-01 +9.35991853e-02 +3.22134763e-01 +5.31435251e-01 +3.02636951e-01 +5.77089787e-01 +5.73330857e-02 -1.68540761e-01 +3.67443234e-01 -3.84587854e-01 -7.19905555e-01 -1.55675963e-01 -1.01508491e-01 +4.06867564e-02 -4.33845297e-02 -2.58282125e-01 -3.62914860e-01 +1.79432943e-01 -1.19328365e-01 -3.98298472e-01 -4.93552536e-01 +1.10409148e-01 -1.91201761e-01 +5.48686124e-02 +4.02143389e-01 +1.47767976e-01 -4.70102847e-01 -2.18152002e-01 -1.04761794e-01 -1.70702100e-01 +4.91669595e-01 -1.57969311e-01 +2.40949273e-01 -3.66961330e-01 -3.70125324e-01 -2.25893468e-01 +2.80636281e-01 -4.96914387e-01 -6.00089967e-01 +1.45820037e-01 -4.96983379e-01 +1.74596548e-01 -4.99085039e-01 +1.63568184e-02 -1.75839767e-01 +5.20109348e-02 -9.42419052e-01 -6.63605213e-01 -1.18364900e-01 -1.03664488e-01 -9.04295221e-02 -1.00301124e-01 +1.62387371e-01 -1.23299092e-01 +1.81280717e-01 +3.47777426e-01 +3.32065135e-01 +2.23067671e-01 +2.79637069e-01 +8.19195285e-02 +7.44496286e-02 -3.24196279e-01 -7.79455900e-02 +2.55439520e-01 -1.82236090e-01 +3.54652673e-01 +2.82978952e-01 +6.95020845e-03 -3.45463663e-01 -1.83231160e-01 +2.01723427e-01 +4.90952939e-01 +2.16577649e-01 +5.14537573e-01 +4.16568726e-01 +7.45548727e-03 -1.17182001e-01 -3.35740983e-01 +2.32052073e-01 -1.93328932e-01 -1.47281471e-03 +8.14208984e-02 -8.28152150e-02 +5.86603098e-02 -3.72718394e-01 +1.55973524e-01 +2.14175239e-01 -2.16450617e-01 -6.78677201e-01 -3.77350658e-01 +8.17887709e-02 +3.37555707e-02 +8.70740786e-02 -5.85389018e-01 +1.23468779e-01 +2.20732257e-01 +1.50527731e-01 -6.79981530e-01 +1.17252031e-02 +4.34620902e-02 +5.22266150e-01 -4.27947193e-01 -3.22919011e-01 -1.90700501e-01 +1.60963893e-01 -5.47352672e-01 +1.96287498e-01 -2.75578588e-01 +6.88132197e-02 +6.63661063e-01 -4.99392254e-03 -1.66446641e-01 +2.77462453e-01 +1.50306597e-01 +2.98629969e-01 +8.53540748e-02 -1.55207917e-01 +3.67164254e-01 +2.26834998e-01 +2.12153718e-01 +1.48487851e-01 -6.03142474e-03 +1.93642095e-01 +6.96817935e-02 -3.69577378e-01 +7.82282725e-02 -8.82549435e-02 +7.08777845e-01 -2.15256691e-01 -3.33277851e-01 -2.80590057e-01 +7.73556456e-02 +2.14021534e-01 +6.62069693e-02 +1.08288251e-01 +4.04305570e-02 -2.19028182e-02 -5.61955385e-02 +2.71598220e-01 +4.66638803e-01 +6.31665707e-01 +3.39966744e-01 +3.63548338e-01 +2.90617645e-01 +3.54065865e-01 +4.94207084e-01 +1.33490729e+00 -1.05117604e-01 +2.33912781e-01 +2.12929234e-01 +5.85852981e-01 -6.03539288e-01 +1.59295183e-02 +5.64314187e-01 -5.17510772e-01 -1.50693595e-01 +5.17882228e-01 -3.13578174e-02 +5.43296337e-01 +4.99854714e-01 +1.37146860e-01 -8.05849489e-03 -1.52544200e-01 +5.58076084e-01 +1.97074577e-01 +1.09323047e-01 +1.05027473e+00 +5.29738426e-01 +2.63093829e-01 -4.43075672e-02 +3.13715227e-02 -2.86255211e-01 +1.07324146e-01 -9.42049846e-02 +4.07849044e-01 -2.04304829e-01 -1.84410498e-01 +2.62285173e-01 -5.94430029e-01 -2.57855952e-01 -9.33717489e-02 -1.88634604e-01 +1.76192939e-01 -3.54936063e-01 -1.42706251e-02 -3.91424537e-01 -1.82694674e-01 -3.09495866e-01 +2.05743417e-01 +1.36276335e-01 +4.86864895e-01 +2.07359508e-01 +1.34577066e-01 +5.51019669e-01 -3.17310542e-01 +1.87577099e-01 -3.96071762e-01 +7.36283138e-04 -2.99531460e-01 +2.30692238e-01 +4.89770100e-02 -3.55759114e-02 -2.85193548e-02 -5.04106700e-01 -1.43591449e-01 -1.44080937e-01 +4.31838334e-02 +1.46960720e-01 +3.05289149e-01 +4.47909236e-01 +5.01787782e-01 +1.14925548e-01 -1.80906028e-01 +7.56826818e-01 +6.69286251e-01 +3.99293691e-01 +5.25658667e-01 +9.37233642e-02 +8.08437392e-02 +5.62721729e-01 +3.95031422e-02 +6.46516383e-02 +3.39903772e-01 +1.35869242e-03 +2.94752598e-01 -2.67395020e-01 +5.54160774e-01 +2.17754822e-02 +6.31932139e-01 +4.54042733e-01 +3.01658541e-01 -1.51827276e-01 -3.41782361e-01 +1.36272563e-02 -9.40591618e-02 -1.54192999e-01 -3.01210620e-02 -1.89366072e-01 -1.87135696e-01 +1.78626567e-01 -2.97858100e-02 +3.04422695e-02 -1.36845320e-01 +1.06030155e-03 -3.17382485e-01 +5.64257503e-01 +5.19717097e-01 -3.42887610e-01 -4.39277068e-02 -2.59312928e-01 -3.20962109e-02 +1.20503515e-01 +1.60523474e-01 -4.69645351e-01 +4.22579527e-01 +3.16013470e-02 +8.30876827e-02 -1.30689219e-01 +9.61685598e-01 +1.44418493e-01 -1.88646868e-01 -4.56978351e-01 +2.98684508e-01 -2.98835963e-01 +1.14717744e-02 -1.27805814e-01 -1.49710596e-01 -1.28345773e-01 -1.15661480e-01 +4.06943634e-03 -3.69915873e-01 +9.86471698e-02 +4.80806567e-02 +3.74772996e-02 +3.45310181e-01 -1.25530079e-01 -1.10544652e-01 -4.25604045e-01 -8.72719958e-02 +4.26068127e-01 -1.43544907e-02 -6.42599404e-01 -1.61571443e-01 +4.42660570e-01 -3.00751567e-01 +1.90943241e-01 -1.21693477e-01 +1.89270020e-01 -4.90634590e-01 +3.43993992e-01 +2.56376237e-01 -2.29864866e-02 -9.42097083e-02 +5.56277751e-04 -2.58559793e-01 +1.34708360e-01 +1.83165386e-01 -2.12163553e-01 +1.55970857e-01 +1.75266892e-01 +8.22203830e-02 +3.37786496e-01 -1.71202794e-01 +5.53992689e-02 +9.31112096e-02 +3.16259235e-01 +1.53279185e-01 -1.64186969e-01 +9.31598693e-02 +1.34352431e-01 +2.18253046e-01 -3.08144987e-01 -2.08632424e-01 +1.73678935e-01 +1.56453252e-01 -4.73777726e-02 -5.49025740e-03 -1.04011202e+00 +2.39534155e-01 +1.62920982e-01 -4.91612494e-01 -2.11626470e-01 +3.99218112e-01 +1.15733139e-01 -1.84241310e-01 -6.59035891e-02 -4.89946492e-02 +2.46793687e-01 +4.65045907e-02 -4.12947744e-01 -5.52711964e-01 +9.46855694e-02 -2.47130111e-01 -2.73826003e-01 -1.09659970e-01 +1.64685652e-01 +2.70170987e-01 +4.82869685e-01 +8.74199644e-02 -5.30561566e-01 +5.01111865e-01 +4.20387715e-01 +1.20835073e-01 -3.90133590e-01 +8.32110047e-02 +3.80540133e-01 -1.28263935e-01 +3.75288844e-01 +1.99541673e-01 +1.93568036e-01 +4.46068123e-03 -1.28205463e-01 -1.11269012e-01 +1.39006346e-01 -2.60877699e-01 +2.06662878e-01 +7.69623742e-02 -1.67945493e-02 -1.67727321e-01 +6.05486333e-01 +1.02599204e-01 -3.89887273e-01 -8.57099220e-02 -8.12546313e-02 -3.46276574e-02 +8.76399279e-02 +3.27563465e-01 +1.38322776e-02 +3.03679287e-01 +2.43176416e-01 +3.64451297e-02 +5.00051141e-01 -2.48470269e-02 -1.72600284e-01 +1.54106552e-03 +7.71802485e-01 +5.98622374e-02 +4.06802714e-01 +3.21656555e-01 -6.88014925e-02 -8.21309313e-02 -2.85702020e-01 +1.62676468e-01 +4.04563732e-02 +3.30709606e-01 +5.86803854e-01 +4.64221649e-02 +1.22119710e-01 +1.04044676e+00 +3.75464946e-01 +1.66604981e-01 -4.04174864e-01 -2.13385850e-01 -3.32190067e-01 -2.56089319e-04 +4.79973644e-01 -7.01395497e-02 -1.83115546e-02 -1.71148613e-01 -3.46053094e-01 +1.61586627e-01 +4.11292583e-01 +8.70985389e-01 +7.95780718e-01 +3.56449366e-01 +3.96468341e-02 +2.34570697e-01 +5.08556426e-01 -7.36553729e-01 +7.79346347e-01 -5.35902321e-01 -1.74170688e-01 +7.53811359e-01 +2.33212307e-01 +1.52673090e+00 +4.33859169e-01 +2.42299944e-01 +1.08200364e-01 +2.46980846e-01 +3.02540362e-01 +1.04842544e+00 +5.56843579e-01 -1.61436319e-01 +3.85730952e-01 +2.17257112e-01 -2.06878841e-01 +1.31454960e-01 -2.47122914e-01 -6.88866794e-01 +1.20871589e-01 +4.96887386e-01 +2.07291394e-01 -2.51625568e-01 +5.83550692e-01 -2.32544824e-01 +8.82396251e-02 -5.50737679e-02 +6.53640032e-02 +3.17672312e-01 -7.98184752e-01 -4.63741183e-01 +3.85595560e-01 +8.95215478e-03 -1.49655879e-01 +9.46940854e-02 +3.14337045e-01 +8.14804316e-01 -2.72870865e-02 -1.98717058e-01 +5.84773064e-01 +5.96407950e-02 +5.13940603e-02 -3.79962206e-01 -2.25160569e-01 +1.16919592e-01 -7.51863122e-01 +1.91211909e-01 -4.49486636e-02 -3.32512796e-01 -6.01537168e-01 -5.28202832e-01 -9.72312875e-03 +4.92779166e-02 -3.93297404e-01 +3.12228650e-01 -2.22129658e-01 +5.60118020e-01 +2.44083285e-01 +2.63046980e-01 -2.85604559e-02 +8.27915370e-01 -1.47803994e-02 +5.63812554e-01 -1.03102826e-01 -3.46481413e-01 +3.20763648e-01 +3.04502338e-01 +5.08377142e-02 -7.68752098e-02 +1.02662332e-01 -6.41702563e-02 -7.38519847e-01 +3.39414418e-01 +4.68194298e-02 +4.79276739e-02 -5.87116890e-02 +7.03790188e-01 -1.72699615e-01 -2.22344995e-01 +2.15630218e-01 -8.03911909e-02 +3.22085887e-01 -4.92026582e-02 +5.03018141e-01 -1.37156531e-01 +8.75669569e-02 +1.24332771e-01 +2.64827907e-01 -1.52393222e-01 +2.15500847e-01 +2.64248867e-02 -4.97058719e-01 +3.64796557e-02 -2.43354946e-01 +1.84503719e-01 +3.41572762e-01 -2.21344024e-01 +3.44971538e-01 -2.69349247e-01 -1.41765684e-01 -4.17729586e-01 +5.36961574e-03 +8.13113619e-03 -5.10029972e-01 -2.02268109e-01 +3.38735580e-01 -4.53810275e-01 -8.07307735e-02 +1.07447624e-01 -3.68430883e-01 -1.33345425e-01 +2.60128766e-01 -1.29367769e-01 -5.03689349e-01 -2.63399124e-01 -2.91239232e-01 -2.35302597e-01 -1.83068752e-01 +2.44606391e-01 -7.51295090e-01 +3.19074780e-01 -5.38066588e-02 -2.34961256e-01 -1.73755383e+00 -4.00117099e-01 +5.85246861e-01 -2.42004037e-01 +3.71697783e-01 -4.18473899e-01 +7.68086240e-02 -2.55492389e-01 +8.77163768e-01 -2.67212063e-01 +1.78399369e-01 -1.67339429e-01 -7.34332800e-01 +1.18003346e-01 -7.82239735e-02 -1.92058951e-01 -9.21569671e-03 -5.12639200e-03 +1.02078986e+00 +5.06196797e-01 +4.68868792e-01 +1.62823975e-01 -2.44361665e-02 -4.89935219e-01 +1.81791067e-01 +2.01334693e-02 -3.70383747e-02 -3.54964972e-01 +4.65555966e-01 +1.36353552e-01 +7.26228431e-02 -3.28419954e-01 +4.37891662e-01 +2.17299432e-01 +2.12789327e-01 -2.67729223e-01 +5.47928452e-01 +4.81684685e-01 +9.80912000e-02 -3.35124314e-01 +3.46917063e-02 -3.33613068e-01 +8.76420271e-03 +2.42405713e-01 +3.42344999e-01 +1.91109002e-01 +1.10887907e-01 +3.71381462e-01 -3.21869165e-01 +5.29553652e-01 -3.10970932e-01 +3.24169993e-02 -5.72527289e-01 +5.25389127e-02 +2.35320497e-02 -1.85515344e-01 +1.47681534e-01 -2.13313654e-01 +4.95103113e-02 -2.04061851e-01 -1.53458595e-01 -5.76153517e-01 +2.95231551e-01 +2.45174110e-01 +5.70347428e-01 -1.51229966e-02 -6.93219006e-01 +4.61137593e-01 -5.71723543e-02 -2.35181883e-01 -1.15608856e-01 -1.63135126e-01 +1.93957821e-01 -5.48737705e-01 +1.70793116e-01 +2.83840925e-01 +1.80720761e-01 +1.66951641e-01 -2.77684540e-01 -3.61930490e-01 +7.42527237e-03 -4.33126539e-01 -2.40511373e-01 +9.41420794e-02 -3.53450894e-01 -7.49206543e-02 +4.08968806e-01 +4.65036929e-01 +5.98524392e-01 +1.41397342e-01 +2.55059361e-01 +2.40052596e-01 +2.10843563e-01 -6.75733909e-02 +9.92796272e-02 -1.85813248e-01 -2.12392975e-02 -4.49553937e-01 +4.97714609e-01 +1.38075249e-02 -8.82933103e-03 +6.17672801e-01 -2.06148908e-01 +2.10732311e-01 +4.67425168e-01 -2.80981183e-01 +1.17933653e-01 +9.97948572e-02 -4.06466216e-01 -2.03005120e-01 -7.52893016e-02 +1.51075259e-01 +9.87477124e-01 -6.71680421e-02 +1.74020424e-01 -3.09542745e-01 -7.35364035e-02 -7.47447848e-01 +1.05464682e-01 +7.23101735e-01 -2.99408510e-02 -6.96030408e-02 +1.23455770e-01 -6.42067671e-01 +5.42381525e-01 +3.04294497e-01 +3.53393346e-01 -3.04137826e-01 +3.95000607e-01 -2.95805335e-01 +4.15943384e-01 +5.13903126e-02 +2.96762794e-01 -2.62496978e-01 +2.29698315e-01 +6.95292115e-01 +9.12750065e-02 +4.37792361e-01 +3.32542449e-01 -2.42064502e-02 -1.13054201e-01 +1.42196453e+00 -1.87816277e-01 +1.20777920e-01 +1.22017704e-01 -3.15554291e-01 -6.96255565e-01 +1.63206160e-01 -3.31929028e-01 +7.80206025e-02 -5.46075284e-01 +9.13211346e-01 -4.31018800e-01 +9.70323980e-01 -2.81065762e-01 -3.76414716e-01 -1.99856386e-01 +8.71097371e-02 +1.37795627e-01 +1.23641998e-01 +3.51609409e-01 -1.14995670e-02 -1.32479891e-02 -4.22639549e-01 -1.75946541e-02 -1.18393689e-01 +4.18710142e-01 -3.80025618e-02 +1.04288861e-01 -2.94207841e-01 -1.91010088e-02 -2.40370557e-01 +1.77547753e-01 -3.28569412e-02 -2.04196144e-02 -2.94659793e-01 -2.19826445e-01 +6.15198351e-03 +4.48273346e-02 +4.21349593e-02 +3.05111319e-01 -1.44314989e-02 +2.30268344e-01 -1.05722062e-01 +2.36161605e-01 -1.34850189e-01 +2.60486931e-01 -5.87749146e-02 -4.40099537e-01 +3.02615643e-01 -1.31724685e-01 -1.41148776e-01 +1.59886733e-01 -4.51104909e-01 +2.04505041e-01 +1.63277790e-01 +6.26481920e-02 -3.39678079e-01 +1.22285858e-01 -1.91134676e-01 -2.27875233e-01 -2.63093144e-01 -2.98970580e-01 +1.82986572e-01 +7.96902478e-02 +4.99171428e-02 -3.96318696e-02 +8.43708664e-02 +4.49334681e-01 +2.70351261e-01 +2.68146724e-01 -2.11886004e-01 -1.03897743e-01 -3.80605876e-01 +1.16819076e-01 +9.90111828e-02 -3.74568909e-01 +5.23101389e-02 -5.18667758e-01 -1.07411779e-01 -1.18218720e-01 +8.07964150e-03 -2.06222087e-01 +2.96774596e-01 -7.99681805e-03 -3.96680422e-02 -1.88049391e-01 +1.20505825e-01 -5.06440461e-01 +7.69927949e-02 -4.39432561e-01 -1.66455373e-01 -3.44865829e-01 -1.19607806e-01 -1.93954080e-01 +1.05616465e-01 +3.77590597e-01 +1.69039860e-01 +4.21494067e-01 -5.52951843e-02 -2.29257092e-01 +1.78592261e-02 +1.68555349e-01 -9.36843976e-02 +2.86545455e-01 -1.18025906e-01 +1.51194125e-01 +1.36324048e-01 -1.51643366e-01 +5.31976148e-02 -1.41739205e-01 -1.57298967e-01 -8.50538015e-01 -9.31558669e-01 -3.31855744e-01 +3.41347530e-02 -3.66635054e-01 -7.78291464e-01 +4.86129165e-01 +6.58792853e-01 -2.26613041e-02 -2.77761728e-01 +3.26464653e-01 -8.75473738e-01 -2.18969747e-01 -1.05360281e+00 -4.45775807e-01 +6.30345568e-02 -9.62285995e-02 +1.65473893e-01 -1.26949131e+00 -6.18853450e-01 +4.05454822e-02 +1.24290526e-01 -6.14365935e-01 -2.05969617e-01 +7.32138529e-02 -1.71673581e-01 +2.59956531e-02 +3.94628912e-01 -8.31986815e-02 -5.21843016e-01 -9.78751406e-02 -2.89195627e-01 +3.52243781e-02 +9.11174119e-02 -1.45219592e-02 +3.63661259e-01 -2.17219383e-01 