#Parameter# /vanilla-lstm-builder/_0 {128,64} 131073 ZERO_GRAD
-3.60624850e-01 -2.11020589e-01 -2.48657957e-01 +2.24089831e-01 -5.94400465e-02 -1.40599996e-01 +2.63843358e-01 -6.75770417e-02 -7.71924034e-02 -3.20635080e-01 -8.02068189e-02 -3.95007670e-01 -4.37548339e-01 -1.59426630e-01 -6.00424409e-01 -1.38356626e-01 -1.45466641e-01 -1.41096175e-01 +3.87830697e-02 -9.40844715e-02 -2.29546234e-01 +4.84136716e-02 -3.69683623e-01 -2.57214040e-01 -5.29351473e-01 -1.03705674e-01 -2.06501290e-01 -2.83849776e-01 -3.66299480e-01 +1.95856988e-01 -1.40141938e-02 -4.37966585e-02 -4.66321230e-01 +8.64547193e-02 +4.09024805e-01 -5.42139471e-01 +3.22717309e-01 -1.35198608e-01 +5.46041951e-02 -5.71809150e-03 -3.30984682e-01 +2.75111627e-02 +1.35924220e-01 +3.77223790e-02 +1.89932734e-01 -1.89933956e-01 -2.52708912e-01 -7.84347802e-02 +3.19405310e-02 -3.05393100e-01 +2.93353945e-01 +3.23338598e-01 -4.21735108e-01 +1.64042369e-01 -1.71029702e-01 -4.02462542e-01 -2.41779059e-01 -2.04487089e-02 -2.74332345e-01 +2.26461351e-01 -2.64468491e-01 +3.24804932e-02 -2.94984698e-01 -2.42011964e-01 -3.19411218e-01 -4.27088797e-01 -1.02964766e-01 -2.23935902e-01 +3.09872385e-02 +2.39487514e-01 +2.52877288e-02 -1.64085567e-01 -3.69191431e-02 +5.05864955e-02 -9.38174278e-02 +3.79779264e-02 -1.42379671e-01 +2.01299880e-02 -3.31545562e-01 -3.66269559e-01 +1.56971991e-01 +3.81059460e-02 +3.29796582e-01 +1.85587600e-01 -3.53300333e-01 -3.47853661e-01 +1.33542344e-01 +6.99984655e-02 -3.17234691e-04 +1.01932935e-01 -1.76875234e-01 +1.67141080e-01 +2.34483078e-01 -1.67894542e-01 -2.63840169e-01 +8.36506337e-02 +1.38413116e-01 +4.20302123e-01 -4.51803207e-02 +1.00462720e-01 +3.67869250e-02 +2.04636440e-01 +2.54859999e-02 -9.81063545e-02 +9.96412411e-02 +5.54282367e-01 +1.75329223e-01 +7.64762759e-02 +9.65790600e-02 -1.61452472e-01 -3.57648730e-02 +1.77222610e-01 -1.66183084e-01 -1.44187063e-01 +2.03877941e-01 +1.38317630e-01 +1.34374514e-01 +1.89768858e-02 +2.40333661e-01 +2.87029564e-01 -7.81960636e-02 -3.67602557e-02 -2.97216009e-02 +9.94956493e-02 -3.25098187e-01 -1.33684769e-01 -1.44413292e-01 +3.45617980e-01 -3.39950949e-01 +1.39440817e-03 +3.61896604e-02 -1.50787786e-01 +1.31789759e-01 -2.92865098e-01 +3.69706154e-02 +1.93306476e-01 -5.98446727e-02 -2.08164424e-01 -6.23565726e-03 -4.60910887e-01 -4.65737320e-02 -1.22249955e-02 -5.08254409e-01 -7.39287734e-02 -2.98580527e-01 +1.15479276e-01 +1.83252528e-01 -2.82508790e-01 -1.06384397e-01 -8.71471316e-02 -2.94601381e-01 -1.99630424e-01 -2.09331095e-01 +2.58065686e-02 -8.66739899e-02 -1.39907897e-01 -3.27480465e-01 +2.65298095e-02 -2.28208266e-02 +1.86697394e-01 -1.39456555e-01 -1.40389418e-02 +6.53359413e-01 -5.73589623e-01 -3.48119847e-02 -2.25442961e-01 -2.44524069e-02 -2.25456860e-02 -4.17828172e-01 +8.11676756e-02 +9.10761952e-02 +9.22540128e-02 +7.53419548e-02 -3.68581802e-01 -3.69988024e-01 +1.11329824e-01 -2.87159756e-02 -1.24501027e-01 +8.47232565e-02 +2.58735746e-01 -2.64399290e-01 +3.32868814e-01 -1.43452972e-01 -5.13875186e-01 -5.11287272e-01 +1.48050293e-01 -9.19915363e-02 +1.51291728e-01 -2.40497798e-01 +7.64062405e-02 -1.94295034e-01 +1.89909160e-01 -3.01058501e-01 -6.36058524e-02 -9.70604941e-02 -3.46279889e-01 -2.58163303e-01 +8.58125910e-02 +7.38753304e-02 -9.41962842e-03 -2.74219993e-03 -1.72772959e-01 +1.74183846e-01 +6.80651441e-02 +9.43421051e-02 +4.99039814e-02 -4.08525229e-01 -8.71846080e-02 +2.67246068e-01 +1.25813782e-01 +4.58728522e-01 +8.82682726e-02 -2.30974272e-01 -8.62571225e-02 +3.47248703e-01 +2.07206070e-01 -1.07278422e-01 +2.27786690e-01 -1.83486670e-01 +1.91915080e-01 +2.51622468e-01 -1.19319029e-01 +4.64734808e-03 +3.42706889e-01 +9.60463881e-02 +1.33045390e-01 -1.05661631e-01 -1.21713944e-01 -2.09678426e-01 +2.58973330e-01 +1.19508237e-01 +1.59751009e-02 +6.05624691e-02 +5.22916615e-01 +1.95543453e-01 -2.26380546e-02 -1.55241176e-01 -1.83604777e-01 +9.21919048e-02 +1.83391750e-01 -5.77074401e-02 -6.69888780e-02 +3.06138933e-01 -1.45080229e-02 -7.99727887e-02 +3.36135663e-02 -1.47261143e-01 +1.37929525e-02 +7.17894360e-02 +1.43247709e-01 +2.26064801e-01 +2.19096802e-02 +4.03729342e-02 +1.07035287e-01 -3.26623544e-02 +1.38604611e-01 -2.29258031e-01 +1.41487584e-01 +2.48704076e-01 -3.33400220e-01 +1.27044857e-01 -4.44551587e-01 -4.23994720e-01 +1.69381082e-01 -1.40392825e-01 -4.91538376e-01 +2.35152632e-01 -5.24731994e-01 -4.73845810e-01 +1.35798380e-01 -5.38963452e-02 +1.01844519e-02 -4.61665362e-01 +1.17273048e-01 +1.37333259e-01 -2.80494601e-01 +3.20019990e-01 -3.85820597e-01 +1.46018788e-01 +1.01261146e-01 +1.40028059e-01 +2.23387435e-01 +2.99769230e-02 +1.51017576e-01 +3.00955832e-01 -1.61396906e-01 -5.25161982e-01 +1.77867792e-03 -4.50091243e-01 -3.10268968e-01 +3.22601676e-01 -1.62059754e-01 -1.61077231e-01 -1.68258280e-01 +8.68779123e-02 -7.19833896e-02 -7.24416077e-01 -6.69869557e-02 -8.14834759e-02 +2.09332019e-01 +1.63146645e-01 -1.34471273e+00 -4.58848298e-01 -2.24744827e-02 -1.31554574e-01 -3.81411463e-01 -3.89484644e-01 +1.25537172e-01 -4.77896094e-01 +2.85930812e-01 +3.15793604e-01 -7.26166070e-01 -1.75866082e-01 +3.00028384e-01 -5.24280727e-01 +1.95629954e-01 +4.24484350e-02 +2.36033022e-01 +3.74242626e-02 +1.00689158e-02 -2.14641634e-02 +1.17117956e-01 +5.21051228e-01 -6.25025272e-01 -3.37117761e-01 +2.34729171e-01 -1.47327274e-01 +4.73184586e-01 -2.98417564e-02 +8.26810077e-02 +3.01308036e-01 +1.21459126e-01 +2.67400622e-01 -4.41360980e-01 -1.19181938e-01 -1.45859960e-02 +4.10812348e-01 -1.11890465e-01 +2.08321676e-01 -1.73798308e-01 +3.70613456e-01 +8.84745270e-02 +5.23991942e-01 -2.13731393e-01 +7.16540217e-01 +6.82295561e-01 -2.09234014e-01 +9.11384076e-02 +3.96826357e-01 -1.70246527e-01 +1.48452083e-02 -4.05283691e-03 +8.50552022e-02 -3.85612547e-02 -5.68622500e-02 +6.98905066e-02 +1.68939270e-02 +4.69059318e-01 -6.22518957e-02 -1.78567782e-01 -2.40469147e-02 +2.67611593e-01 -1.34848021e-02 +3.94281894e-02 +4.34743583e-01 -2.17565745e-01 +5.96792437e-02 -2.42139250e-01 +2.72873133e-01 -4.36726868e-01 +1.78190663e-01 +1.89613745e-01 -1.53819755e-01 +2.77556390e-01 +1.50249541e-01 -1.60097908e-02 -2.16121897e-01 +1.22106344e-01 -4.01898380e-03 +1.51444048e-01 +1.47362515e-01 -2.00037807e-02 +1.97235923e-02 +3.18163425e-01 -4.15177613e-01 -5.77221692e-01 -5.96900523e-01 +2.88605154e-01 -2.45102897e-01 -6.24476135e-01 +1.61651403e-01 -2.91843474e-01 +1.61901250e-01 -2.59860843e-01 -4.69316125e-01 -4.34009582e-01 -4.09215301e-01 -2.11267680e-01 -3.35036755e-01 +2.32623503e-01 -4.71712530e-01 +1.98358178e-01 -4.17928576e-01 -2.17646688e-01 -5.01890182e-01 -2.24041775e-01 -8.05327713e-01 +2.78995097e-01 -1.97842553e-01 -2.25984007e-02 +4.36653465e-01 -3.99313062e-01 -2.77776212e-01 -3.58923674e-01 -5.12702644e-01 +4.19139266e-01 -1.71292841e-01 +3.13861340e-01 +1.48674250e-01 +1.40995860e-01 +3.30159694e-01 -1.08148515e-01 +1.00208968e-01 +1.02621773e-02 -2.11318910e-01 -1.42144606e-01 -1.80098131e-01 +6.60735607e-01 -3.38268615e-02 -5.97851500e-02 +7.24467859e-02 +2.42427453e-01 -3.37299556e-01 -1.25180542e-01 +3.91903846e-03 -2.34058708e-01 +1.31826878e-01 +2.14527622e-01 -1.21971935e-01 -2.22599536e-01 -8.37620124e-02 -2.72060603e-01 +4.89382893e-01 -5.04723310e-01 -2.76043683e-01 +5.07095397e-01 -3.07381190e-02 -3.97640228e-01 +3.38944435e-01 +2.90846854e-01 -2.91886568e-01 -3.92992228e-01 +1.37003794e-01 -1.20269462e-01 +2.77164608e-01 +2.71029860e-01 +2.25284666e-01 -2.02628314e-01 -1.12343326e-01 +1.02601431e-01 -2.15418026e-01 +2.58987784e-01 +1.13690495e-01 +2.95970976e-01 -2.60209680e-01 +7.81714544e-02 +4.18813735e-01 -4.17512029e-01 +3.96657974e-01 +3.84660900e-01 -3.10451031e-01 +2.91641559e-02 -2.83730496e-02 -3.42399590e-02 +3.79050374e-01 -2.70062447e-01 -2.11199105e-01 -7.90922716e-02 -4.14182916e-02 -7.88563043e-02 -1.35089174e-01 +3.43598932e-01 +1.44700497e-01 +2.16453344e-01 -5.57461977e-02 +2.93902576e-01 -6.11630455e-02 +7.94383138e-02 +2.10893095e-01 -9.56654549e-03 -2.36343145e-01 +4.28167582e-02 +1.44797146e-01 -1.52766639e-02 +2.63484240e-01 -2.94143021e-01 -2.58024603e-01 -1.48671567e-01 +3.19714278e-01 -2.67581612e-01 -1.97347537e-01 +1.61670282e-01 +6.02772772e-01 +6.90416470e-02 +1.47961840e-01 -1.29188195e-01 +8.27191100e-02 +2.38164246e-01 -2.95162052e-01 +2.66988486e-01 -5.64255193e-03 +2.29185328e-01 +2.74898827e-01 +1.33569211e-01 -7.65479878e-02 +3.16888869e-01 +3.54329795e-01 +5.40484488e-01 +1.24844372e-01 +1.99345365e-01 +3.61801744e-01 +3.06366444e-01 -1.28582850e-01 +3.75853658e-01 +1.97904527e-01 +4.74171788e-02 +1.45809010e-01 -1.64177660e-02 +2.20265210e-01 -1.32357283e-02 -3.36749032e-02 +2.56434143e-01 -2.21484862e-02 +3.09090931e-02 +3.77933592e-01 -8.33296478e-02 +3.41616780e-01 +1.10662475e-01 +7.42211286e-03 +2.35066041e-01 +5.10939300e-01 -1.46758109e-01 +5.24471760e-01 +9.29633155e-02 +2.86519349e-01 +2.72509038e-01 -2.33987093e-01 +4.96198535e-01 -2.20985189e-01 +1.43101811e-02 +3.58075052e-02 +2.05339685e-01 +2.03762338e-01 +3.30517501e-01 +1.40510872e-01 +6.52720779e-02 +1.41462222e-01 -4.54494394e-02 +4.90584448e-02 +7.00032385e-03 -1.11580223e-01 +6.33162796e-01 +2.67866135e-01 -2.08503574e-01 +3.05629462e-01 -2.06560895e-01 +3.62657040e-01 +3.76720488e-01 +1.70067370e-01 +4.41126674e-02 -4.01137769e-02 -1.28075212e-01 +3.76608074e-01 +1.86311737e-01 +2.13465303e-01 +5.07346869e-01 +1.86031982e-01 +2.17505753e-01 -2.70012580e-03 +6.04293525e-01 +2.29304001e-01 -5.79503216e-02 -2.88846314e-01 -8.94979537e-02 +6.11788556e-02 +1.04421936e-01 -5.46654940e-01 +1.57059297e-01 -6.15595356e-02 +2.92897552e-01 +6.55261397e-01 +2.63916880e-01 -6.23955071e-01 +2.35111460e-01 -3.19345817e-02 -9.76303965e-02 +2.83877730e-01 +1.13332152e-01 -3.16408843e-01 +3.40058506e-01 -3.92570168e-01 -6.01588748e-02 +4.74430859e-01 -4.00366157e-01 -1.13732554e-01 -1.36737093e-01 +8.55005160e-03 +3.61056387e-01 -1.53961718e-01 +2.74743270e-02 +3.10898334e-01 +2.49281272e-01 -2.49608710e-01 -5.62086590e-02 +4.35669944e-02 +3.44626337e-01 +1.28488243e-01 -3.77937734e-01 +9.98168588e-02 +1.16444290e-01 -1.31919071e-01 -3.06222349e-01 +6.87228441e-02 -2.22458899e-01 +2.20788971e-01 +3.59312743e-01 -8.78572762e-02 +4.87499982e-02 -2.95106858e-01 +1.63811490e-01 -2.20497549e-01 +2.32679211e-02 -1.40947193e-01 +3.34853917e-01 -1.78495035e-01 -3.18563543e-02 +2.71726251e-01 -1.71583802e-01 +1.35683164e-01 -7.26695716e-01 -2.09658116e-01 +3.05611104e-01 +1.91940442e-01 -4.16856617e-01 +1.61680013e-01 -3.47206928e-02 +1.38661629e-02 +2.44934797e-01 +4.30796087e-01 -4.16519679e-03 -1.06799759e-01 +4.22927253e-02 -4.92737532e-01 +1.91287234e-01 +2.00286627e-01 +1.45528480e-01 -5.41149199e-01 +2.37069026e-01 -3.36356491e-01 -2.52078742e-01 -4.31584775e-01 +7.42705539e-02 -1.40731081e-01 -2.91568954e-02 +4.61302906e-01 +1.99072495e-01 +1.00758485e-01 +1.77234620e-01 +1.91193148e-01 +9.19941589e-02 -3.19278657e-01 -2.30949059e-01 -1.59793049e-01 -1.82395037e-02 -1.67028502e-01 +2.26403996e-01 +7.08274782e-01 -7.72749037e-02 -2.72514164e-01 +4.31707829e-01 -4.07049209e-01 -2.36491218e-01 -4.80763540e-02 -5.56265116e-02 +1.93877816e-01 -7.27586746e-01 -1.52292952e-01 -2.11166814e-01 -1.68099612e-01 -1.28576648e-03 -5.12707531e-02 -2.85060585e-01 -5.88649362e-02 -3.17769736e-01 +2.77188160e-02 -5.08840561e-01 -2.69191206e-01 -6.81495368e-02 -2.53250241e-01 -1.19987682e-01 -3.23693827e-02 -1.17990971e-01 +4.32751536e-01 +3.70438099e-01 +5.20661294e-01 +3.93532306e-01 +1.00949354e-01 +2.73890167e-01 +2.90198654e-01 -3.07993382e-01 -3.52127910e-01 -8.86506925e-04 +1.20903812e-02 -4.69015777e-01 -3.24911624e-01 -2.84199148e-01 -3.18027496e-01 +7.07938820e-02 +5.13679922e-01 +2.09592670e-01 -5.42352617e-01 -3.85575183e-02 +1.90861598e-01 -4.56988543e-01 +1.82342380e-01 +1.83169484e-01 -5.47650233e-02 +2.38127902e-01 +5.38546681e-01 +4.23555017e-01 +5.36026716e-01 -7.79736519e-01 -2.23521560e-01 -3.34941477e-01 -8.58668566e-01 -2.55774707e-01 +1.96275517e-01 -3.57074887e-01 +4.89619255e-01 -3.77780050e-01 -4.75156128e-01 +8.96425843e-02 -3.31846833e-01 +3.58837724e-01 -6.92675829e-01 -3.38286549e-01 +6.39929343e-03 -7.43497759e-02 +6.84004202e-02 +5.12617946e-01 -1.35440335e-01 +2.32558474e-02 +3.22017282e-01 -2.34343782e-01 +9.43856463e-02 -2.21756220e-01 +4.78513479e-01 +3.95848513e-01 -8.72234926e-02 -2.25400910e-01 +1.84952483e-01 +4.44561355e-02 -5.63373744e-01 -1.43003106e-01 +2.01229915e-01 +1.28029615e-01 +1.62541151e-01 +3.43334526e-01 -3.30533087e-01 -6.39985859e-01 -2.50584632e-01 +2.66218126e-01 -4.31279510e-01 -2.26479933e-01 -2.21700028e-01 -2.36258194e-01 -5.00265121e-01 -4.96949673e-01 -1.12193167e-01 -2.72420913e-01 -1.37205929e-01 +1.08745545e-01 -2.99216241e-01 +2.68037468e-01 -6.23062372e-01 -2.08110772e-02 -1.21358305e-01 -4.11618322e-01 -5.29333889e-01 -1.33692205e-01 -2.55953401e-01 -2.53139645e-01 -5.78372896e-01 -6.45816028e-02 +2.62226641e-01 -2.99491156e-02 -4.86519814e-01 -4.14664522e-02 -3.25625926e-01 +1.72178000e-01 -2.83281595e-01 -2.54199713e-01 +5.64800203e-01 -8.20329905e-01 +2.12120578e-01 -4.07532901e-01 -7.58061036e-02 +3.03346634e-01 -3.83542441e-02 -1.34575233e-01 -9.62377414e-02 +5.12745678e-01 -7.36590102e-02 +9.28855687e-03 -1.68205157e-01 -6.67482466e-02 -1.30566070e-02 -3.04633319e-01 -2.15648547e-01 +2.47926921e-01 -4.79962230e-01 +1.00971639e-01 -1.06194794e-01 -1.15893222e-01 -1.90259129e-01 +6.22720569e-02 +1.70228276e-02 -7.83058181e-02 -1.01903535e-01 -1.37619182e-01 -1.42584354e-01 -2.02689320e-01 -5.73440075e-01 -2.01461360e-01 +9.45532843e-02 -1.82453841e-01 -3.49552810e-01 -1.72843695e-01 -1.78246543e-01 +5.30773342e-01 +1.62200004e-01 -6.56192660e-01 -8.52848366e-02 -3.24215680e-01 -1.51137322e-01 +1.67471454e-01 -7.28103459e-01 -1.11604013e-01 +1.12806328e-01 +5.60375862e-02 +1.93494141e-01 -2.34113634e-01 -9.42225754e-01 -4.09279644e-01 +3.07393730e-01 +2.36509368e-01 -2.54782915e-01 -4.77929175e-01 +2.10180327e-01 -3.80180813e-02 -4.49308194e-02 -4.16330323e-02 +9.22635049e-02 -5.04555600e-03 +2.58837998e-01 +3.50441337e-01 +3.25926542e-02 +6.62985221e-02 +2.45366290e-01 -2.66109139e-01 +6.92355782e-02 -2.23017767e-01 -9.61673483e-02 +3.11634570e-01 +1.85059905e-02 -4.38181758e-02 +8.08999017e-02 -3.17979336e-01 +6.00908361e-02 -1.22102268e-01 -1.32028192e-01 -1.17042199e-01 -4.33814654e-04 +3.18890035e-01 +2.14736924e-01 -8.23730677e-02 -9.53282788e-02 +3.51601213e-01 +1.08924517e-02 -8.94842744e-02 +1.77096352e-01 +1.69177800e-01 +8.22022036e-02 -1.87987834e-01 -4.37637120e-01 +1.97986558e-01 +4.62139510e-02 -1.96845114e-01 -3.20564121e-01 +2.99835861e-01 -2.00356394e-01 +6.64094239e-02 -9.91669297e-03 +1.71167850e-02 +1.64339676e-01 -8.47619846e-02 -4.07192186e-02 +5.89773804e-02 +4.32195097e-01 -5.39944954e-02 +3.17735493e-01 -7.83252046e-02 +1.94312319e-01 -1.88300520e-01 -2.33039185e-01 +4.57243174e-02 -3.56917113e-01 +1.66278645e-01 -3.31116170e-01 -1.74638987e-01 -6.14675954e-02 +8.99933651e-02 +5.95468223e-01 +1.49956867e-01 +2.46685874e-02 +1.29867075e-02 +1.35837018e-01 -1.15362369e-01 +5.68432987e-01 +6.20118082e-01 -4.95516568e-01 +2.00890332e-01 +1.01845108e-01 -1.97583556e-01 -1.08653516e-01 -2.82434106e-01 -6.21385090e-02 +1.37076169e-01 -1.86472759e-02 +1.43589497e-01 -4.51432467e-01 +6.07979596e-01 +4.56678510e-01 +1.99978173e-01 -4.66955677e-02 -9.86164957e-02 +1.92204982e-01 +3.88493389e-02 +4.14861254e-02 +6.64367676e-02 -3.11287284e-01 +1.23766959e+00 +2.40432099e-01 -2.59923786e-01 +3.63813192e-01 -3.70830037e-02 -9.91455838e-02 -8.18437412e-02 +1.95888728e-01 -3.28128070e-01 +6.17697656e-01 -7.87425563e-02 -7.39510000e-01 +4.88184094e-01 +1.74252614e-01 -8.69054139e-01 +3.01512539e-01 -9.34698358e-02 +1.96707994e-01 -1.28559783e-01 -7.04020739e-01 +1.50185391e-01 -3.08191776e-01 +3.52928698e-01 +2.73590207e-01 +5.62239349e-01 -5.41373432e-01 +4.44519699e-01 -2.29982257e-01 -2.04506367e-02 -1.16837002e-01 +1.40335947e-01 -6.95300102e-01 -1.31696209e-01 -8.87970388e-01 -6.59370661e-01 +7.78285146e-01 -3.16965252e-01 -8.09339821e-01 +2.08794579e-01 +9.30471048e-02 +2.90776670e-01 -8.07963982e-02 +1.46590218e-01 +9.83837768e-02 -3.31093967e-02 -1.79943517e-02 -2.54034758e-01 -8.26169476e-02 -2.13826194e-01 +9.64422151e-02 -6.20214976e-02 -1.28568962e-01 +1.12508759e-01 -1.58691272e-01 +2.38986999e-01 +9.97187793e-02 +2.04669252e-01 -2.45324150e-01 -1.19814694e-01 -1.52548924e-01 +4.07182388e-02 +2.64741868e-01 +9.68457609e-02 -3.74160707e-02 +2.98354924e-01 +3.73143591e-02 +1.22457966e-02 -3.01302038e-02 +5.44575900e-02 +1.56954184e-01 -9.71491635e-03 +9.55477804e-02 -1.49150804e-01 -3.50599945e-01 -5.22467673e-01 -3.29392493e-01 -5.39130926e-01 -2.89359033e-01 -3.28217506e-01 +1.59074694e-01 -2.39852637e-01 -2.81985223e-01 -1.64031416e-01 -6.84107542e-02 -6.41742647e-01 -1.34658426e-01 -1.28985211e-01 -5.05385220e-01 -2.65127331e-01 -2.86902875e-01 -1.51188701e-01 -1.95792466e-01 -4.38402027e-01 -7.22645998e-01 -2.19372079e-01 -5.05471408e-01 -3.69729102e-01 -2.62168497e-01 -4.13388997e-01 -2.87543327e-01 +2.28023529e-02 -5.38222253e-01 -1.05822422e-01 -2.23520786e-01 +2.17198893e-01 +6.65756911e-02 -2.68263482e-02 -1.71911553e-01 -7.96299726e-02 +2.17575133e-01 -3.18433613e-01 +2.95560688e-01 -8.19018260e-02 -6.65711984e-02 -6.65973276e-02 -8.75043646e-02 +4.87806946e-01 -2.53720194e-01 +9.57848728e-02 -3.32936496e-01 -7.22757876e-02 +3.27644385e-02 -5.46944261e-01 +3.93401384e-02 +1.71844527e-01 -2.70521373e-01 +3.30002189e-01 -3.18631619e-01 +1.75698802e-01 -7.13654578e-01 -1.83733538e-01 -2.37941071e-02 -3.10504019e-01 -4.43806708e-01 -8.01784769e-02 -6.70287088e-02 -4.25484151e-01 +6.98043481e-02 +6.78102076e-02 -8.28026384e-02 -2.77844280e-01 -1.31796926e-01 -6.28914058e-01 +3.14107329e-01 -1.47487491e-01 +3.06158900e-01 -1.35736823e-01 -2.36610010e-01 +2.26896271e-01 -2.93456435e-01 +5.82358837e-02 +3.71085480e-02 +8.93152598e-03 -1.68222532e-01 +2.91108321e-02 +2.06318527e-01 -1.09041348e-01 -5.27840331e-02 +5.90595245e-01 -4.32596713e-01 +2.84034401e-01 +2.64091462e-01 -1.66065738e-01 +3.04537982e-01 -2.30451450e-01 -3.15514237e-01 -3.58560652e-01 +2.86930412e-01 -8.19386169e-02 -3.38336557e-01 -1.93937644e-01 -1.97556037e-02 -3.97305824e-02 +4.45424095e-02 -1.37259707e-01 -1.13516226e-01 -5.34332022e-02 +2.67294906e-02 +1.17876390e-02 -4.24398959e-01 +1.88098654e-01 -3.62046659e-02 +6.04399703e-02 +3.67507815e-01 +2.37385351e-02 -2.21541166e-01 -8.95163298e-01 -5.74127138e-02 +3.64748478e-01 -2.48270527e-01 +7.04121739e-02 -1.30155742e-01 +1.32521629e-01 +2.64147609e-01 -2.53937930e-01 -2.04232503e-02 -9.41555724e-02 -2.65168786e-01 -2.61652023e-01 +1.44257635e-01 +3.90501082e-01 +3.92038524e-01 +1.77038357e-01 -2.21819073e-01 +4.77192789e-01 +8.12029466e-03 +3.13062906e-01 +9.49226320e-02 -2.91358560e-01 +3.79700333e-01 +1.09081961e-01 -2.24527448e-01 +3.13742071e-01 -1.25238746e-01 -5.68778701e-02 +2.81352252e-01 -3.75673324e-01 +4.37306106e-01 -5.92239916e-01 -4.10986394e-02 +9.18511227e-02 +5.97515821e-01 +1.54482692e-01 +2.50600785e-01 +1.90384790e-01 +5.55989206e-01 +2.32603922e-01 +8.80258307e-02 +2.21037939e-01 +2.09871650e-01 -6.85807914e-02 -2.27561407e-03 -2.56738245e-01 +4.16131973e-01 +1.44519312e-02 -4.92833070e-02 +3.37373793e-01 -4.54261363e-01 +3.52395833e-01 +5.06495833e-02 +2.49539971e-01 +1.19068943e-01 -5.33172674e-02 +2.05282345e-01 -3.48658085e-01 +2.64509261e-01 -2.45460626e-02 +6.80004716e-01 +2.54910290e-02 +5.27777970e-02 +6.26670480e-01 -1.13318481e-01 +8.48445389e-03 +4.02734280e-01 +2.07274891e-02 +2.93429941e-01 +8.58831331e-02 +2.62062788e-01 -1.35266513e-01 -1.35544151e-01 +2.86496669e-01 +2.77607352e-01 -5.40717900e-01 +2.21091211e-01 +1.81261227e-01 +1.57684922e-01 +2.09634200e-01 -4.45665956e-01 +3.53330702e-01 +2.48536691e-01 +4.63257730e-01 -1.80090472e-01 -4.13243055e-01 +2.47487485e-01 +9.38690901e-01 +2.00188279e-01 +2.61617303e-01 +9.28053856e-02 -1.24357969e-01 +2.09372923e-01 +9.22153220e-02 -2.05584630e-01 -4.68422147e-03 +2.35240459e-02 +1.57968178e-01 +2.20666170e-01 +2.20514953e-01 +4.21727151e-02 -1.73113406e-01 -4.20119941e-01 -2.40557238e-01 +1.23262078e-01 +1.22369729e-01 +1.93026841e-01 -1.43636912e-01 +7.89903164e-01 -1.76266074e-01 -1.75194927e-02 -1.21693477e-01 -1.57090619e-01 +3.75302762e-01 +2.78047509e-02 +1.51189789e-01 +2.48879075e-01 -6.70436844e-02 +1.50715992e-01 -4.00308752e-03 +8.71244222e-02 -9.63272080e-02 -1.47012994e-01 -2.78151453e-01 -3.55633616e-01 -2.31376544e-01 -1.92982569e-01 +1.47978887e-01 +1.88837111e-01 -2.40227669e-01 -1.08201519e-01 -1.30657837e-01 +2.19653323e-01 +3.68713409e-01 +2.68970162e-01 +2.77731180e-01 +1.23307286e-02 +5.95973209e-02 -5.57678416e-02 -4.75802422e-01 +2.58488327e-01 -6.24400303e-02 -6.14361800e-02 -2.40896210e-01 +1.28286183e-01 -1.24723502e-01 +5.00384010e-02 +3.24502021e-01 +2.70438313e-01 -2.88987309e-01 +3.30454707e-01 +2.05422372e-01 +2.34396845e-01 +1.63922742e-01 +3.42105538e-01 -9.23966765e-02 +1.71105817e-01 +3.86078544e-02 +5.36152460e-02 -1.44214835e-03 -2.03201830e-01 +1.14371121e-01 -1.19643524e-01 +5.70572615e-01 -6.80875257e-02 +3.45091134e-01 -3.24064344e-02 +3.51983458e-01 +1.21946353e-02 +8.30771998e-02 +1.03072682e-02 +2.75888950e-01 -2.98349857e-01 -1.48606405e-01 +5.72166264e-01 +1.00678444e-01 -3.93241882e-01 +5.84188938e-01 -4.33388613e-02 +3.24968487e-01 +1.27390265e-01 -6.94673881e-02 +4.27307934e-01 +1.86626673e-01 -9.08132419e-02 -9.93918478e-02 -6.08928800e-02 +7.60291815e-01 +5.22135258e-01 +3.16561945e-02 -1.01626702e-01 +2.05179706e-01 -3.96871045e-02 -4.56100591e-02 -2.60626674e-02 -2.58233041e-01 -1.36327818e-01 +2.36693218e-01 +6.90820277e-01 -3.54995787e-01 +9.46124732e-01 -2.63200670e-01 -9.71577466e-02 -2.15485379e-01 +7.31124699e-01 -1.09812655e-01 +1.25817373e-01 +1.52504027e-01 -8.50639306e-03 +4.63184297e-01 +9.61103439e-02 -1.53847232e-01 +1.65729627e-01 -2.79702634e-01 -3.35731846e-03 +1.92830175e-01 -3.58147174e-01 +5.18990867e-02 -4.68053877e-01 +2.18598992e-01 +2.61960626e-01 +1.70206323e-01 -4.50475812e-01 +3.26269835e-01 -5.70484400e-01 +3.37815642e-01 +4.93876815e-01 -3.20009440e-01 -3.32049787e-01 -1.39487445e-01 -3.43856603e-01 -5.20486355e-01 +2.49470562e-01 -2.59744018e-01 -1.59968331e-01 +1.36557549e-01 -2.45436341e-01 -1.44584417e-01 +2.60123581e-01 +1.24675715e-02 -1.09089829e-01 +4.09163311e-02 -2.21382245e-01 -4.46003735e-01 -5.95248304e-02 -1.95265263e-01 -1.42920902e-02 -3.71895671e-01 -5.69584779e-02 -1.78871706e-01 +7.43274242e-02 +4.26632732e-01 -1.40895784e-01 +1.15633123e-01 -2.44246468e-01 +1.66220382e-01 +3.43608707e-02 +2.94210687e-02 -6.89449832e-02 -3.24864872e-02 +1.05426192e-01 +6.05377965e-02 -3.75813454e-01 -5.47371432e-02 -2.22794697e-01 +2.33669564e-01 -6.37825252e-03 -7.35162124e-02 +1.57442659e-01 -7.82152116e-02 -3.23095173e-01 -2.70302176e-01 -1.78874955e-01 -5.12899756e-01 +1.32672563e-01 -4.26304638e-01 -2.47226238e-01 +1.12028271e-01 -1.36930436e-01 -2.01801300e-01 -1.90399617e-01 -4.46847409e-01 -3.34490299e-01 +8.20053145e-02 -1.87391445e-01 -2.05023274e-01 -4.46542412e-01 +1.69727907e-01 -1.88387875e-02 -6.54631779e-02 -2.33353510e-01 -3.98242921e-01 +7.01923817e-02 -1.07683383e-01 +1.94456547e-01 +3.15298699e-02 +2.00527161e-01 +1.56747550e-01 +3.72253619e-02 +1.14406012e-02 +1.08646132e-01 +5.46781383e-02 -4.14446235e-01 -3.60593557e-01 +7.75570512e-01 -1.65141776e-01 -1.04784168e-01 -8.75968263e-02 -8.26480687e-02 +2.19005734e-01 -4.75907832e-01 -4.34254482e-02 +3.38091820e-01 -1.53428763e-01 +4.65871692e-01 -5.01201868e-01 -2.54896104e-01 -3.91824245e-01 -1.41080199e-02 +2.49305367e-02 -5.25774360e-02 -1.87646337e-02 -3.80574793e-01 -1.97668225e-01 +2.56022885e-02 -7.07269490e-01 -3.74523520e-01 -1.01807281e-01 -2.38163188e-01 -1.90589637e-01 -1.12053134e-01 +4.13018495e-01 +1.77543938e-01 +1.83969751e-01 -4.97495055e-01 -3.27246219e-01 +2.37004206e-01 -2.08010957e-01 -4.55659270e-01 +3.01118463e-01 -7.08275259e-01 +5.30629635e-01 -1.25199221e-02 +1.03821419e-01 +5.65957911e-02 -4.27992910e-01 +1.96797073e-01 -2.10171312e-01 -3.66081893e-02 -3.40944320e-01 -9.72854067e-03 -1.76852390e-01 +4.75057870e-01 -1.44200325e-01 -1.94620594e-01 -6.99912846e-01 +4.11159784e-01 +3.33884992e-02 +3.03101808e-01 +1.29463673e-01 -6.12656912e-03 +9.57504064e-02 +4.75623876e-01 -1.85546130e-01 -3.54681872e-02 -3.26971561e-01 -2.06080452e-01 -2.27058142e-01 +2.82721400e-01 -1.66539431e-01 -1.36280628e-02 +3.93050164e-01 -5.70722334e-02 -1.95881221e-02 +1.25051245e-01 +4.33764011e-01 +9.53699946e-02 +5.61849102e-02 -1.64883733e-01 -4.19407576e-01 +1.43223226e-01 -2.08717167e-01 -2.41242304e-01 +6.81129843e-02 +5.78956790e-02 -3.89297935e-03 -1.26432925e-01 +2.86556203e-02 -3.56937083e-03 +6.04135208e-02 +3.49562466e-01 -2.85134643e-01 -5.42589575e-02 -2.86701322e-01 -2.08250821e-01 +1.54274225e-01 +2.77489305e-01 +3.83051246e-01 -1.59612462e-01 +2.24644735e-01 +8.56655389e-02 -1.73809633e-01 -3.28728408e-02 -1.03735231e-01 +4.63969037e-02 +6.48078844e-02 +9.68780816e-02 +1.74365312e-01 +2.24168852e-01 -7.71299228e-02 +3.54156978e-02 +1.69908002e-01 -2.31130868e-01 -6.68945303e-03 +2.98617445e-02 -1.93586051e-02 +3.40734482e-01 -2.02377036e-01 +5.74996024e-02 -2.18007147e-01 +2.55786538e-01 +1.83359221e-01 +1.17661431e-01 -9.20336768e-02 -2.61677474e-01 +1.57851279e-01 +2.26869211e-01 -2.98399385e-02 +1.14918962e-01 -3.41563560e-02 -9.41813886e-01 -7.11578071e-01 -5.18551953e-02 -2.43622497e-01 +8.25005304e-03 -8.61812681e-02 -3.27298433e-01 +1.14758603e-01 -4.37984884e-01 +2.13585757e-02 +3.09447020e-01 -9.23537742e-03 +4.44995910e-01 -1.43353379e+00 -6.70034766e-01 -7.39573166e-02 -3.55845660e-01 +2.74217334e-02 -9.73285809e-02 -2.31509104e-01 -4.50049341e-01 -5.08255139e-02 +2.90819049e-01 -9.72598612e-01 -3.22506011e-01 +2.60882005e-02 -7.26494372e-01 +5.52753881e-02 +2.95216173e-01 +8.02446082e-02 +1.40343815e-01 +7.74636805e-01 -3.08302402e-01 -6.83502108e-02 +2.19269082e-01 -3.57950985e-01 -2.12782577e-01 -2.36880668e-02 -1.84806034e-01 +5.47331631e-01 -9.17799119e-03 +6.89558908e-02 +3.96204554e-02 -3.96500975e-01 +2.65510947e-01 -1.38745070e-01 -1.39578745e-01 -3.39570582e-01 +6.29251823e-02 -3.71113509e-01 +7.66175520e-03 -1.18549086e-01 +1.92076638e-01 -2.38257572e-01 +4.87732589e-01 +3.95607911e-02 +6.73626065e-01 +5.40382922e-01 -4.46539521e-01 +1.98670819e-01 +2.13072553e-01 -5.18949270e-01 +4.59758565e-02 -3.03300828e-01 -9.32906494e-02 +3.37162167e-02 -1.94934439e-02 -3.70686054e-02 -1.90489069e-01 +2.04446182e-01 +2.13250428e-01 +1.56224266e-01 -1.01002650e-02 +4.00776029e-01 +4.38892573e-01 -7.60866106e-02 +1.53367147e-01 -2.56980121e-01 -2.71995515e-02 -2.08791960e-02 +1.61035284e-01 +2.15387583e-01 +1.56511709e-01 +3.07621449e-01 +1.52032990e-02 +7.37555921e-02 -6.38862476e-02 -1.02160811e-01 +5.08744121e-02 -5.03982045e-02 -4.73585129e-02 -1.05989590e-01 -6.44889176e-02 -3.23190615e-02 +2.78065592e-01 -9.65106580e-03 -2.44108755e-02 -6.30913973e-02 -6.84567615e-02 -2.58687377e-01 -3.55116040e-01 -1.02397732e-01 -3.14765602e-01 -1.59100473e-01 +1.46766990e-01 -7.85137042e-02 -2.09885642e-01 -1.32835701e-01 -1.79564774e-01 -5.30241787e-01 -1.80213422e-01 -4.07675534e-01 -2.46903405e-01 -1.47978514e-01 -5.17690182e-01 +2.68518090e-01 +3.76947194e-01 -4.01868135e-01 +3.57848741e-02 +2.57498533e-01 -5.83492815e-02 -2.14384183e-01 -1.55824050e-01 -3.26287672e-02 +5.87986559e-02 -1.83699578e-01 -4.05392289e-01 -1.41599461e-01 +4.02550846e-01 +1.68605205e-02 -1.45907238e-01 +3.91674459e-01 +1.93743363e-01 -2.46289700e-01 -1.70969851e-02 +1.24002196e-01 +2.72582304e-02 -1.42018154e-01 -2.43555173e-01 -6.65342342e-03 -3.42310578e-01 -2.28024513e-01 +3.15087914e-01 -7.11987242e-02 +8.25743154e-02 +1.98156238e-01 -1.65297657e-01 -3.61173451e-02 +2.24637747e-01 -1.69806391e-01 -5.78501727e-03 +6.17413670e-02 +1.83372185e-01 +3.10195953e-01 +1.02909617e-01 -1.17678069e-01 +2.03453124e-01 +3.16393644e-01 +3.04406211e-02 +1.94423556e-01 -2.20026016e-01 +2.61759814e-02 +1.90505385e-01 -1.93450302e-01 -3.04014564e-01 +9.64762792e-02 +7.02154487e-02 -1.17285065e-01 -5.96372545e-01 +2.25284517e-01 +1.80098891e-01 -2.96617430e-02 -1.79956943e-01 -2.63789445e-01 +5.61090410e-02 +1.03966147e-01 -3.70204687e-01 -3.32552642e-01 -1.76322445e-01 -4.24179472e-02 +2.57446114e-02 -1.51179284e-01 -1.23164147e-01 -1.06078893e-01 -3.58614288e-02 +1.12760901e-01 -3.04671377e-01 -1.15539193e-01 -8.59191269e-02 +9.90457907e-02 -4.93787169e-01 -3.61455113e-01 +4.88086402e-01 -8.30880463e-01 -1.80099845e-01 -3.01588625e-02 +9.68034193e-02 +4.77560490e-01 -3.29917818e-01 -1.79861709e-01 -1.25592172e-01 -2.21574247e-01 -2.05912575e-01 -1.13436118e-01 +6.06291413e-01 +1.68682843e-01 -5.34087241e-01 +1.78582415e-01 +2.01710641e-01 -1.53351827e-02 +2.40259647e-01 -4.48950797e-01 +2.10019454e-01 +4.33920957e-02 +3.45081419e-01 -4.70273286e-01 +1.60097852e-01 -3.31458747e-01 -1.31735364e-02 -6.62266910e-02 -3.12248379e-01 -2.12049857e-02 -1.52049303e-01 -6.91131055e-02 -2.06361875e-01 -5.23347892e-02 -1.54477311e-02 -2.75671065e-01 -2.03026161e-01 -3.09648126e-01 -4.30143565e-01 -5.59593439e-01 -3.51974487e-01 -3.30243617e-01 -3.30346435e-01 -5.44638634e-01 -6.97500333e-02 -8.26125368e-02 -4.90012854e-01 -1.83951333e-01 -3.18265706e-01 +1.61168829e-01 +1.82205647e-01 -1.96867138e-01 +3.46753061e-01 -5.27504921e-01 -3.81011009e-01 -4.43641126e-01 +1.81379765e-01 -2.40795553e-01 -6.20406330e-01 +5.52181378e-02 -4.84983027e-01 -2.66657859e-01 -3.98590475e-01 +1.28109336e-01 -3.96019313e-03 -4.79391426e-01 +5.94409034e-02 -3.64459455e-01 +2.44185582e-01 -4.28031713e-01 +2.64899731e-01 -1.38589531e-01 -1.54330567e-01 -4.26599495e-02 -4.34877127e-01 +1.84619129e-01 +1.29721239e-01 -1.27185564e-02 -2.42809057e-01 -2.86300540e-01 -9.18508396e-02 -2.61861116e-01 -1.19070783e-01 +2.92838868e-02 -2.75159813e-03 +2.90437013e-01 -2.35347480e-01 -6.11516178e-01 -6.43798947e-01 -3.97957772e-01 -5.64906858e-02 +2.60491014e-01 -5.19817173e-01 +3.40153396e-01 -3.98682505e-02 -4.56578463e-01 -5.67552090e-01 -2.46175215e-01 +3.73975784e-01 -3.86185199e-01 +1.35316163e-01 +3.89588952e-01 +1.96680322e-01 +9.43300575e-02 -2.14803755e-01 -8.23310576e-03 +2.15315685e-01 +3.01981382e-02 +4.04101461e-01 -6.36489928e-01 -6.33672655e-01 -3.12033921e-01 +2.36583099e-01 -3.78507078e-01 +1.97231308e-01 -1.25820726e-01 +4.35045026e-02 -3.27008516e-01 +8.10803473e-02 -3.45913887e-01 +1.98693946e-01 -8.19456875e-02 -3.16537917e-01 +2.30740204e-01 -5.04633691e-03 +5.67540564e-02 -2.50784129e-01 -5.06415188e-01 +1.95557505e-01 -2.14315891e-01 -5.31945884e-01 -5.31818122e-02 -1.36461839e-01 +6.07671499e-01 -1.75398514e-02 -4.75387603e-01 +1.97991073e-01 +6.99883997e-02 -4.65865970e-01 -1.17531903e-01 +1.78847924e-01 -2.73353875e-01 +2.78645009e-02 -4.40728618e-03 -4.96760279e-01 -5.58040023e-01 -7.72980154e-02 -5.41218258e-02 -2.37173826e-01 +2.02134266e-01 +4.66276526e-01 -8.15300830e-03 +4.28254634e-01 -5.52332163e-01 -9.39528868e-02 +3.50574076e-01 -4.23318505e-01 +1.90431774e-02 -2.09093824e-01 +8.54227901e-01 -1.35376081e-01 -2.00906754e-01 -2.16961130e-01 +1.60782263e-01 -5.42017102e-01 -2.57856727e-01 -4.64898944e-01 -5.12497663e-01 -6.45747244e-01 -5.24159312e-01 -3.65941107e-01 -6.05503321e-01 -2.71470368e-01 -2.06797030e-02 -2.96075225e-01 -2.38452479e-01 -3.68885428e-01 -2.83158064e-01 -2.21453130e-01 -3.15129310e-02 +2.51865573e-02 -4.36385185e-01 -6.86640739e-01 -3.40350300e-01 -1.17130816e+00 -2.14285269e-01 -1.42488822e-01 -2.35632226e-01 -6.55368626e-01 -2.15420112e-01 -8.20617259e-01 -9.15651210e-03 +1.61138698e-02 +1.19154081e-02 +5.85204065e-02 -1.82213500e-01 +2.53257215e-01 -5.33859491e-01 -2.59608835e-01 +8.23170692e-02 -4.48671691e-02 -4.91220713e-01 -4.49423224e-01 +1.32240683e-01 -3.57173026e-01 +3.52534890e-01 +1.04877174e-01 -6.09364025e-02 -2.66365200e-01 -4.74845022e-01 -6.72300234e-02 -5.30291460e-02 -2.34803200e-01 +5.72742335e-02 -4.68787491e-01 +1.55975521e-01 -1.37847275e-01 +3.16906571e-01 -1.23983979e-01 +1.89828668e-02 -4.79003906e-01 -5.03690206e-02 -1.64103005e-02 -7.94974685e-01 -5.24661899e-01 -2.47564748e-01 +1.33554459e-01 -1.59400135e-01 -4.53306705e-01 -1.54937491e-01 -3.73641518e-03 +1.85044676e-01 -2.01794967e-01 -1.09477080e-01 +2.00172141e-01 +5.81057183e-02 +7.87996650e-02 -5.27006388e-01 -4.26293880e-01 -3.09497744e-01 +3.04524630e-01 -3.73004884e-01 +8.26551020e-02 -2.34605223e-01 -2.66924948e-01 -5.96361980e-02 +6.18492661e-04 -4.54082698e-01 -3.73844862e-01 -1.46944508e-01 -3.60253990e-01 +3.39290857e-01 +1.36893988e-02 -5.84327579e-02 -3.12529802e-01 -5.72672069e-01 +1.85070168e-02 -2.40395498e-02 -1.00047028e+00 -1.93286031e-01 +9.53708589e-02 +1.64581239e-01 -5.21353260e-02 -5.07496715e-01 -2.42138281e-02 +1.80882215e-01 -9.57854271e-01 -1.54742241e-01 +4.31126505e-01 -2.40671352e-01 -1.08823560e-01 +4.98802871e-01 -6.49321616e-01 -2.47601524e-01 -2.67094702e-01 +1.83574632e-01 +3.44883710e-01 +9.78657380e-02 +6.00577652e-01 -2.78889716e-01 +1.90570191e-01 -6.28241003e-01 +8.92256945e-02 +4.04817998e-01 -6.14764273e-01 -2.57695854e-01 -3.94663006e-01 +1.63600102e-01 +5.19380093e-01 +2.05489933e-01 +4.54386175e-02 +5.59159145e-02 -1.09857246e-01 +2.64962465e-01 +1.33687314e-02 +1.80863932e-01 -3.00369188e-02 +2.77586699e-01 +1.79728240e-01 +3.90591174e-01 +3.95610720e-01 -1.66923195e-01 +1.85801595e-01 -1.31808281e-01 +3.56215984e-01 -4.21020716e-01 +8.33792761e-02 +5.21346107e-02 -1.23003107e-02 +1.59506619e-01 +2.86296338e-01 +2.03604605e-02 +1.91991031e-02 +1.88638821e-01 -2.33430043e-01 +3.53742629e-01 +3.13387334e-01 -1.47094756e-01 +2.46756986e-01 -4.35141534e-01 +1.62300125e-01 +1.75900031e-02 -8.79397213e-01 +3.06758165e-01 -3.48642021e-01 +9.61914286e-02 -1.02387927e-01 -2.82113224e-01 +2.17859805e-01 -1.32979155e-02 -3.74211036e-02 -1.26148924e-01 -3.64963353e-01 +3.59237120e-02 -2.40934975e-02 +8.83405507e-02 -5.47199845e-02 +3.68385375e-01 -1.48952782e-01 -2.77734041e-01 +5.91920502e-02 -1.64687559e-01 +1.64690584e-01 +4.29361016e-02 +6.00111842e-01 -7.06981644e-02 -1.46272406e-01 -3.75239581e-01 +2.07182899e-01 -2.04136912e-02 +1.48196757e-01 +1.34278238e-01 +5.58176875e-01 +9.93818492e-02 -2.90460289e-01 +2.79960185e-01 +1.44818053e-01 +2.69569367e-01 +1.46466792e-01 -4.99563515e-01 +1.28138140e-01 +1.82985231e-01 -1.08256480e-02 +5.16650915e-01 +9.56662968e-02 -1.64272785e-01 +3.60761017e-01 +4.56003845e-01 -2.06895918e-01 -1.48473144e-01 -9.45699155e-01 +1.50916502e-01 +6.41144753e-01 +3.76274705e-01 -3.57581437e-01 -4.22261983e-01 -3.16088609e-02 -5.23493551e-02 +1.21139601e-01 -3.60371545e-02 -3.51088285e-01 -1.96127236e-01 +2.14647785e-01 -2.57513137e-03 -1.90743543e-02 -6.03852645e-02 -8.62351805e-02 +1.94854409e-01 +1.59602255e-01 -7.46844485e-02 +1.97196081e-02 +4.21170034e-02 +1.82778671e-01 -5.21678329e-01 +7.14627802e-02 -1.06433347e-01 -1.00527175e-01 -1.27231805e-02 +6.18005618e-02 -2.04659358e-01 -6.72690719e-02 +3.79791498e-01 -1.39505088e-01 -1.34145275e-01 -3.14729691e-01 -8.91952515e-02 -1.22263975e-01 +1.48135185e-01 -1.28159314e-01 +1.18888818e-01 +1.83269307e-01 -6.86985329e-02 +1.14424668e-01 -1.59479663e-01 +2.19722524e-01 -2.21581072e-01 -1.34355530e-01 +3.31965446e-01 +2.57921312e-02 -3.52614969e-01 +1.76438689e-01 -6.05935454e-01 -2.16731802e-01 -4.10025865e-01 -9.94712710e-02 -1.96264148e-01 -4.25043553e-01 -5.05707681e-01 -5.71518898e-01 +3.12436223e-02 -5.34996748e-01 -5.42400293e-02 -1.97934911e-01 +1.34845441e-02 +1.85813859e-01 -1.29022583e-01 +2.49728784e-01 -3.52268010e-01 -1.29636914e-01 -1.02558628e-01 +1.77364379e-01 -4.80799787e-02 -3.88008922e-01 -4.20415312e-01 -9.24101099e-02 +1.35468477e-02 -3.28473866e-01 +1.93528756e-01 -3.29798847e-01 -4.26150598e-02 +8.50371122e-01 -3.56073260e-01 -2.06296816e-02 -7.78206065e-02 -1.42101735e-01 -4.89685945e-02 -4.67545033e-01 -9.31300074e-02 -1.28166229e-02 +4.75813821e-02 +3.58928531e-01 -7.08138496e-02 -4.62262779e-01 -1.99519932e-01 -6.21493049e-02 +3.14578903e-03 -5.10372967e-02 +1.96565539e-01 -1.01496376e-01 +2.35664353e-01 +1.02569737e-01 -2.11060449e-01 -5.61999142e-01 -3.11091058e-02 -3.46814066e-01 +2.64289856e-01 -1.02781825e-01 +2.71193415e-01 -8.32989812e-02 -3.04878831e-01 -3.95299643e-01 -2.11986244e-01 +2.55227715e-01 -3.04322720e-01 -2.40213752e-01 +1.84740052e-01 -6.53770566e-01 +2.54267842e-01 -1.91021815e-01 +2.59114578e-02 +1.52817532e-01 -1.84315786e-01 +2.21424371e-01 -4.07584488e-01 -1.31259531e-01 -4.19274092e-01 +3.16289097e-01 -6.58475161e-02 +8.52006614e-01 +1.60479933e-01 -2.36597694e-02 -4.57402229e-01 +7.54147545e-02 +2.11511590e-02 +1.44415930e-01 -2.14072004e-01 -1.25794485e-01 +3.58108640e-01 +4.84314322e-01 -2.86095977e-01 -2.84507900e-01 -2.27012157e-01 -1.06424727e-01 -7.35341385e-02 -2.05903530e-01 -1.61185548e-01 +1.89469531e-01 +7.17406690e-01 +6.67539425e-03 -2.29169294e-01 -2.06536889e-01 +5.36227524e-01 -1.39921173e-01 -1.90963507e-01 +4.16880578e-01 -2.41472691e-01 -1.88656688e-01 +1.34530306e-01 -3.76045287e-01 -2.92038679e-01 +4.56021845e-01 +1.87846377e-01 -1.82450823e-02 +2.32122108e-01 +8.05558488e-02 +1.94685265e-01 +2.97158152e-01 -3.02971452e-01 +6.66582957e-02 +2.77462937e-02 -3.77504349e-01 +7.29194358e-02 +1.53781921e-01 +3.70469302e-01 -5.27682066e-01 +1.16856853e-02 -2.19336480e-01 -6.00699604e-01 +1.64906345e-02 -1.60040572e-01 -2.19579190e-01 +1.78468958e-01 -2.92126328e-01 -2.98392087e-01 -2.30132997e-01 -9.47182551e-02 -3.06414925e-02 +2.97267526e-01 -3.27188581e-01 -4.38745059e-02 -6.40237272e-01 +5.68307489e-02 +1.75685957e-01 -4.20815945e-01 -2.57169694e-01 -2.12473035e-01 -2.66792297e-01 -1.26536980e-01 -3.70849222e-01 +3.65607254e-02 -2.85769552e-02 -2.06514355e-03 -3.02882105e-01 +4.94630784e-02 -9.20313299e-02 +4.02436167e-01 -5.12922287e-01 -1.23207629e-01 +1.05973110e-01 -1.34424344e-01 -2.87904404e-02 -3.40098888e-01 -2.42631093e-01 +9.04804170e-02 -2.58033365e-01 +1.00801229e-01 -6.10032119e-02 +1.58832699e-01 -1.21844895e-01 -1.75260007e-01 -5.99851727e-01 +2.88122762e-02 +3.01005077e-02 -2.18104780e-01 +9.04925242e-02 -3.96139771e-02 -3.93515140e-01 +9.92082432e-02 -2.19057709e-01 -3.78053546e-01 -5.73161662e-01 +1.04919598e-01 +1.88950196e-01 -4.07390893e-01 -5.90407364e-02 +5.39013706e-02 -5.84434718e-02 +2.52602071e-01 -1.80450201e-01 -4.59852755e-01 +2.26121455e-01 -3.45692486e-01 -2.42426991e-01 -4.74892650e-03 +9.39826965e-02 +5.80111623e-01 +3.19920838e-01 -8.48789141e-02 -2.81337611e-02 -7.88695142e-02 -1.39531091e-01 +8.46929923e-02 +2.35684253e-02 +2.63360381e-01 +3.19709808e-01 +8.28360245e-02 +1.25429630e-01 -3.25722575e-01 -3.29075545e-01 -1.68435261e-01 -2.38964200e-01 -7.25316182e-02 +3.34279925e-01 +1.53975010e-01 -8.58015418e-02 -1.36087015e-01 +8.94500539e-02 -3.77911776e-01 -1.86917886e-01 -4.16529365e-02 +4.41430137e-03 -6.52654171e-02 +1.18559912e-01 -1.37598574e-01 -1.16719894e-01 +2.00584397e-01 -3.45564932e-01 -9.08960402e-03 -1.53380707e-01 +1.32344276e-01 -1.14595681e-01 +2.62825847e-01 +8.71388167e-02 +2.10683630e-03 +2.51328107e-03 +3.47459912e-01 +1.98725492e-01 -3.36896151e-01 +3.49891186e-01 +3.13910693e-01 +1.30174860e-01 -6.77822307e-02 -8.59393179e-02 +3.43574546e-02 +2.68629521e-01 -5.50117195e-01 -2.87515223e-01 -2.20090866e-01 -1.76766496e-02 +4.04156558e-02 +6.18722290e-02 +2.45605689e-02 +3.96258026e-01 -8.49856902e-03 +3.54140311e-01 -2.71946102e-01 +3.35187614e-01 +3.67697358e-01 +2.12918997e-01 +5.84885538e-01 +3.73955071e-01 +4.06685621e-01 +7.69318268e-03 +1.37962490e-01 -1.47851169e-01 +1.28041685e-01 -2.00151112e-02 +1.28012240e-01 +1.30823046e-01 +2.19590768e-01 +2.68892515e-02 +1.95171475e-01 -2.16540381e-01 +6.53565884e-01 -1.25713319e-01 +2.68459290e-01 +3.84508193e-01 +4.19424623e-01 +3.14952016e-01 +1.10836290e-01 +6.89545929e-01 +1.39784604e-01 +1.77411109e-01 -1.20943394e-02 +1.30671626e-02 +2.87568897e-01 -2.98603594e-01 +6.87021554e-01 -5.14687560e-02 +3.60268176e-01 -1.01217464e-01 -1.85050383e-01 -4.33117539e-01 -1.65887162e-01 +2.07274273e-01 -1.01402350e-01 +1.29792476e-02 -4.94700134e-01 -2.37141937e-01 +5.49585596e-02 -4.50163960e-01 -7.32324645e-02 -6.72020838e-02 -1.89725503e-01 -2.12096591e-02 -3.29527497e-01 +3.42940800e-02 -1.37863353e-01 -1.58292636e-01 -2.51200736e-01 +2.55863387e-02 -2.86375731e-01 +5.01439512e-01 -7.39100724e-02 +8.35183740e-01 +2.98386097e-01 +8.97670686e-01 +5.97582221e-01 -3.35037559e-01 +5.21359146e-01 +2.84548879e-01 -6.04466319e-01 +2.74242938e-01 +8.53525177e-02 -6.18186146e-02 -2.28749737e-02 -2.06457183e-01 +3.12287509e-01 -3.30284655e-01 +1.32288918e-01 +1.22713113e+00 +3.87440264e-01 -6.86852932e-01 -1.01560935e-01 -3.93048018e-01 -1.40830316e-03 +9.64056671e-01 -2.01608818e-02 -6.89337790e-01 +4.94310319e-01 -3.43519710e-02 -3.80089581e-01 +2.56541204e-02 -2.81352252e-01 -5.92478335e-01 +3.25261325e-01 -1.41998693e-01 +6.44584745e-02 -1.36819258e-01 +8.17336664e-02 +5.38398743e-01 +2.03747243e-01 -3.60671878e-01 -2.21894503e-01 +2.65190989e-01 +2.74713159e-01 -1.40319541e-01 -1.10855386e-01 +3.84908766e-01 +1.16500102e-01 -2.37059578e-01 +4.00021195e-01 +2.50312239e-01 -2.47246817e-01 +7.34826028e-01 +3.40741538e-02 +2.38407105e-01 -6.13656193e-02 +6.92877918e-02 +1.39722317e-01 -1.26372069e-01 -2.25975871e-01 +1.31086722e-01 +1.24205843e-01 -2.42516518e-01 -6.52621746e-01 +4.20074254e-01 +2.99338192e-01 +8.46258581e-01 -1.26555502e-01 -2.76218683e-01 -1.70803860e-01 -2.11427361e-01 +4.90467474e-02 -2.20504165e-01 -9.72993821e-02 -3.83212060e-01 -2.18897253e-01 -3.57514799e-01 -7.14332402e-01 -1.82433352e-01 -1.07003200e+00 -8.44611302e-02 -1.30292341e-01 -1.04645051e-01 -3.48953187e-01 -5.11498272e-01 -5.14065623e-01 +2.68332750e-01 -2.53000855e-01 -2.97354132e-01 -4.94076610e-01 -6.52942359e-01 -4.11667645e-01 -3.22884411e-01 -4.34027106e-01 -2.12309048e-01 +1.62805483e-01 -4.13399667e-01 +7.92554207e-03 -5.69288373e-01 -1.57781258e-01 -4.91798371e-02 -4.12915796e-01 +1.98199168e-01 -4.65390563e-01 -9.78630185e-02 +5.66468760e-02 -1.10226855e-01 -7.36876130e-02 -5.33582866e-01 -3.75204325e-01 -4.02749598e-01 +3.66764486e-01 -3.55150998e-01 -4.39963251e-01 -4.02102828e-01 -5.00087500e-01 +6.41034395e-02 -5.26566505e-01 -2.55250365e-01 +1.15128666e-01 -2.05831349e-01 +8.15284133e-01 -4.00805362e-02 -1.72696009e-01 -5.61303914e-01 +1.22871421e-01 -1.43612355e-01 -1.03483580e-01 -1.97547615e-01 -5.53254224e-02 -2.01105207e-01 -1.38132656e+00 -2.58544926e-02 -6.05295837e-01 +3.34428251e-01 -3.50131333e-01 -5.00630438e-01 +9.10139680e-02 -2.29870081e-01 -2.29122769e-02 -1.60437971e-01 -7.80089870e-02 -5.10659218e-02 -1.14938989e-01 +5.48175097e-01 -3.28091055e-01 -1.34101689e-01 -1.70632184e-01 +1.27363339e-01 -5.75760305e-01 +1.43281952e-01 +7.28921033e-03 -3.59713882e-01 +1.20044544e-01 +1.49385676e-01 -5.50093591e-01 +3.62181306e-01 +1.34509251e-01 -3.15289795e-01 -2.34765522e-02 +1.97488204e-01 -2.27820590e-01 +1.46534219e-01 -1.33732229e-01 +6.88789859e-02 -2.87810683e-01 -5.21253884e-01 -2.93776810e-01 +2.72406608e-01 +3.70313674e-01 -4.80240546e-02 -3.96320581e-01 +6.90564886e-02 -4.41168323e-02 -4.31236327e-01 -3.97133380e-02 +2.05976486e-01 -1.14066988e-01 +7.26865157e-02 +3.51391882e-01 -3.06124210e-01 -9.35481310e-01 -2.13635474e-01 +1.14756800e-01 +9.77078378e-02 +2.79326178e-02 +2.60843903e-01 +2.13904560e-01 +2.70859480e-01 -3.79122645e-01 +3.11656475e-01 +3.74314189e-01 -1.36639610e-01 -4.46833491e-01 -4.51198697e-01 +6.34701848e-01 +5.05568385e-01 +1.92810036e-02 -2.27247681e-02 +1.10529512e-01 -4.53251638e-02 +1.09402895e-01 -2.39077792e-01 -3.66671085e-02 +8.78860205e-02 +2.18162954e-01 -1.81243718e-02 +1.67418689e-01 +4.05856788e-01 -5.83951361e-03 +7.31494784e-01 +4.89910953e-02 +1.19524866e-01 -9.87950712e-02 +3.34899314e-02 +1.15708418e-01 +1.00016646e-01 -2.69086231e-02 -5.92087954e-03 +1.01235338e-01 +1.11842066e-01 +1.43331915e-01 -3.44287753e-02 -4.76084836e-03 +4.01989706e-02 +2.46258393e-01 -4.93059047e-02 -1.59357131e-01 +3.63706380e-01 -3.30590270e-02 -6.46765828e-01 +4.32633907e-01 -2.07066357e-01 -9.79024023e-02 +9.81827974e-02 -1.30980983e-01 +3.24162692e-02 +2.22590432e-01 +5.12053892e-02 -2.75988877e-01 -3.59062791e-01 +2.39684701e-01 +2.46700212e-01 +7.39718974e-02 +3.62042449e-02 +3.21432240e-02 -1.37983382e-01 -3.44643950e-01 +3.52496147e-01 +1.35771006e-01 -1.29679143e-01 +4.53410596e-01 +2.81935334e-01 +3.41872908e-02 +4.85528231e-01 -2.14947447e-01 -6.59262855e-03 -6.86224252e-02 +6.43212944e-02 +5.12458123e-02 +4.35547441e-01 +3.87724698e-01 -3.48743826e-01 +1.03901334e-01 +1.37362078e-01 -2.80258983e-01 +1.97225586e-01 -5.38471155e-02 -8.34697261e-02 +7.45764002e-02 -2.48609647e-01 -2.95115560e-02 +4.72333990e-02 +1.07545897e-01 +5.91767848e-01 +2.33332053e-01 -1.63109452e-01 +3.19897532e-02 -4.72808987e-01 +2.02598259e-01 +4.16994482e-01 +1.85388625e-01 -4.04361784e-01 -1.82009146e-01 -1.84453264e-01 -1.15556598e-01 +1.17342755e-01 -1.60809189e-01 -5.30822575e-01 +2.15949029e-01 +1.91764861e-01 -5.89484684e-02 +2.15160251e-02 -2.00410753e-01 -2.06356406e-01 -1.72156528e-01 +1.27201587e-01 -7.71045387e-02 +1.84561893e-01 -2.64427453e-01 -1.52783930e-01 -3.97679418e-01 -2.69905418e-01 -7.71228448e-02 +1.22835942e-01 -1.27259597e-01 +2.53414847e-02 +2.05965027e-01 +3.90075557e-02 -1.32177785e-01 +2.34833360e-02 +2.00423270e-01 +1.99888021e-01 -1.42700031e-01 -8.97728503e-02 -3.67467642e-01 -8.82492587e-02 -9.40541029e-02 -4.06195700e-01 +2.04256728e-01 -8.57150853e-02 -1.44725248e-01 -2.31191237e-03 +6.66513592e-02 +3.74027401e-01 -8.78721997e-02 +4.18883234e-01 +2.65144646e-01 +2.45754644e-01 +4.75631595e-01 -1.11442342e-01 +4.66836333e-01 +3.47858071e-01 +4.58787471e-01 +2.31008485e-01 +3.03663790e-01 +1.99622124e-01 -3.68266217e-02 +4.88988221e-01 +5.10935560e-02 +4.60956305e-01 +2.66665280e-01 +1.29193768e-01 +3.64562929e-01 +4.66132432e-01 +1.13925651e-01 +5.76772988e-01 +5.22650778e-01 +5.62667131e-01 +2.87963361e-01 +1.80992216e-01 +2.98315048e-01 +7.41700888e-01 +1.45197809e-01 +5.56550205e-01 -7.44372681e-02 +4.41561282e-01 +2.17143491e-01 +2.00513795e-01 +4.68558550e-01 -3.54355723e-01 +8.24436903e-01 -5.98794557e-02 +6.40917495e-02 +2.10278735e-01 +3.09822977e-01 +2.45748237e-01 -4.84933928e-02 +5.58577538e-01 -1.49775043e-01 +2.46165112e-01 +4.00273263e-01 +3.18033069e-01 +7.38823593e-01 +1.82062075e-01 +1.22564308e-01 +2.80059308e-01 -4.30230498e-01 +6.19026303e-01 +2.56182879e-01 +2.18986332e-01 +7.83108026e-02 -1.29326627e-01 +3.31220269e-01 +5.45395911e-01 +6.59282357e-02 -1.72327030e-02 +4.82023150e-01 +5.04452884e-01 +1.85521245e-01 -1.98732451e-01 +1.49326757e-01 +2.27524772e-01 +8.86363909e-02 -6.01423495e-02 -3.20432782e-01 -1.36446178e-01 +1.59461930e-01 +2.21834615e-01 +6.86998069e-02 +2.76991613e-02 +3.23338270e-01 +2.30109155e-01 +1.95553109e-01 +5.97349592e-02 +3.91597748e-01 -2.29100913e-01 +2.07907632e-01 +3.86293143e-01 +3.96781147e-01 +2.34299839e-01 +2.52331141e-03 +1.24599531e-01 +3.11381012e-01 -6.38122037e-02 -1.59359157e-01 +1.73139140e-01 -2.40972221e-01 +1.33595139e-01 +6.79804757e-02 +5.80895767e-02 -2.39473939e-01 +1.29707649e-01 +2.87423491e-01 +2.00326577e-01 -3.04503795e-02 +1.30819172e-01 +1.89960226e-01 -4.76550423e-02 +5.55889308e-02 +6.61955535e-01 -2.74703771e-01 -3.79385352e-01 -1.17864318e-01 -1.53317332e-01 +6.18855618e-02 +2.63073146e-01 -1.69134513e-01 -1.39257550e-04 -3.08069587e-01 +1.07142955e-01 -2.18135566e-01 -5.14145434e-01 -1.76811337e-01 -5.73331416e-01 +4.26028490e-01 -2.32199244e-02 +4.61143777e-02 +5.02939582e-01 +5.45457415e-02 -5.54125421e-02 -1.52269140e-01 -3.50963056e-01 +1.45463422e-01 -2.29439214e-02 -2.32325926e-01 -2.10520640e-01 -2.42957592e-01 -1.70632992e-02 +1.10690035e-01 -2.74243057e-01 -1.24045283e-01 -2.35628948e-01 -2.28026673e-01 -3.04358881e-02 +7.67203718e-02 -2.49363407e-01 -2.94653267e-01 -3.85738730e-01 +1.81101263e-02 +2.72530317e-03 -3.88594627e-01 +2.62873154e-03 -4.30682689e-01 +1.81191938e-03 -3.88458967e-01 -2.51068890e-01 -2.17366576e-01 -2.41507843e-01 -4.71184067e-02 -4.12966073e-01 -1.75784975e-01 +9.42958742e-02 +2.07014829e-01 -6.16718590e-01 -4.57898647e-01 +9.76302743e-01 -4.23388213e-01 +8.45539197e-02 +1.97182402e-01 +8.34689140e-02 +2.31805280e-01 -1.18570402e-01 -1.24413751e-01 +3.84218037e-01 +1.23540349e-02 +2.65258282e-01 -3.55768323e-01 -3.61425877e-01 -2.51256853e-01 +3.57783735e-02 -2.31074765e-01 -1.65892780e-01 +3.21856663e-02 -2.26206437e-01 +3.17832261e-01 +3.68687809e-02 -5.45032799e-01 -1.51190206e-01 +1.17026016e-01 -3.32109421e-01 +5.30652739e-02 -4.91897464e-02 +1.28880754e-01 -3.49683076e-01 -4.20423411e-02 -8.29174101e-01 -2.82972872e-01 +8.19218814e-01 -4.39146966e-01 -3.54039371e-01 +2.04207957e-01 -2.65343785e-01 +6.87190056e-01 -8.04035664e-02 -1.69760913e-01 +3.01666856e-01 -4.59656179e-01 +4.54949111e-01 -4.38254280e-03 -7.43836343e-01 -2.24380806e-01 +1.42592818e-01 -1.10116243e-01 +2.92630076e-01 -2.32377067e-01 -6.11547053e-01 -4.73030061e-01 +7.95074284e-01 +2.57298872e-02 +1.03002019e-01 +2.84719884e-01 -1.61497056e-01 +4.43911344e-01 +6.28341615e-01 -1.42876893e-01 -3.59764814e-01 -4.58794199e-02 -2.20143288e-01 +2.94627368e-01 -6.46494851e-02 -1.43865183e-01 +2.55311048e-03 +3.17734569e-01 -1.03455102e-02 -1.32214621e-01 +6.96985200e-02 +5.71475267e-01 -1.75771192e-02 +1.77196488e-01 +1.40904397e-01 -8.32008868e-02 -4.06837016e-02 -3.08888704e-01 -5.99184260e-02 +1.67337418e-01 +1.84918717e-01 +1.53896123e-01 +1.34123757e-01 +1.29975438e-01 +1.39776260e-01 -6.39946461e-02 +4.22651693e-02 -1.54415816e-01 +5.33800907e-02 -1.94430336e-01 -1.14603527e-01 +1.23387612e-01 -5.85145736e-03 -9.96623933e-02 +2.42482394e-01 -2.65302658e-01 -5.31790733e-01 +8.38559717e-02 -1.87744960e-01 +1.49341434e-01 -3.96372288e-01 -5.49690783e-01 -1.06504373e-01 -1.29527852e-01 -3.96841735e-01 +3.87621149e-02 -6.67840123e-01 -1.22191846e-01 +1.30203709e-01 -4.13187921e-01 -8.11617747e-02 -7.70206675e-02 -2.96634793e-01 -2.01826289e-01 +3.57108377e-02 -6.37114704e-01 -7.59619847e-02 -4.63307321e-01 +3.83958369e-02 -1.28547832e-01 -4.00050193e-01 -1.72004998e-01 -1.60129694e-03 -7.60018170e-01 +3.66390347e-02 -3.20103131e-02 +1.20525975e-02 -4.22053903e-01 +4.12403345e-01 +1.03059106e-01 -8.91193822e-02 +1.75987005e-01 -2.25700706e-01 +1.79951161e-01 -2.39203662e-01 +1.44895941e-01 +2.53226280e-01 +1.72103852e-01 +2.27792591e-01 -3.02892357e-01 +2.18500823e-01 -4.51851159e-01 +2.37880230e-01 +6.02450848e-01 -3.86802882e-01 -3.20186876e-02 +5.38033396e-02 -1.08107753e-01 +4.12907213e-01 -5.74170530e-01 +1.56346321e-01 +3.41842979e-01 -4.72879261e-01 -4.83069383e-02 +1.44513950e-01 +1.41473608e-02 -2.28998661e-02 +2.04065330e-02 -2.87383556e-01 -4.80242103e-01 +4.28624660e-01 -4.06482458e-01 -1.12662651e-01 +5.59991062e-01 -5.54401517e-01 +4.75204647e-01 -1.48905948e-01 +1.60243243e-01 -5.96198067e-02 -3.60506028e-01 +3.80491763e-01 -3.06874514e-01 +2.98408959e-02 -3.01538974e-01 +1.65164009e-01 -6.05585754e-01 +3.83259207e-01 -2.14723587e-01 -2.86191285e-01 -6.57870054e-01 +5.20691872e-01 -2.40121454e-01 -1.34846002e-01 +5.64077914e-01 -2.66358107e-01 +2.22023755e-01 -1.73839845e-03 -4.01966989e-01 -1.35362998e-01 -2.74285108e-01 -4.49753374e-01 +2.64212042e-01 -2.29235634e-01 +2.86452323e-01 +1.50805563e-01 +4.61681396e-01 +8.10245723e-02 -5.09508252e-01 -1.81826174e-01 +3.29603963e-02 -2.38681976e-02 +1.06650963e-01 +3.18729669e-01 -6.03695154e-01 +1.66707978e-01 -8.98811147e-02 -1.73453256e-01 -2.02569529e-01 +6.34899080e-01 +3.80640812e-02 -2.67543435e-01 -1.21026009e-01 +3.10881764e-01 -9.95365786e-04 +3.87435526e-01 -5.04465587e-02 +3.59180063e-01 +1.04165174e-01 -2.40565196e-01 -2.54031360e-01 +2.81968981e-01 -4.17564750e-01 +3.28831226e-01 +2.09555864e-01 +9.40293148e-02 +7.19414353e-01 +9.96106584e-03 +1.51339173e-02 +8.74020234e-02 +1.03175431e-01 +3.05182338e-01 +1.05717042e-02 +3.46748620e-01 +1.73896059e-01 -1.12471215e-01 +1.08007148e-01 +4.62386101e-01 +5.12809277e-01 +1.32359773e-01 -3.89916956e-01 +3.77657451e-02 -1.84134413e-02 +2.59118229e-01 +8.13532323e-02 -9.14538577e-02 +1.63458735e-01 +6.22706078e-02 +3.68641466e-01 +2.43741006e-01 +1.16775557e-01 +1.63661763e-02 +1.06879026e-02 +4.88731176e-01 +8.95845965e-02 -8.80842563e-03 +7.74386823e-01 +3.89891863e-02 +3.88724692e-02 -7.98108816e-01 +3.06535903e-02 -2.18510143e-02 -7.23451078e-02 +1.60521448e-01 +1.61592156e-01 +3.14962804e-01 -1.45804420e-01 +1.69350624e-01 +2.14206129e-01 +3.23149234e-01 +8.10675979e-01 -2.08841801e-01 +7.21099555e-01 -1.18730411e-01 +4.66885716e-01 +6.36198819e-02 -8.53514746e-02 -2.07559198e-01 +1.96566463e-01 +7.23074615e-01 +1.37871280e-01 +2.36844718e-01 +3.44115585e-01 -1.17312528e-01 +9.81587544e-02 +6.31741434e-02 +5.72246373e-01 -7.32114241e-02 +3.31420869e-01 -9.40082744e-02 -6.33387417e-02 +3.77770513e-01 +2.64299303e-01 -2.81159043e-01 -1.58932492e-01 +4.03430641e-01 +6.17873594e-02 +1.43725410e-01 +2.67121762e-01 -8.95015597e-02 +3.13630164e-01 -2.25669116e-01 +1.29291201e-02 +2.04095647e-01 +1.74772426e-01 -7.49559999e-02 +3.22533906e-01 +2.02748775e-01 +1.63810402e-01 +2.85511285e-01 +3.03670131e-02 +1.60284325e-01 +4.22538258e-02 +9.34314728e-02 +2.18077913e-01 +1.71638206e-01 -2.83340275e-01 +5.44784248e-01 +3.22006911e-01 +1.88782856e-01 +3.11269075e-01 +2.59444267e-01 -8.33909437e-02 -3.27960812e-02 -2.83821791e-01 +2.26010576e-01 +1.39983878e-01 +4.18577462e-01 -3.92819867e-02 +5.57361960e-01 -3.51849020e-01 -1.14284627e-01 -2.18662381e-01 -3.83336723e-01 -2.96909124e-01 +1.86075047e-02 +6.76040709e-01 +1.33359417e-01 -4.43906039e-02 -4.85098988e-01 -1.70378774e-01 -2.33318985e-01 +3.95260870e-01 -4.90556061e-01 +6.72218144e-01 -5.96895255e-02 +1.01197883e-01 +1.67175874e-01 +3.51291746e-02 -1.52180284e-01 -6.84175789e-01 +1.55680269e-01 -3.26817542e-01 -3.17835420e-01 +2.17648029e-01 -2.90102154e-01 -1.53215453e-02 -2.84027457e-01 -1.27939627e-01 -2.11987346e-01 -3.21873605e-01 -3.13801348e-01 -5.20711727e-02 -3.88230950e-01 +1.56622380e-02 -6.41254857e-02 -7.37190008e-01 -1.04547933e-01 -3.19829024e-02 -1.74047966e-02 +9.25460681e-02 +4.47407901e-01 -3.44633758e-01 -5.97542040e-02 -2.90666878e-01 -2.12274820e-01 -1.45654902e-01 -3.40535641e-01 -1.03557214e-01 -3.16865861e-01 -7.27414072e-01 -3.35950315e-01 +1.83826193e-01 +6.88174367e-02 -5.91339111e-01 +2.12006703e-01 +1.59518570e-01 -2.09101975e-01 +1.27399594e-01 +2.78611127e-02 -4.83764522e-02 -2.55751044e-01 +8.98633967e-04 -6.79998146e-03 +2.65986830e-01 -2.67659247e-01 -8.15442502e-01 -7.35301524e-02 -3.81172538e-01 +3.09656829e-01 -1.16470993e-01 +1.05528720e-01 -5.28789423e-02 -1.45843670e-01 +5.28532155e-02 +2.83865243e-01 +1.55774234e-02 -5.86507767e-02 -3.48438555e-03 -3.96653444e-01 +7.27668479e-02 +2.44598970e-01 +3.83658916e-01 -3.33777219e-01 -2.20051706e-01 -2.17089921e-01 -3.41998219e-01 +4.10583466e-01 -5.07778883e-01 -1.28327555e-03 +4.27608162e-01 -5.75954132e-02 +1.80613860e-01 +7.89062399e-03 +1.02967158e-01 +5.58434725e-01 +1.54674903e-01 +4.10252571e-01 -2.50306189e-01 +3.96005772e-02 -1.55584842e-01 +3.40093255e-01 -6.28267884e-01 +2.73394227e-01 -3.00682276e-01 -2.97131300e-01 +3.16513181e-02 +2.35639811e-01 -5.16868293e-01 -1.18839573e-02 +2.00903684e-01 -3.35651822e-02 +2.61213481e-01 +2.35282898e-01 -4.69901502e-01 +1.96598515e-01 -4.19403225e-01 -4.51487988e-01 -7.32295588e-02 -3.96659970e-01 +8.80314410e-02 +1.42726824e-01 +6.07206047e-01 +9.34838131e-02 -2.45382413e-01 -1.00783266e-01 +9.22730491e-02 -1.39360428e-01 +2.61462450e-01 +5.24628401e-01 -3.02406460e-01 +1.36303738e-01 +2.49983877e-01 -1.09956861e-01 -2.73195952e-01 +1.70690179e-01 +1.14116184e-01 -4.18921530e-01 +2.68183257e-02 +3.34372014e-01 -1.88494727e-01 +4.21730876e-01 -4.47402766e-04 +4.19330299e-01 +9.23564211e-02 -4.18772668e-01 -5.50868660e-02 -9.34944600e-02 +1.57478377e-02 -3.30297679e-01 +1.98521182e-01 -1.65851593e-01 +7.51746818e-02 +7.78215528e-02 +3.24563831e-01 +3.93768586e-02 -2.83522028e-02 -1.09741732e-01 +2.64561921e-01 +8.44763964e-02 +2.57534474e-01 +2.97684848e-01 +7.30906427e-02 -2.59245753e-01 -1.03123493e-01 +3.66442382e-01 +1.73951462e-01 +5.13746515e-02 +9.10945758e-02 -1.32367849e-01 -8.15586448e-02 +6.67921185e-01 -1.20789006e-01 +2.01961309e-01 +1.67974636e-01 +9.74967182e-02 -2.81906035e-02 +3.60279799e-01 -6.06626309e-02 +4.52848196e-01 +4.55390662e-02 -4.41976935e-02 -3.80058944e-01 +1.46467045e-01 -2.29390725e-01 -2.59134054e-01 +9.96496230e-02 +9.13950428e-02 +1.88032597e-01 +1.19716875e-01 +9.73154232e-02 +4.90746424e-02 +6.43514423e-03 +2.82517701e-01 +4.28832859e-01 -1.19569868e-01 -5.36557853e-01 +9.91373286e-02 +3.93344790e-01 +2.82439828e-01 -1.02017984e-01 +1.35162650e-02 -1.34816304e-01 +1.32987961e-01 +2.62805879e-01 +2.32891530e-01 -7.41185620e-04 -5.68821207e-02 +8.43277574e-02 +2.57500589e-01 +2.15930864e-01 -3.37146372e-01 +2.35978752e-01 -8.87194425e-02 -2.34918088e-01 +2.64111191e-01 +1.59402475e-01 +5.71624301e-02 +6.30519763e-02 -3.51279974e-01 +2.24319920e-01 -3.47655922e-01 -2.09827617e-01 +1.90100625e-01 -3.11577588e-01 +2.32972652e-01 +1.92033559e-01 -1.87970266e-01 -7.70518631e-02 -9.15118009e-02 +3.62623483e-01 +1.29519016e-01 +4.14466858e-01 -3.21511537e-01 -2.78106302e-01 +1.09097078e-01 +3.91793191e-01 -2.67245919e-01 -1.57760426e-01 -2.93537498e-01 +4.24668580e-01 -3.89734358e-02 +5.42444512e-02 -1.87026083e-01 +9.67495888e-02 -2.17716202e-01 +7.38439336e-02 -2.53205538e-01 +1.60336450e-01 +8.33316594e-02 -5.71609009e-03 -1.62210509e-01 -1.39775455e-01 -5.15408590e-02 +1.87595319e-02 -1.92495175e-02 +1.73722297e-01 +1.79874350e-03 -5.71128055e-02 +4.12022285e-02 -1.19782642e-01 +4.99938950e-02 +8.24074090e-01 +8.36919174e-02 -9.91077572e-02 +2.38345698e-01 -2.00673789e-01 -1.35154992e-01 +1.24330945e-01 -4.68871556e-02 -6.34105224e-03 +3.10409553e-02 -1.93744957e-01 -5.59356883e-02 +3.84948939e-01 -3.21435064e-01 -5.44266284e-01 +2.01352075e-01 +1.84809968e-01 +9.03762132e-02 +2.51175880e-01 +1.29342496e-01 +2.12376788e-01 -7.43166208e-02 -1.93613023e-01 -6.17605969e-02 +3.36914867e-01 -2.16549132e-02 +2.85209060e-01 +3.57933134e-01 -2.06889987e-01 +4.61980313e-01 -1.38724908e-01 +2.48344585e-01 -2.23683923e-01 -7.98735768e-02 +4.78917152e-01 +4.50475574e-01 -1.34942204e-01 +5.51054955e-01 -1.39246434e-01 +2.80483991e-01 +5.97298853e-02 -3.64447355e-01 -2.77112816e-02 +7.23188594e-02 -1.36576980e-01 +2.16958582e-01 -7.02825308e-01 +3.08485448e-01 -2.19482571e-01 -7.32078910e-01 +2.66837031e-01 -8.98818254e-01 +3.69626023e-02 -1.36423349e-01 -2.79781163e-01 +2.63131291e-01 -4.41278405e-02 +2.05179244e-01 -2.90534049e-01 -3.57028037e-01 +2.13706747e-01 +1.01489469e-01 -2.49203429e-01 +1.37844443e-01 +4.46292639e-01 -6.47015357e-03 -2.94761330e-01 +1.02950707e-01 +7.62690604e-02 +1.52827352e-01 +2.39010856e-01 +2.78762847e-01 +1.78039864e-01 +1.31482959e-01 +2.04689354e-01 +1.95998594e-01 +1.10172622e-01 -4.30905558e-02 +1.48494452e-01 -1.90326110e-01 -9.27745923e-03 +1.35684356e-01 +5.12896627e-02 -8.73261467e-02 +1.43431842e-01 +9.22424905e-03 -2.82397121e-01 -3.53108309e-02 +1.85669810e-01 +1.93389103e-01 -7.82414600e-02 +1.14325754e-01 -3.48060399e-01 -1.28001213e-01 +7.44826943e-02 -1.41172782e-01 -2.44655654e-01 -5.29997230e-01 +7.43276402e-02 +1.18765935e-01 +2.13261232e-01 +2.88952459e-02 -2.47481629e-01 -2.58459955e-01 -2.75078148e-01 -1.26530245e-01 +1.95269749e-01 +9.86055508e-02 +1.44327015e-01 +2.61716515e-01 -2.45893389e-01 -1.03664711e-01 -6.46149635e-01 -3.63246232e-01 +1.18524469e-01 +6.84818104e-02 +4.28132340e-02 +6.19635992e-02 -4.70817506e-01 +4.05299991e-01 -2.62759268e-01 +9.88428444e-02 -6.31921291e-02 +2.42872387e-01 -2.21404210e-02 -1.78776160e-01 +1.30755275e-01 -4.89515476e-02 +4.49491352e-01 -7.35355988e-02 -3.21733832e-01 -3.75391275e-01 -2.55665243e-01 -2.05225766e-01 -4.35435176e-01 +4.57909107e-01 -5.58802672e-02 +3.21443349e-01 -1.06041343e-03 +1.49771914e-01 -8.42963681e-02 -1.49143100e-01 -5.61958373e-01 -2.37605691e-01 +9.06639248e-02 -3.86535704e-01 -2.36677602e-01 -2.36314759e-01 -4.97228533e-01 -1.34924889e-01 -5.07025301e-01 -4.91307788e-02 -5.35687864e-01 -3.89136583e-01 -8.78479421e-01 -4.48436618e-01 -7.21305758e-02 -5.29966712e-01 -4.38780099e-01 -3.27632278e-01 +6.34010434e-02 +1.53086558e-01 -2.07276478e-01 -3.40114608e-02 -6.28333628e-01 -3.94870013e-01 -8.57548237e-01 -5.29972434e-01 -5.42920887e-01 -2.92356521e-01 -5.72041608e-02 -8.62877667e-01 -3.05331260e-01 -1.83916509e-01 +7.51291513e-02 -4.41718578e-01 -2.44244099e-01 +2.28191048e-01 -7.35857606e-01 -2.15746313e-01 +2.35905379e-01 +1.12549178e-01 +1.00049876e-01 -4.73722011e-01 -2.70892888e-01 +6.07861243e-02 +2.44674236e-01 +3.03429067e-01 -7.07852185e-01 -4.40042347e-01 -5.63085377e-01 +2.59433389e-01 -5.52668571e-01 -3.01924199e-01 -2.19140023e-01 -3.47417682e-01 +2.59308159e-01 +5.91915548e-01 -3.33567142e-01 -5.31774759e-01 +3.81036878e-01 -5.53955674e-01 +1.33273661e-01 +5.47309577e-01 +1.11665562e-01 -2.07682148e-01 -8.36890221e-01 -1.37403086e-01 -3.65568012e-01 +5.95125377e-01 -9.38270032e-01 -1.56455681e-01 +2.32363403e-01 -6.73913956e-02 +4.23336118e-01 +2.70233881e-02 -2.28647053e-01 +3.53737235e-01 -4.74403352e-01 +4.38973457e-01 +7.55807683e-02 -2.15884686e-01 -3.66775423e-01 +2.23253250e-01 -7.55603254e-01 +3.76957029e-01 -2.82901078e-01 +2.62096021e-02 -1.84139833e-01 +4.74817932e-01 +1.16984449e-01 +3.71327996e-01 +4.28404719e-01 -3.43923539e-01 +5.14604151e-01 +4.48129982e-01 +7.87000265e-03 +7.75567889e-02 -3.91035751e-02 -4.13903207e-01 +1.73772946e-01 -1.75262377e-01 -2.77693886e-02 +2.08313540e-01 +4.97623622e-01 +2.05848664e-02 -4.41495925e-01 +5.77189140e-02 +3.45544487e-01 +5.10976277e-02 +2.26064846e-01 +4.21466321e-01 -2.61859000e-01 +5.30754076e-03 -2.42405340e-01 -2.68945217e-01 -1.12349257e-01 +3.12138349e-02 +5.54235168e-02 +9.75238457e-02 -1.85910091e-01 +8.17318931e-02 +2.31586322e-01 +3.32403719e-01 -4.03796621e-02 +1.70961797e-01 +1.00656465e-01 -3.38364542e-01 -9.18785036e-02 -2.84328490e-01 +7.65348524e-02 -1.71101525e-01 +2.59271986e-03 -1.30830690e-01 +1.41645908e-01 -1.50831208e-01 -3.82052630e-01 -3.11603397e-01 -1.47878915e-01 +4.44794357e-01 -9.70771834e-02 -7.41944760e-02 -1.90540925e-02 -5.76523364e-01 -2.87906468e-01 -1.65178776e-01 -8.83410976e-05 -1.72470063e-01 -3.75318229e-01 -3.40598524e-01 +3.48142415e-01 +6.12034537e-02 -3.50490898e-01 -9.11520720e-02 +2.87522048e-01 +2.93701380e-01 +1.61323577e-01 -5.74457236e-02 -3.22421759e-01 -1.16630085e-01 -2.87187934e-01 -2.38998502e-01 -3.41223925e-01 +5.67363083e-01 -8.35138094e-03 +3.40587407e-01 +2.38137454e-01 +7.15492368e-02 +1.62244380e-01 +3.07574067e-02 +8.32059085e-02 -1.10743985e-01 +8.15704986e-02 -7.01972842e-02 +5.89556456e-01 +1.49151832e-01 -3.81013155e-01 +6.22608125e-01 -7.31986687e-02 -1.34121537e-01 +2.65738577e-01 +9.95316580e-02 -1.67624995e-01 -1.08662181e-01 +7.80201331e-02 +4.29263562e-02 -6.83982149e-02 +1.34038270e-01 +5.26558220e-01 -6.38961941e-02 -2.54576862e-01 +2.72749990e-01 -1.24733545e-01 +2.47588143e-01 -1.38618678e-01 +1.91639811e-01 +2.94450987e-02 +5.68081215e-02 +5.30301034e-02 +1.43604621e-01 +3.56562734e-01 -2.70363921e-03 +6.38574138e-02 -4.14446354e-01 +3.78049947e-02 +2.27307171e-01 +9.12142321e-02 +2.03668460e-01 -3.15786064e-01 +1.49005055e-01 +1.22175507e-01 +1.76908389e-01 -3.13209742e-01 +3.01869184e-01 -1.92357928e-01 +2.37757236e-01 +1.88792214e-01 +2.96248645e-01 -4.40388292e-01 +1.27518669e-01 +2.97024101e-01 -2.34556481e-01 -3.27194065e-01 +8.46223831e-02 -3.18241477e-01 +1.43122412e-02 -3.45868707e-01 +1.60525292e-01 -4.10352886e-01 -2.65483201e-01 +1.40050054e-01 +1.24328390e-01 +3.49209219e-01 -2.73475438e-01 -4.57485281e-02 -1.02903880e-01 +1.05791479e-01 +1.05806179e-02 -1.18960507e-01 +1.87282443e-01 -8.01610127e-02 -1.44765049e-01 -5.18285893e-02 +9.27011594e-02 -3.70537102e-01 +6.14738345e-01 -2.58352160e-01 +1.83480740e-01 +1.46939173e-01 +2.11848676e-01 -5.89683503e-02 +9.85164270e-02 +5.39172851e-02 +3.85568559e-01 +2.38127321e-01 +2.93480996e-02 -2.41158664e-01 -7.25490972e-02 +2.81486455e-02 +1.04714878e-01 +2.09527686e-01 +6.60314551e-03 +1.07481226e-01 -1.50601909e-01 +6.88341320e-01 +2.66323119e-01 -3.28544080e-01 +1.47213176e-01 -1.84069395e-01 +2.18640700e-01 +3.33194822e-01 +2.92871088e-01 +2.65669167e-01 +2.78318942e-01 -2.06253439e-01 +3.94150734e-01 +1.12352960e-01 -1.50391534e-01 -1.83005989e-01 +3.56253862e-01 +2.20427111e-01 +3.45925599e-01 +2.02892736e-01 -1.05463408e-01 +1.21310905e-01 -1.11020342e-01 +1.03074059e-01 +5.07063093e-03 +1.88325308e-02 -6.92257984e-03 +1.07814252e-01 +8.54647756e-02 -1.94496274e-01 -2.57384568e-01 +1.66829467e-01 -2.42654026e-01 +5.02630591e-01 -2.87030011e-01 -3.49671274e-01 +4.58576828e-01 -1.21596120e-01 +9.78410691e-02 -2.18969405e-01 -2.64039934e-01 +2.90791333e-01 +1.17197797e-01 +2.99076647e-01 +9.53908041e-02 -1.46731928e-01 -2.86276460e-01 +1.76274940e-01 +1.90812454e-01 -5.16678579e-02 -1.95061386e-01 +6.80641532e-02 +8.00389707e-01 -4.61979300e-01 +2.97467083e-01 +2.23620370e-01 +2.64394400e-03 -3.54519524e-02 +1.29764630e-02 -3.46980035e-01 -5.41608751e-01 +1.12184910e-02 -9.08586159e-02 +1.70543060e-01 +4.01950091e-01 +2.19521165e-01 +7.35573843e-02 -5.49353600e-01 +2.01814055e-01 +1.18117280e-01 +1.54242054e-01 -1.03879690e-01 -7.38599375e-02 -8.28835666e-02 -2.08351329e-01 -2.46983245e-02 +7.23984465e-02 -4.86834114e-03 -4.09298420e-01 +5.63130379e-01 +1.27300583e-02 -1.36889681e-01 +1.61152527e-01 -3.89021605e-01 -1.34273767e-01 +4.25247243e-03 -2.97915805e-02 +2.91790754e-01 +2.79157721e-02 -2.93604136e-01 +1.21806823e-01 +8.79966002e-03 +2.14142874e-02 +3.47658783e-01 -6.25986001e-03 +7.16979876e-02 -1.64422691e-01 -2.75066614e-01 -3.14775556e-02 -7.35492781e-02 +3.75618368e-01 -2.70679682e-01 -7.68618882e-02 -1.93588689e-01 -9.65765417e-02 -6.54720217e-02 +1.22186281e-01 -3.07335973e-01 -4.57769513e-01 +2.95632005e-01 -4.36110683e-02 +1.22322634e-01 -3.00375372e-01 -2.12051213e-01 +5.91184460e-02 -1.42876521e-01 +1.88877419e-01 +1.44931644e-01 -2.16423348e-01 +1.64916351e-01 +1.70352995e-01 -8.77370611e-02 +3.03001758e-02 -2.93518454e-01 -2.33187273e-01 +3.74963470e-02 -1.48219496e-01 +1.31975278e-01 -1.37034103e-01 -3.96811098e-01 +2.13544324e-01 -7.86168948e-02 -1.28228903e-01 -2.72847950e-01 -3.58523522e-03 -5.58674276e-01 -4.39092256e-02 -4.07078564e-02 -3.78004104e-01 -6.34864867e-02 -5.87688804e-01 -2.04520598e-01 -1.71367660e-01 -1.39529303e-01 -2.30383854e-02 -1.42752543e-01 -5.71387649e-01 -4.75932866e-01 -3.32627088e-01 -2.69744754e-01 -2.23759249e-01 -1.43425196e-01 -4.56492722e-01 -4.03929166e-02 -5.09605527e-01 -1.49144337e-01 +2.84488760e-02 +4.16048914e-02 +9.59189460e-02 -3.97060484e-01 +4.93508130e-02 -3.30000579e-01 +3.97438020e-01 -1.22100726e-01 -9.42351967e-02 -1.28840864e-01 -3.48290533e-01 +1.91118076e-01 -2.74548352e-01 -1.09705888e-01 -3.32191974e-01 +4.64610988e-03 +3.90734449e-02 -5.68269551e-01 -3.12304553e-02 -6.73651248e-02 -2.37375628e-02 +2.89928615e-01 -3.30856740e-01 -3.63100141e-01 -3.40290874e-01 -8.09827000e-02 -5.34547493e-03 -7.73891062e-03 -3.83946091e-01 +2.93096192e-02 +1.06974110e-01 -5.47645390e-01 +2.68154517e-02 +1.52473152e-01 +4.07676160e-01 -6.81189120e-01 -7.49129355e-02 +1.36450499e-01 -1.06138565e-01 +7.43554458e-02 +2.40704287e-02 -1.74112707e-01 +1.95063837e-02 -1.43701181e-01 +3.65626365e-01 -2.92243123e-01 -2.50230074e-01 -1.65507600e-01 +4.65224870e-02 -1.95091203e-01 +1.43496394e-01 -5.35372317e-01 +2.94321477e-01 +1.05859786e-01 +1.45825699e-01 -7.66604543e-02 +2.68770725e-01 +2.13626519e-01 +2.75013417e-01 +3.57544869e-02 +8.29093084e-02 -9.69301835e-02 -1.48916272e-02 -2.90360361e-01 -9.41666588e-02 -7.71651044e-02 -1.14135787e-01 -2.07109034e-01 -6.96394518e-02 +1.60501704e-01 -2.20589489e-02 -2.67096639e-01 +4.93516326e-02 +1.05429120e-01 -1.43745124e-01 -6.44986480e-02 +4.31773476e-02 -1.22900486e-01 -2.73011327e-01 -8.17267410e-03 -2.18127117e-01 -2.57889301e-01 -1.74085245e-01 +2.18495682e-01 -4.17433754e-02 +6.39252141e-02 +1.87975809e-01 +4.91874665e-02 +2.32981401e-03 +3.46820839e-02 -3.64715271e-02 -1.48910312e-02 -2.08789185e-01 -2.27627978e-01 -2.00750962e-01 +5.73823392e-01 +3.47919703e-01 -2.14936331e-01 -2.52705738e-02 +1.11671112e-01 -1.27067596e-01 -1.11243516e-01 -6.02899678e-02 -3.71134847e-01 -1.92940250e-01 -6.35251105e-01 -3.57248247e-01 -4.81830657e-01 -1.61111340e-01 -1.89506248e-01 +1.81853250e-01 -7.00560510e-01 -2.77604818e-01 +4.12432812e-02 +8.56650546e-02 +1.03274263e-01 +1.25400677e-01 -2.56728321e-01 -4.94320244e-01 -5.92539907e-01 -1.77683353e-01 -2.90063739e-01 -2.65805066e-01 -5.00542894e-02 -3.19862455e-01 -6.52233243e-01 -1.88895911e-01 -3.99450883e-02 -1.67975470e-01 -4.60387766e-01 +4.17327583e-02 +7.10921083e-03 -1.73064858e-01 +1.30090758e-01 +3.64774093e-02 +2.29343370e-01 -6.05542123e-01 -1.14162274e-01 +4.16884907e-02 +3.10364664e-01 +2.05810875e-01 -5.41677058e-01 -5.93802193e-03 -5.05624890e-01 +3.27784956e-01 -1.60087645e-01 +1.03458308e-01 +1.97945014e-01 -7.54738525e-02 +1.69908255e-01 +1.28704101e-01 -9.44653526e-02 -7.71065414e-01 +1.26743928e-01 -2.01159209e-01 -4.74865586e-02 -9.93401110e-02 +2.85961658e-01 -6.13768399e-01 -7.94764936e-01 +3.00221711e-01 -1.96056992e-01 +1.90419793e-01 -5.39617240e-01 -1.00770943e-01 +1.53522164e-01 +1.18528768e-01 +3.15342695e-01 -2.82690257e-01 -1.78175971e-01 +1.68808952e-01 -1.44035250e-01 +1.62898779e-01 -4.71677959e-01 -6.20042346e-03 -3.34201418e-02 +3.51679586e-02 -7.48701334e-01 +2.69938439e-01 -2.56277204e-01 -2.59430259e-01 -1.52350229e-03 -7.36315921e-02 -6.06491864e-01 -2.81941265e-01 +2.64083117e-01 -1.41692191e-01 -1.06694043e-01 -1.97342843e-01 -3.89882177e-01 -1.93877369e-01 -1.09769315e-01 -3.35433185e-01 -3.14704239e-01 -3.86227638e-01 -3.67746592e-01 +5.71478792e-02 -9.64971036e-02 +6.29615188e-02 -2.63450354e-01 +1.25146741e-02 -1.46219358e-01 +2.35199809e-01 -2.33687162e-01 -7.79764950e-02 -3.34639996e-01 +8.48101228e-02 +3.22102696e-01 -4.00767595e-01 -3.94851774e-01 -9.89293903e-02 +1.78172633e-01 -1.29310623e-01 -1.67226121e-01 +2.61163145e-01 -4.49060917e-01 +4.37645555e-01 -1.90416366e-01 +3.35487932e-01 +1.05451263e-01 -9.29477215e-02 -3.83789361e-01 +5.10240495e-02 +1.92060739e-01 +3.49627107e-01 +7.90095255e-02 +2.12917477e-01 +6.20402336e-01 -3.18718821e-01 +2.69267093e-02 +4.67135273e-02 -2.36182019e-01 -7.08672451e-03 -2.65040100e-01 -6.17645681e-03 -5.32101542e-02 +7.43539557e-02 +2.69369036e-01 +4.24839944e-01 -7.38048032e-02 +3.48649502e-01 -9.43372250e-02 +2.43994202e-02 +1.71380546e-02 +2.05722257e-01 -3.46515119e-01 -5.51779158e-02 -3.32119435e-01 -1.74444363e-01 +3.72429714e-02 +2.53258795e-01 -2.01386467e-01 -1.21845126e-01 -1.15841448e-01 -1.73100661e-02 +2.31409580e-01 +3.57612461e-01 +8.71817529e-01 +1.66928932e-01 +1.37397602e-01 -5.08912615e-02 +1.63795367e-01 -6.65429831e-02 -1.50354236e-01 +1.61295921e-01 +4.15688694e-01 -5.13677783e-02 -1.34878248e-01 -7.52550503e-03 +2.04832062e-01 +6.93098664e-01 +3.40676069e-01 +2.68451393e-01 +4.42537457e-01 -2.18562573e-01 +1.17295854e-01 +4.78359342e-01 +1.20691366e-01 -4.88791652e-02 +6.34046674e-01 +4.43165690e-01 -5.46282940e-02 +6.58658922e-01 +5.82246780e-01 -1.09922729e-01 +1.68039739e-01 -2.76905507e-01 -4.84256953e-01 -1.51138768e-01 -5.74866831e-01 -1.03979819e-01 +1.15086898e-01 -1.36310160e-01 +8.61259252e-02 -3.30336839e-01 -2.75188118e-01 +1.64604828e-01 +1.37685835e-01 +3.61637592e-01 -9.57197323e-02 -9.11983773e-02 +9.53964815e-02 -5.27880311e-01 -1.38887137e-01 +3.25033069e-01 -4.75035831e-02 -8.96538123e-02 +6.12034976e-01 -5.52060641e-02 -6.15521334e-02 +2.47413442e-01 -2.69253194e-01 -1.28044412e-01 -1.27498552e-01 -3.08205932e-01 +4.43813473e-01 +3.43313038e-01 -1.42272264e-01 +4.33073342e-01 -1.76853016e-01 +1.67381808e-01 +3.93689990e-01 -3.99765112e-02 +3.09783399e-01 +2.90718675e-01 +2.17477664e-01 +1.17339775e-01 -2.53612518e-01 +6.51729226e-01 -9.82289240e-02 +6.20721420e-03 -4.11845684e-01 +1.44912034e-01 -1.35408238e-01 -2.76891053e-01 -1.88578531e-01 -1.86707318e-01 +2.55741596e-01 +8.15201104e-02 -4.71489690e-02 -6.27262115e-01 -1.23125732e-01 +5.14298715e-02 +1.25052705e-01 -1.04589380e-01 +1.06421508e-01 -1.10397629e-01 +3.82521510e-01 -1.44142002e-01 +2.62173787e-02 -3.19308579e-01 -5.05054116e-01 +3.87260407e-01 -3.21938023e-02 -1.40700743e-01 +2.53555983e-01 -7.86790922e-02 -5.20909624e-03 +2.27804393e-01 -3.08751494e-01 +2.70239085e-01 +2.32552335e-01 -1.61602780e-01 +2.70614266e-01 +1.32231131e-01 -1.05936110e-01 +1.44803435e-01 -5.61404787e-02 +6.03402629e-02 -1.96697310e-01 +3.57710421e-02 +8.67365971e-02 -1.78644076e-01 +2.34737873e-01 -1.37194237e-02 +2.05125496e-01 +1.65400073e-01 +4.27610874e-02 +2.77522326e-01 +9.35880765e-02 +6.20240755e-02 -6.87513500e-02 +3.12445104e-01 -1.55324355e-01 +4.60541427e-01 +1.10144332e-01 -4.89082932e-01 +1.33026406e-01 -3.16098779e-01 +6.61927164e-02 +1.52283341e-01 -4.07381713e-01 +3.80549014e-01 +1.61797866e-01 -1.97473332e-01 -1.86623275e-01 -1.55969739e-01 +1.33515492e-01 +4.57134843e-01 +2.08810940e-01 -1.13829017e-01 +3.78518589e-02 -1.51687283e-02 -2.16068774e-02 +3.71606946e-02 -1.91428378e-01 -2.54652143e-01 +6.71483397e-01 +2.17421547e-01 -2.24720705e-02 +2.77826488e-01 +4.14111018e-02 -1.37221798e-01 -7.33249113e-02 +8.69312510e-02 +9.76509452e-02 +5.27323127e-01 +1.23030320e-01 -3.15410107e-01 +2.33534008e-01 +2.37110481e-01 -2.28479147e-01 +1.88149437e-01 -5.46676278e-01 +9.26116332e-02 -2.31480300e-02 -1.41011655e-01 +3.29038590e-01 -2.51690418e-01 +2.78752536e-01 +2.81069368e-01 +5.22645056e-01 -2.77845621e-01 -2.74650604e-02 -4.30689186e-01 +8.25677663e-02 +3.88391465e-01 +5.25992572e-01 -2.26643920e-01 -1.18855104e-01 +6.51633441e-02 -1.09596141e-01 +2.85925239e-01 -1.78156644e-01 -1.14082314e-01 +5.50315194e-02 +3.61290336e-01 +7.18735307e-02 +6.43988280e-03 +2.98571642e-02 -2.50001550e-01 -7.23556727e-02 +1.32023647e-01 -4.65015441e-01 +2.02533692e-01 -2.44996816e-01 -1.48650810e-01 -1.91419080e-01 -2.18326926e-01 +9.39120129e-02 -1.10817187e-01 +2.06149802e-01 +6.44925535e-02 +5.76245934e-02 -2.69274771e-01 +4.56571840e-02 -7.39011392e-02 -1.87754799e-02 +1.20706394e-01 -2.98937768e-01 -4.16904688e-02 -6.84790313e-02 -9.61446613e-02 +2.73053080e-01 +6.59061074e-02 +8.23159963e-02 -4.48231511e-02 -2.48753533e-01 -1.78471297e-01 +1.19738191e-01 +1.93922058e-01 +2.78661937e-01 -3.59051853e-01 -7.38692507e-02 -4.79152888e-01 -2.93872297e-01 +8.79024863e-02 -6.51059628e-01 -6.93402812e-02 -3.30529183e-01 -4.68794942e-01 -5.07680357e-01 -1.04050949e-01 -3.55244949e-02 -2.47505501e-01 -3.82482737e-01 -3.75227362e-01 -2.38820791e-01 -2.25693822e-01 -6.11201748e-02 +1.91756353e-01 -3.92334312e-01 -4.18077886e-01 -6.78238273e-01 +4.84321043e-02 -3.12509686e-01 -3.70890945e-01 -4.47924048e-01 -9.01874959e-01 -5.58214448e-02 -6.86104894e-02 -1.61847860e-01 -1.20408915e-01 -4.81299043e-01 -3.22964966e-01 -3.31054926e-01 +4.21899974e-01 -4.97595310e-01 -6.32654270e-03 -7.55872503e-02 -5.39065488e-02 -2.37784535e-01 -4.27392930e-01 +9.52237025e-02 -1.86183453e-01 +9.45381597e-02 -1.21147476e-01 -1.86278254e-01 -5.03425002e-02 -5.95248640e-01 -2.94395089e-01 +1.97731882e-01 +1.61732838e-01 +1.76227793e-01 -2.20045432e-01 -6.29302800e-01 -4.69727486e-01 +5.43747991e-02 -2.99408399e-02 +4.43150476e-02 -5.14694095e-01 +2.70191103e-01 -1.68630064e-01 -5.36753833e-01 -4.97980207e-01 +4.80647497e-02 -1.65467978e-01 -4.92289305e-01 -1.84092745e-01 -2.24038784e-04 +2.87830740e-01 -1.73830390e-01 +2.80173644e-02 +2.43837729e-01 +5.35566695e-02 +1.08036228e-01 +3.56164537e-02 -1.22019321e-01 -9.05646756e-02 -2.62877315e-01 +1.35316560e-02 -7.31436431e-01 +3.39414440e-02 -1.38633624e-01 -2.38683045e-01 +1.01733640e-01 +8.20797980e-02 -3.51649523e-01 +6.67156503e-02 +3.40317637e-01 -1.45544052e-01 +1.66591614e-01 -9.25693754e-03 +1.39009237e-01 -5.74699119e-02 -3.53943437e-01 +3.72907217e-03 -3.48971605e-01 -5.90900004e-01 -1.09622240e-01 -1.75862685e-01 +2.82887548e-01 +1.44591540e-01 -5.14171481e-01 +2.69700259e-01 +2.27600992e-01 -3.97524923e-01 -1.27949849e-01 +3.88342649e-01 -1.30025163e-01 +1.16303310e-01 +4.60924685e-01 -8.11310053e-01 -4.83287834e-02 +1.16192214e-01 -3.89830545e-02 -8.85632187e-02 -1.91460207e-01 +3.60366106e-01 -1.21288888e-01 +6.69752657e-01 -2.62940973e-01 +7.91824311e-02 +4.11111474e-01 -6.36201739e-01 -2.64510483e-01 -4.69769426e-02 +1.69470295e-01 +4.47972357e-01 +3.46652508e-01 -1.66409418e-01 +4.05530989e-01 -6.36484176e-02 -1.12363219e-01 -1.60428077e-01 -2.68722802e-01 -9.84542817e-02 -1.80015177e-01 -1.92488804e-01 +3.28910381e-01 -1.38580605e-01 +1.52866334e-01 +3.83905977e-01 -3.35392624e-01 +2.47137591e-01 -3.03456128e-01 -2.69779880e-02 +1.47486046e-01 +6.88855350e-01 +1.61394924e-02 -2.53394872e-01 +4.04185951e-02 -3.04254651e-01 -5.53485863e-02 +4.70875539e-02 -1.13972440e-01 -1.88568518e-01 -1.31187528e-01 -7.68953636e-02 -1.32902101e-01 +3.57347906e-01 +1.74942892e-02 -3.20255846e-01 +1.37810260e-01 -1.32990450e-01 -1.58301875e-01 -2.68608421e-01 -7.80238509e-02 +1.97727084e-01 +3.36734094e-02 -2.29013547e-01 -2.56327540e-01 -1.58753172e-01 +3.35846543e-01 +4.31065261e-01 +2.48000011e-01 +5.71934097e-02 -1.35607138e-01 -9.61564183e-02 +1.50056198e-01 +2.31924191e-01 -2.23752201e-01 -4.02475953e-01 +5.43928564e-01 +3.04396868e-01 -7.94993564e-02 +3.81068200e-01 +1.20889276e-01 -1.65061057e-01 +2.94359386e-01 -1.36813149e-01 -1.70743242e-01 -3.59978043e-02 -4.34721038e-02 -4.63650852e-01 +3.72122884e-01 +2.79493213e-01 +1.04901686e-01 +9.44386516e-03 -5.35311520e-01 +1.92631409e-01 +3.17680836e-01 +1.15597948e-01 +2.52712995e-01 -2.88435847e-01 -9.70507190e-02 -1.80366501e-01 +1.03996374e-01 +2.22765654e-01 -4.25972581e-01 -2.97731042e-01 +4.02904600e-01 -3.02630544e-01 +2.24326894e-01 -3.85759354e-01 -4.32377189e-01 -2.66884446e-01 -1.79460064e-01 -7.86043331e-02 +1.82996341e-03 -1.06558919e-01 +2.05363017e-02 +6.25418946e-02 -2.04608310e-02 -1.01748724e-02 -1.41992077e-01 -4.48583663e-01 -2.02655450e-01 -2.45154500e-02 -6.96269348e-02 +3.71477343e-02 -4.05927867e-01 +1.99626252e-01 -4.76021290e-01 -6.24168932e-01 -3.78989279e-01 +2.97187179e-01 -1.91699252e-01 -4.06456470e-01 +3.03549230e-01 -4.66281533e-01 -1.66346937e-01 -4.75715995e-02 -3.04474324e-01 -2.94843048e-01 -1.74921788e-02 +2.22166315e-01 +5.57323545e-03 +2.40739018e-01 -1.01757698e-01 -3.76171730e-02 +3.05156738e-01 -3.73754697e-03 +1.12600036e-01 -2.31991291e-01 +1.07537219e-02 +9.13014263e-02 +1.36802020e-02 +6.50033116e-01 -4.17812139e-01 -1.02480672e-01 +3.96865189e-01 +2.62061357e-01 +3.75834286e-01 +4.50083792e-01 +7.38847435e-01 +3.77606243e-01 +6.96412683e-01 +3.32427710e-01 +2.30424166e-01 +8.06802392e-01 +2.38134339e-01 +4.13219243e-01 -3.03570479e-01 +2.16977462e-01 +1.96934789e-01 +3.92394662e-01 +4.51509416e-01 +3.15046579e-01 +7.98708022e-01 +5.90345442e-01 +4.58308756e-01 +2.80263070e-02 +1.15618154e-01 +7.90674865e-01 +6.29810750e-01 +3.97451103e-01 +1.55448303e-01 +3.27158272e-01 +2.74867296e-01 +1.27644241e-01 +4.15558457e-01 +1.58526853e-01 +2.35191271e-01 -1.25476003e-01 +2.35883892e-02 +4.81879354e-01 +5.29930042e-03 -1.04724944e-01 -7.57747591e-01 +2.95524988e-02 +5.48033893e-01 +4.37155247e-01 -4.30778675e-02 -6.55362725e-01 +3.47288847e-01 +6.73995614e-02 -1.97749466e-01 +2.60714680e-01 -3.43920767e-01 -2.64746457e-01 +2.63595611e-01 +6.23367429e-01 -3.45712900e-01 +6.04386747e-01 -8.00117105e-02 +1.90409526e-01 -6.10297799e-01 +2.56523460e-01 +2.48161644e-01 -3.60825360e-01 +1.81414798e-01 -5.11265472e-02 +4.19793338e-01 -1.97290823e-01 -1.40304789e-01 -7.05324769e-01 -6.69726133e-02 +4.54928905e-01 +2.36937776e-01 -2.34619658e-02 -1.73984677e-01 -2.86764920e-01 +9.14604738e-02 -3.15636359e-02 -5.76102324e-02 +9.89938900e-02 +3.83818597e-01 -2.92184949e-01 +3.76232006e-02 -4.84864935e-02 +1.94355715e-02 +2.73909569e-02 +1.52989134e-01 -3.17769870e-02 -2.22251162e-01 +2.94418246e-01 +2.81577647e-01 +1.49526224e-01 +8.25448483e-02 +4.29211229e-01 +3.16157460e-01 +3.16079080e-01 -2.55073002e-03 +1.27838179e-01 +1.47330046e-01 -1.13835232e-03 -2.63485722e-02 -1.66194275e-01 +1.22114785e-01 -9.99533758e-02 -1.55686811e-01 -3.66059303e-01 -2.87148356e-01 -1.80488989e-01 +1.66884840e-01 -3.90882254e-01 -4.80573297e-01 -1.54635400e-01 +5.07712901e-01 -9.54954848e-02 -1.80562645e-01 -8.10085386e-02 +3.09313864e-01 -2.71823972e-01 +4.36738849e-01 -2.88576007e-01 +2.18122378e-01 -6.94481850e-01 -1.59821644e-01 +2.17576221e-01 -9.99555662e-02 +2.55796582e-01 -7.26366103e-01 -7.24157598e-03 +1.23528101e-01 +5.75423576e-02 -4.31048810e-01 -7.98260272e-02 -1.07094675e-01 -1.88033447e-01 -1.18867859e-01 -3.20456326e-02 -2.72873402e-01 -2.03882843e-01 -2.53987163e-01 -6.54654503e-01 -6.54991344e-02 +2.08015218e-01 +4.17055609e-03 -2.29961514e-01 +2.97252983e-01 -1.02109537e-01 -1.42562063e-02 +2.85067409e-01 -2.98985153e-01 -3.19345266e-01 -2.22245246e-01 +2.75848418e-01 -1.27191301e-02 -3.10705781e-01 +4.46156077e-02 +8.36581066e-02 -2.31316343e-01 -1.58488512e-01 +3.91744584e-01 -1.01743266e-01 -9.40374937e-03 +8.62029314e-01 -1.20778918e-01 +1.45940240e-02 +5.25528751e-02 +1.49817318e-01 +1.19542610e-02 -5.31671226e-01 +2.25565895e-01 -9.63931903e-02 +1.03773009e-02 +4.00207907e-01 -6.59251809e-01 -1.33561432e-01 +2.38654524e-01 -1.31406307e-01 +3.65723148e-02 -2.32857063e-01 -3.63447587e-03 +3.85055058e-02 +9.48902294e-02 +7.93402046e-02 -8.74185503e-01 -2.53600657e-01 +1.73710614e-01 -1.82077989e-01 +3.09251010e-01 -2.09071964e-01 +3.98578733e-01 +3.90445679e-01 +6.01686984e-02 -4.76903647e-01 +2.56671369e-01 +3.02650779e-01 -3.70260924e-01 -3.11667532e-01 +3.76742601e-01 -4.03603286e-01 +9.13244206e-03 -1.15494862e-01 +2.23849818e-01 +4.94390428e-01 +1.23458818e-01 +7.81176239e-02 -1.59062222e-01 -2.05371782e-01 -2.33584661e-02 +1.33528963e-01 -1.21659413e-01 +2.83995599e-01 -1.86284453e-01 +3.49464595e-01 -2.82873392e-01 +4.08360720e-01 -2.95328528e-01 +5.43461800e-01 +4.45766658e-01 -2.48222142e-01 -4.17946242e-02 +6.15636706e-01 -3.11186910e-01 +1.83386989e-02 -2.59202451e-01 +1.93629250e-01 +1.41202509e-01 -3.62767931e-03 +2.18255907e-01 +1.57881640e-02 +3.84916276e-01 -2.12452203e-01 +1.57376215e-01 +5.62473685e-02 +2.94865072e-01 +2.51435637e-01 -1.04994915e-01 +4.96397093e-02 -3.70386988e-01 -3.05541363e-02 -1.33501776e-02 +8.09654146e-02 -6.60662651e-01 +4.01002556e-01 -6.46636402e-03 -1.55074865e-01 +1.60958901e-01 +1.94712698e-01 -1.18159235e-01 -1.10339612e-01 -2.16870636e-01 +1.08211026e-01 +1.74856842e-01 +3.35724689e-02 +1.17787354e-01 -4.54286821e-02 +4.46327806e-01 -1.61790103e-02 -1.29928961e-01 +1.71025738e-01 -2.28117079e-01 -1.32914677e-01 -3.80427361e-01 -3.92848194e-01 -3.11408695e-02 -4.06775661e-02 +6.72744811e-02 -1.40359685e-01 -1.33040473e-01 -2.06299454e-01 -7.07267106e-01 -1.04693875e-01 -5.83524287e-01 -1.80787742e-01 -1.20920524e-01 +2.95191798e-02 +1.54277056e-01 +3.67376268e-01 -5.50222278e-01 -1.03349529e-01 -1.03999889e-02 -2.23064080e-01 -1.76454976e-01 -2.78993309e-01 -1.35345295e-01 -3.08458544e-02 +1.37269152e-02 -4.39342201e-01 +8.56644437e-02 +1.70195401e-01 -6.44536242e-02 +1.83397323e-01 +3.40526670e-01 +1.99423254e-01 -2.71023363e-02 +3.42114791e-02 +2.05512419e-01 +4.61161807e-02 -5.36211766e-02 -8.03488940e-02 +2.10209280e-01 +3.90189551e-02 -1.34674758e-01 +3.66675496e-01 -6.24256581e-02 +1.09157585e-01 -1.88186113e-02 -2.64982432e-01 -8.52400139e-02 -1.00227587e-01 -1.02414384e-01 -5.49713373e-02 +4.44015395e-03 +1.16329035e-02 +9.56244171e-02 -3.33621018e-02 -3.77517119e-02 +1.85848638e-01 +5.10880351e-01 +1.38815284e-01 -6.94723427e-02 -5.95583767e-02 +3.76707572e-03 +9.26806554e-02 -1.33850709e-01 -1.01729862e-01 +1.04267187e-01 +1.24949761e-01 +2.98612237e-01 -7.69198298e-01 -4.54499722e-02 +2.60747612e-01 +1.40233487e-01 +3.35718900e-01 -5.03238618e-01 -1.29278541e-01 +7.48961698e-03 -4.95853983e-02 -3.82147729e-01 +1.71354160e-01 +1.96953900e-02 -2.05889657e-01 +1.06871851e-01 +2.42313102e-01 -4.77593064e-01 -1.98602736e-01 +3.58222574e-02 -3.40878874e-01 -1.97978154e-01 -3.68165672e-02 +2.83811092e-02 -5.87541997e-01 -3.84039819e-01 +4.43123430e-01 -4.28869754e-01 -4.33426350e-01 -4.48388636e-01 -7.95993581e-02 +3.84468257e-01 -3.42766345e-01 -2.75381327e-01 +2.09016085e-01 -5.05221114e-02 -3.73532236e-01 -2.33688757e-01 +4.49350893e-01 -3.40044312e-02 -4.52541202e-01 +8.98568332e-02 +4.86300811e-02 -1.59364030e-01 -2.56849304e-02 -1.09662682e-01 +3.18756014e-01 -2.38917507e-02 +2.72728592e-01 -1.00375903e+00 +5.35499714e-02 -3.36698592e-02 +3.80451195e-02 +8.11570138e-02 -3.14986616e-01 +3.47744435e-01 -2.40315139e-01 +7.06350505e-02 -5.31070828e-01 -6.91159815e-02 +4.67277080e-01 +1.11657353e-02 +1.31562173e-01 -4.97808456e-01 -6.70072079e-01 +9.76739302e-02 +2.57225811e-01 -2.29989901e-01 +7.11543858e-02 -2.82081872e-01 -3.15742522e-01 +1.29412785e-01 -8.99925549e-03 -2.12149899e-02 -1.82955191e-01 +2.94183403e-01 -5.75991832e-02 -1.38572007e-01 +7.23801181e-02 -3.56813490e-01 -2.55945206e-01 +3.92821789e-01 +3.36404517e-02 +2.11011440e-01 +1.09159656e-01 -4.27632146e-02 +3.49151284e-01 -5.08281551e-02 -5.47144651e-01 +2.12470576e-01 -1.93580650e-02 -2.42307745e-02 +6.80588543e-01 -1.59438357e-01 -1.62243485e-01 +7.83442616e-01 +5.13305217e-02 +3.94826293e-01 -1.40586138e-01 -1.82744890e-01 +2.12386578e-01 +2.80031741e-01 +3.99356931e-01 -4.29563761e-01 +1.49391806e-02 +5.17354235e-02 +3.28258812e-01 -1.91500545e-01 -1.39218271e-01 +8.61444995e-02 -6.23639047e-01 -3.24539021e-02 +3.77208561e-01 -2.67083138e-01 -1.21700086e-01 +5.31112552e-01 +2.63661481e-02 +2.62063384e-01 +3.43927503e-01 +2.21146807e-01 +1.42650055e-02 +9.03071165e-02 -2.47430027e-01 -3.48636538e-01 +1.74199715e-01 -4.44227487e-01 -1.86128661e-01 +6.78262711e-01 +5.64486198e-02 +1.33721903e-01 -7.27118403e-02 +5.04992828e-02 +4.17301118e-01 +3.15500759e-02 +2.21121922e-01 -1.13951772e-01 -4.57766652e-01 +3.87717277e-01 +5.82765996e-01 -2.21198082e-01 +6.16383374e-01 +2.94639707e-01 -2.12191626e-01 -3.17341715e-01 +8.38087082e-01 -6.49178803e-01 +3.50215405e-01 +7.59230793e-01 -2.08665892e-01 -2.28209943e-01 +3.05450708e-01 -1.52568147e-01 -9.23349634e-02 -1.24181010e-01 +1.08734459e-01 +2.39912301e-01 -4.39400636e-02 -5.69717772e-02 +1.52338177e-01 +5.68679534e-02 -3.72536421e-01 +1.28172770e-01 -1.62277728e-01 +3.02417457e-01 +6.07330017e-02 -3.58395837e-02 +3.04751784e-01 +8.57740492e-02 -8.21708515e-03 -1.44935697e-01 +1.89988643e-01 -4.50843513e-01 +5.05492210e-01 +7.23650083e-02 -8.92725959e-02 +1.31901279e-01 -9.07044858e-02 -1.01064652e-01 -4.95151520e-01 +1.22826874e-01 +7.04684481e-02 +3.60307842e-03 +1.79354206e-01 +2.71459043e-01 -2.31014892e-01 +2.04109520e-01 +6.98171079e-01 -1.29494876e-01 -1.04447454e-02 +2.33010441e-01 +2.39214838e-01 +7.25963116e-01 +3.24891210e-01 +9.44628753e-03 -8.42725951e-03 +2.20713153e-01 +4.88081984e-02 +3.28197151e-01 +2.66245663e-01 -1.09081797e-01 +4.88746494e-01 +4.78077941e-02 +6.79473937e-01 +2.17437129e-02 -1.66705579e-01 -9.79711115e-03 +2.09328788e-03 +4.34516609e-01 +2.80525208e-01 -6.10640869e-02 +4.05067325e-01 +2.29843706e-01 -3.27852881e-03 +2.47307733e-01 +4.76194352e-01 +1.83718686e-03 +3.64676684e-01 -3.82504851e-01 +3.50040793e-01 +1.86591428e-02 -1.60722479e-01 +1.32631123e-01 +1.30160227e-01 +4.51658070e-01 +1.61163121e-01 +3.17703523e-02 +9.36037824e-02 +4.46892120e-02 +2.15248033e-01 -2.06456393e-01 +2.67972909e-02 +4.48191702e-01 +5.21827042e-01 +2.58198112e-01 -1.51032628e-02 +2.51981556e-01 +1.01576947e-01 -3.58468950e-01 +1.71763182e-01 -4.09508258e-01 +9.76159722e-02 +1.43156007e-01 +5.34083426e-01 -2.05608442e-01 +1.32849619e-01 +1.93246990e-01 +1.10473357e-01 -1.46184163e-02 -1.72063112e-01 +2.83779323e-01 -9.61778015e-02 -1.03872441e-01 -1.21132016e-01 +5.64386547e-01 +4.62551475e-01 +2.84316510e-01 +3.18165183e-01 -4.84829336e-01 +6.22673146e-02 +5.17144501e-01 -1.38526335e-01 +2.97013015e-01 -3.31534952e-01 +2.04389215e-01 +4.19862978e-02 +5.49634509e-02 +3.30695920e-02 +8.83457139e-02 -4.01490211e-01 +3.27630252e-01 +2.18973711e-01 -2.41736509e-02 -1.86213598e-01 -1.15331568e-01 -6.32782698e-01 -1.18509375e-01 +5.85698746e-02 -2.45793134e-01 -2.72648782e-01 -1.28858313e-01 +2.76246160e-01 -1.47944525e-01 +1.09746084e-01 -7.60198385e-02 +2.99021930e-01 +1.63525477e-01 -1.17026597e-01 -2.24621281e-01 +6.61351085e-02 +2.82019228e-01 +1.96497962e-01 -7.77765274e-01 +1.78365394e-01 -1.07737094e-01 -3.70443851e-01 -2.74828792e-01 -1.00440882e-01 -3.18656296e-01 -1.26169339e-01 +4.48668778e-01 -7.07695410e-02 -2.71082163e-01 -4.44031507e-01 -1.93384886e-01 +5.92259057e-02 +1.28970847e-01 -3.10477316e-01 +3.31058890e-01 -8.81795436e-02 +2.48848796e-01 -1.91993751e-02 -6.96187019e-02 +1.73674867e-01 -2.89862126e-01 -2.58346170e-01 -6.14430048e-02 -3.74458283e-02 -2.09607750e-01 +9.33807120e-02 -3.09038848e-01 +1.88635439e-01 +1.65957302e-01 -2.21353754e-01 -1.60952374e-01 -1.88051939e-01 -1.03214763e-01 -7.74125606e-02 +9.79214758e-02 -2.85117060e-01 +9.61732492e-02 -2.16864094e-01 +1.70324937e-01 +3.06476921e-01 -1.88463196e-01 +1.05872989e-01 -1.32333636e-01 -3.69059712e-01 +1.09351970e-01 -3.15237820e-01 +7.70875812e-02 -2.31593162e-01 -3.33649337e-01 -6.59938008e-02 +3.52855682e-01 +6.05497928e-03 -1.18826069e-01 -3.20080519e-01 +3.70832421e-02 +1.02897562e-01 -7.23097444e-01 +5.06721199e-01 -2.30415165e-01 -1.17781840e-01 -9.24754888e-02 -4.45710182e-01 +2.91743409e-02 +5.43281212e-02 -4.21311619e-04 +1.83504194e-01 -8.34609345e-02 -1.78447038e-01 -3.04867197e-02 +2.94928551e-02 -9.82552692e-02 +1.65332004e-01 +2.96741992e-01 -2.61158377e-01 +1.69409364e-01 -3.93452905e-02 -3.70389968e-01 -3.15975755e-01 -2.90621758e-01 -2.85225790e-02 +4.61313128e-02 -1.07197613e-01 -3.61719906e-01 -2.24257275e-01 -1.89566627e-01 -2.55248725e-01 -1.01820774e-01 -7.24934936e-02 -5.04018553e-02 -1.31806761e-01 -8.31401795e-02 -8.90127495e-02 -2.57043213e-01 -2.57676423e-01 +8.90093744e-02 +1.99904174e-01 +2.74938017e-01 -3.31251353e-01 +4.52584922e-02 -2.85749167e-01 -5.95069826e-01 +8.86519104e-02 -1.51390299e-01 +4.42624032e-01 +2.29557052e-01 -1.32440284e-01 +1.86034460e-02 -1.67935137e-02 +5.40051997e-01 +7.87765253e-04 +7.93763548e-02 -1.39102533e-01 -5.76553959e-03 -2.50977520e-02 +1.45671904e-01 -1.17534190e-01 -8.20118338e-02 +1.75305277e-01 +1.95817709e-01 +9.12244432e-03 +1.69356510e-01 -1.25998691e-01 +8.85187313e-02 +1.42944921e-02 +3.29675436e-01 +1.90072075e-01 +2.07146838e-01 -5.10154627e-02 +1.35723919e-01 +1.07000500e-01 -2.70880938e-01 -2.97010660e-01 -7.88202137e-02 -1.14442639e-01 -2.05933437e-01 -2.51230355e-02 +7.53104836e-02 -5.28931022e-02 -1.39131725e-01 -3.66563573e-02 +1.96873426e-01 -1.10406250e-01 -3.04012448e-01 -4.46775220e-02 -5.66229448e-02 -8.68766904e-02 -1.05858840e-01 -8.94377604e-02 +5.08026183e-01 -6.39506102e-01 -2.86900233e-02 +6.64685806e-03 -1.42230377e-01 -1.20240763e-01 -5.65247655e-01 -3.44741225e-01 -3.26612115e-01 -9.79202390e-02 -6.71534181e-01 -1.04052857e-01 -4.76797611e-01 -3.93318921e-01 -5.64576015e-02 -1.49888203e-01 -3.65939379e-01 -5.97826719e-01 +3.54767814e-02 +1.23664640e-01 -1.31933525e-01 -2.16516361e-01 -2.81323254e-01 -2.50067413e-01 -3.29923242e-01 -4.67902213e-01 +2.77962163e-03 -1.70712061e-02 +3.50108951e-01 -3.34856361e-01 +1.22901425e-01 -3.11576068e-01 +1.61888346e-01 -3.48393977e-01 -3.16872388e-01 +5.42403579e-01 -6.38911650e-02 +1.76434755e-01 -4.89073619e-03 -1.02928005e-01 +2.52280593e-01 -3.41997370e-02 +5.35829589e-02 -1.56189904e-01 +5.74510880e-02 +1.28240913e-01 -2.64611244e-01 -3.76238942e-01 -2.48515666e-01 +5.06698899e-02 -5.97704768e-01 -1.09392360e-01 +3.05562973e-01 -4.59114879e-01 -6.30947668e-03 +2.39583567e-01 -4.17491734e-01 -5.96431613e-01 -1.56084195e-01 -4.53492820e-01 +2.69886136e-01 -1.67295307e-01 -6.18743487e-02 +1.02498665e-01 -4.04292673e-01 -4.11975473e-01 -7.01587319e-01 +5.14952481e-01 -3.79444003e-01 -1.74012244e-01 +3.02179307e-01 -3.54830503e-01 +5.14025807e-01 -3.92154306e-01 +4.65446338e-03 +2.03694284e-01 -5.64744882e-02 +4.08525020e-01 -3.28805953e-01 -4.50975895e-01 -2.88316041e-01 +2.31290802e-01 -3.61440867e-01 +8.57741177e-01 +2.77137551e-02 -4.65870231e-01 -4.10231709e-01 +2.81457275e-01 -9.97318402e-02 +3.01623464e-01 +9.33810622e-02 -2.37362966e-01 +7.63520226e-02 +2.42236301e-01 +7.87262321e-02 -2.53768086e-01 -2.80991316e-01 -9.99169648e-02 -8.01812932e-02 -8.46702531e-02 -1.19944178e-01 +1.75650120e-01 +2.34753504e-01 -2.44353563e-01 -2.59009283e-02 -2.19800532e-01 +5.91609657e-01 -2.00929284e-01 +8.64018947e-02 +8.67891833e-02 -1.48223743e-01 -1.13933384e-01 +2.53040761e-01 -8.27180520e-02 -2.18608931e-01 +6.51259646e-02 +2.48986974e-01 +2.81268895e-01 +1.68470964e-01 -1.26814961e-01 -1.49032846e-01 +3.07202607e-01 -3.00330073e-01 -1.22611441e-01 +1.90554373e-02 -2.04897106e-01 -2.08323970e-02 -2.05545247e-01 +1.27503812e-01 -4.60143566e-01 -2.03069419e-01 -8.07962045e-02 +1.27349012e-02 +1.91648677e-01 -6.78237528e-02 +3.08984399e-01 +6.29236773e-02 -5.56634106e-02 -1.62071049e-01 +4.05333377e-02 -2.51241308e-02 -1.82103962e-01 +1.91571519e-01 -5.87228000e-01 -1.56662479e-01 -3.06079417e-01 +1.01688847e-01 +1.77618377e-02 -2.84651399e-01 -1.83673143e-01 +9.28432122e-02 -7.12401494e-02 -2.27674156e-01 -2.45082378e-01 -9.02977660e-02 -1.22134171e-01 -1.44252470e-02 -1.93141043e-01 +1.70923471e-01 -9.09073502e-02 +1.71908602e-01 -2.55190969e-01 -2.81907022e-01 +5.58624089e-01 -6.35311425e-01 +3.88772458e-01 -1.50497377e-01 -1.14010260e-01 +2.91912556e-01 -2.75064260e-01 -1.99779019e-01 +1.26257569e-01 -6.85486943e-02 +1.67042747e-01 -1.74249008e-01 -2.40258783e-01 +5.11458032e-02 -6.07300214e-02 -3.00308354e-02 +1.31266266e-01 +3.70027840e-01 -1.62715062e-01 +6.77703023e-02 -1.71689361e-01 -6.22076690e-01 -1.47062495e-01 +1.15010664e-02 -2.84385622e-01 +8.93655717e-02 +7.93899447e-02 +2.24728286e-02 -7.57354349e-02 -4.52867374e-02 -3.52074385e-01 -2.51068175e-01 +1.15289509e-01 -3.69704723e-01 -4.52286117e-02 +3.38703841e-01 -3.93984392e-02 +2.63184965e-01 -1.23853153e-02 -1.68578908e-01 +3.26807499e-01 +2.51469500e-02 -1.48832485e-01 +1.75554618e-01 -4.39683378e-01 -3.68177801e-01 +4.63589489e-01 -1.09243363e-01 +4.55527216e-01 +9.18485820e-02 -5.44491649e-01 -3.91393512e-01 +1.92669481e-01 +1.38807103e-01 +8.47632214e-02 -4.72173728e-02 -4.54358943e-02 +3.05797487e-01 +1.80205688e-01 -5.67501076e-02 -1.61629930e-01 +1.12866074e-01 +1.98311821e-01 +5.20027936e-01 +1.59296945e-01 +1.08367443e-01 -1.20814808e-01 +5.21778837e-02 +1.05843218e-02 +1.05747096e-01 -1.45344198e-01 +7.15814680e-02 +2.55382329e-01 -2.80811101e-01 -8.48195925e-02 +1.28034800e-01 -3.38443905e-01 +5.69895096e-02 +9.24573690e-02 -1.67307675e-01 +2.07869872e-01 +7.93263614e-02 -2.08482444e-01 -3.58062573e-02 +4.12199013e-02 +4.12358165e-01 -1.15064748e-01 -8.98100585e-02 +1.77174062e-01 -3.08146715e-01 +5.46636358e-02 +2.54967332e-01 +2.08880845e-02 +4.03246969e-01 -2.26904199e-01 +2.75877506e-01 +3.45272049e-02 -4.11858410e-01 +1.16064258e-01 +8.02918002e-02 -4.82941456e-02 +9.85668898e-02 -2.63992041e-01 +1.20653577e-01 -7.47871548e-02 -5.84074676e-01 -2.31325403e-01 +1.15143143e-01 -5.07647336e-01 -3.35394293e-01 -3.72962087e-01 +1.60834223e-01 +2.82095313e-01 -5.59494793e-02 +2.26042807e-01 -1.98799163e-01 +1.29635677e-01 -2.45746657e-01 +2.00152054e-01 -4.72192377e-01 -5.00194848e-01 +1.17451688e-02 -1.02942377e-01 -2.01726481e-01 -1.42775595e-01 -5.81936687e-02 -5.90180695e-01 -7.64083028e-01 -4.01574410e-02 -1.24435246e-01 -1.94173008e-02 -3.60449761e-01 +1.08765267e-01 -2.38098279e-01 -4.59135652e-01 -1.97147474e-01 -1.88274473e-01 +2.18781725e-01 -1.00920208e-01 -7.24835396e-01 -8.45938563e-01 -8.64369646e-02 -1.02534868e-01 -5.02452612e-01 -9.11111236e-02 +2.50530422e-01 -3.87541622e-01 +2.30037868e-01 +1.81208342e-01 -8.81347358e-01 -6.15720928e-01 +9.99192446e-02 -4.54542279e-01 +7.72533182e-04 -1.07510991e-01 +6.95596710e-02 -5.02740920e-01 +2.20306039e-01 +4.25672457e-02 +8.87411982e-02 +2.10750774e-01 -6.37361228e-01 -3.15014601e-01 -1.74688265e-01 +4.50971365e-01 -6.29374534e-02 -1.45981640e-01 -1.09071195e-01 +1.78577378e-01 +2.77820915e-01 +9.56315771e-02 -4.65690680e-02 +2.49797814e-02 -2.83209592e-01 +2.34581634e-01 -5.04292846e-01 +2.91988164e-01 -4.03451100e-02 +4.54002395e-02 +2.62281895e-01 -2.75099073e-02 -3.07254374e-01 +2.69055426e-01 +2.85400629e-01 -3.86526942e-01 +2.38812760e-01 +1.58559740e-01 +1.18018858e-01 -1.08129650e-01 -6.04137257e-02 -2.53241271e-01 -5.76160014e-01 +9.96448919e-02 -2.96523482e-01 +6.57463968e-02 +4.16363537e-01 +2.52243765e-02 +1.05975673e-01 -1.22700028e-01 +2.82493949e-01 -8.77977312e-02 -2.73743812e-02 +2.77437836e-01 -2.47763455e-01 +1.91944063e-01 +1.99794829e-01 -1.24475315e-01 -3.41909826e-01 +1.58304065e-01 +2.65191287e-01 +1.60871875e-02 -2.03027442e-01 +3.42726335e-02 -4.24667686e-01 +2.73053259e-01 -1.15047529e-01 +2.52139509e-01 +1.04456879e-01 +2.44636908e-02 +2.76885509e-01 +1.32492399e-02 +3.44901174e-01 -1.72722459e-01 -1.51152313e-01 -9.87616554e-03 -2.01339394e-01 +1.09224230e-01 -3.72801274e-01 +8.15906748e-03 -2.50467230e-02 -2.03385986e-02 -2.89179891e-01 +9.08284634e-02 -3.34656477e-01 -2.17568874e-01 -1.95455924e-02 +1.90668255e-01 -2.65538748e-02 -3.03941429e-01 +3.87588114e-01 -2.71465808e-01 -4.49131221e-01 -3.46968889e-01 -2.93228924e-01 -3.69016260e-01 -1.59305096e-01 +1.45911992e-01 +4.48823068e-03 -8.95783752e-02 +1.71608791e-01 -1.47280209e-02 -1.27199978e-01 -1.52102575e-01 +2.69138217e-01 +4.00624909e-02 +8.93887207e-02 -2.27048948e-01 +1.88533530e-01 -6.28375188e-02 -2.79105991e-01 -4.34478670e-02 +9.90684144e-03 -9.64811146e-01 -9.64948609e-02 +1.50019094e-01 +3.20051521e-01 +1.54230490e-01 -8.35710108e-01 -4.40519691e-01 +6.67868629e-02 +1.61254361e-01 -4.70523417e-01 -3.36524189e-01 -6.10680599e-03 +7.74413869e-02 +1.90411493e-01 +5.34303747e-02 -1.64166465e-01 -6.26044631e-01 -3.31279909e-04 +2.54601985e-01 -4.25547123e-01 -3.11530203e-01 +3.36609185e-01 -5.82995415e-02 -3.08010399e-01 +2.70601481e-01 -4.93483730e-02 +7.09820315e-02 -1.64531529e-01 +3.19838785e-02 -2.48083189e-01 +2.04564720e-01 +7.60057926e-01 +2.73895919e-01 -7.14077413e-01 -2.22262070e-01 -4.79537845e-01 +5.35142660e-01 -1.17098272e-01 +2.01982230e-01 +3.84590626e-02 +4.43755509e-03 -2.06526015e-02 +1.37808904e-01 -6.44647002e-01 +1.61304716e-02 +1.64952919e-01 -7.88608789e-02 -1.85144514e-01 +3.77973735e-01 +5.60194850e-01 -1.27100155e-01 -2.71933258e-01 -6.64944947e-02 +6.53818920e-02 +1.02394884e-02 -4.10618186e-01 -2.01296285e-01 +2.00796738e-01 -1.40283972e-01 -3.31637859e-01 -2.42951158e-02 +2.61306077e-01 -2.13104770e-01 +1.52769983e-01 -4.40662093e-02 +1.38375789e-01 +5.19561283e-02 -1.29800037e-01 +1.63407594e-01 +1.62981421e-01 +5.55455923e-01 -2.76369661e-01 +3.01278710e-01 -1.06176353e+00 +2.38597333e-01 +3.36329609e-01 +1.95958130e-02 +1.87204346e-01 +8.53242651e-02 -1.60135895e-01 +2.85836875e-01 -4.00819145e-02 -5.38671613e-02 +1.23653626e-02 +1.73626557e-01 -3.07198148e-02 -4.76827845e-02 +1.82413146e-01 -5.77327371e-01 -8.92356560e-02 +3.99253458e-01 -1.53478831e-01 -6.16786703e-02 -3.85960311e-01 +2.52737105e-01 +1.36632219e-01 -3.46105397e-01 -1.56412542e-01 +1.62229195e-01 -8.45820189e-01 -7.67674074e-02 -2.03182101e-01 -5.16509116e-01 -1.07527645e-02 -2.80134499e-01 -7.57142976e-02 +5.55181354e-02 +2.30197255e-02 -2.74383396e-01 -1.76852927e-01 -2.34183013e-01 -9.00998563e-02 -3.60702902e-01 -3.71989012e-02 -1.50755569e-01 -9.71075073e-02 -5.09616733e-01 +2.22310573e-01 -2.79433548e-01 +1.57730550e-01 -3.85493070e-01 -2.97427148e-01 +2.24240884e-01 -6.06142640e-01 +2.02835813e-01 -3.43163252e-01 +2.74112612e-01 +8.96012411e-02 -1.29339829e-01 -1.84852630e-01 -2.56623685e-01 +5.18031240e-01 -1.76019818e-01 -1.87625676e-01 -3.91867101e-01 -1.70993507e-01 -9.39438418e-02 -6.25530064e-01 +2.45189041e-01 +2.83286780e-01 -4.20818217e-02 +3.79603244e-02 -3.51659268e-01 -2.45441005e-01 -4.46323842e-01 -1.66068837e-01 -3.51551533e-01 +1.50250584e-01 -1.85405999e-01 -5.84768578e-02 -1.63878307e-01 -4.20125306e-01 -5.38624823e-01 +1.81585252e-01 +4.66538131e-01 -4.50963378e-01 -1.49955049e-01 -7.32310861e-02 +6.72177300e-02 +4.79056180e-01 -6.92567110e-01 -4.79159281e-02 +1.68234050e-01 +4.83138084e-01 +1.44164160e-01 -1.01870395e-01 -4.81965631e-01 -1.70284346e-01 -1.22069918e-01 -1.27254456e-01 +3.91363919e-01 +4.72876318e-02 -3.45451117e-01 +8.29752088e-02 -2.39362866e-01 +9.23676416e-02 -5.96114174e-02 -5.62669575e-01 -2.40936443e-01 +3.37761134e-01 -1.54790595e-01 +1.37042195e-01 -5.50528049e-01 -2.05669496e-02 -1.08837895e-01 -1.86795250e-01 +1.93909984e-02 +2.06614789e-02 -1.05004519e-01 +1.81536488e-02 